tree
version=v3
num_class=3
num_tree_per_iteration=3
label_index=0
max_feature_idx=8
objective=multiclass num_class:3
feature_names=service priority status group type_query criticality impact system place
feature_infos=-1:0:131:65:22:55:46:133:9:62:140:135:77:126:14:69:73:56:118:107:109:50:37:102:123:25:128:17:98:110:87:138:149:42:100:58:150:129:7:19:34:28:139:146:145:119:24:47:8:130:26:134:148:113:114:127:141:10:104:95:151:29:40:152:78:3:16:21:116:23:27:51:121:122:6:67:79:99:120:4:32:49:81:86:111:124 -1:3:2:1 -1:0:1 -1:36:27:495:81:43:35:7:90:492:25:37:57:89:414:193:234:184:375:175:264:58:170:384:41:477:209:118:34:217:49:328:311:247:180:86:45:239:389:100:208:238:13:61:306:334:447:361:23:507:107:144:30:450:17:137:112:228:503:103:47:52:70:160:168:165:26:104:178:256:516:8:68:537:551:29:143:21:56:75:244:278:65:79:140:40:83:521:547:210:338:430:135:141:303:327:59:87:106:108:117:271:322:360:114:214:225:246:457:465:525:78:273:348:408:473:510:519:28:115:162:250:95:116:265:267:321:324:329:409:412:15:18:157:215:223:230:274:284:307:330:401:418:513:124:260:317:405:6:55:101:139:174:195:257:259:313:365:368:396:425:432:448:497:38:42:53:54:130:186:203:263:297:404:484:12:74:76:88:125:248:252:279:381:429:480:512:517:77:163:172:182:231:261:291:292:293:336:337:395:406:443:446:460:490:528:554:39:46:63:72:96:98:102:120:136:142:146:158:181:194:222:241:255:295:296:300:355:376:380:445:475:491:530:11:14:69:80:85:94:97:111:123:126:127:150:153:156:161:169:183:192:202:207:212:235:236:249:254:266:275:276:282:283:289:290:299:320:333:350:358:377:397:411:422:423:434:444:458:459:467:468:478:481:509:524:536:552 -1:0:1 -1:3:0:1:2 -1:3:2:1 -1:0:179:27:80:68:59:34:4:10:74:181:98:174:86:95:187:166:144:182:69:146:63:52:138:122:171:195:19:176:128:25:112:88:31:196:60:131:197:199:11:78:6:28:54:175:186:193:29:167:115:39:65:12:41:177:180:92:200:30:154:124:159:3:84:42:185:32:62:44:56:93:170:20:70:107:5:24:36:37:38:168:71:91:169:189:9:33:35:47:55:90:113:120:164:7:40:57:100:108:114:160:198 -1:185:2:200:1:32:267:292:148:248:261:59:99:48:52:194:259:116:100:270:3:265:251:74:40:72:45:61:79:62:67:298:301:294:88:264:266:306:281:288:19:163:260:10:140:276:47:101:75:53:92:207:302:20:305:64:269:277:289:7:42:96:278:285:170:125:295:6:120:274:233:303:186:214:4:296:106:268:8:18:58:97:135:263:310:27:35:43:238:313:17:102:253:118:275:66:76:228:290:297:21:38:121:256:25:51:141:13:31:71:84:91:262:284:5:80:287:69:117:22:63:139:128:308:167:252:257:279:280:115:291:12:156:57:111:144:178:56:218:304:16:68:73:168:0:14:95:50:86:103:242:26:110:258:272:9:41:105:112:132:169:241:286:49:34:113:119:165:216:24:98:36:77:81:122:150:157:183:254:155:176:187:204:224:255:273:39:78:104:123:126:127:138:151:188:192:219:229:283:309:30:37:44:85:107:109:124:131:158:162:175:180:193:197:209:293:299:311:11:28:46:54:82:87:133:134:136:152:153:182:190:191:198:199:208:223:227:240:307
tree_sizes=2758 1430 626 1590 1534 714 1037 1035 886 1981 1588 1770 1688 1204 1942 3130 1266 639 3350 1980 840 2062 1681 1549 2608 1459 846 2573 1462 669 3289 2162 871 2535 1365 759 2458 1606 846 2785 2535 936 2233 2066 727 2935 1452 756 3555 2823 831 1914 2399 487 3275 1617 2140 2045 1980 578 3918 1783 762 2063 2243 851 3533 1757 667 4157 2370 754 2615 1276 2551 3383 1754 1771 3565 1452 752 3550 1576 569 3008 2142 2052 1988 1844 637 3083 2121 1512 2982 1620 728 2575 1645 947 3399 1560 482 2283 1795 2244

Tree=0
num_leaves=25
num_cat=24
split_feature=3 6 8 6 2 1 1 3 6 1 3 2 2 6 6 1 1 1 1 2 1 2 2 2
split_gain=496.15 188.627 53.3139 27.7249 20.2303 18.1536 15.0098 9.97042 37.9762 8.07797 7.47132 4.97532 3.90002 1.65232 0.394619 0.34834 0.219429 0.200097 0.121081 0.0617459 0.0443993 0.0319653 0.0149896 0.00390855
threshold=0 1 2 3 4 5 6 7 8 9 10 11 12 13 14 15 16 17 18 19 20 21 22 23
decision_type=9 9 9 9 1 9 9 9 9 9 9 1 1 9 9 9 9 9 9 1 9 1 1 1
left_child=1 4 3 9 5 -1 11 8 15 -2 -5 -3 17 16 -8 -4 19 -12 21 -9 23 -10 -18 -15
right_child=2 6 7 10 -6 -7 14 13 18 -11 12 -13 -14 20 -16 -17 22 -19 -20 -21 -22 -23 -24 -25
leaf_value=-0.43420326739922166 -0.3104611812661992 -0.21886140487504796 -0.36452757760122345 0.010166322623487475 0.043534311610596663 -0.63939622461886203 0.04358801904355851 0.02227902137333021 0.01515638642810091 -0.14760158927256486 -0.17562602171406314 0.043607220815520639 0.043652868438438006 0.040325755120076828 -0.037923468944297947 -0.45231616021126564 0.031014580659345627 -0.13603198751439405 0.043727082603910908 0.043691541147221971 0.043787680759177411 0.043470643926456831 0.043652868438438075 0.043757268044135073
leaf_weight=6.0653148181736469 6.49095094576478 22.84247218072414 2.4474077336490154 10.321676094084976 0.53204515948891895 15.074612852185966 0.67392386868596077 65.086857844144106 6.9875264279544353 5.7460877224802971 5.9234361089766026 0.74486322328448906 0.9931509643793105 144.36158660799265 4.8948154672980335 0.60298451408743892 54.800651427358389 1.6670748330652729 2.1636503152549249 1.3833174146711815 54.694242395460606 0.42563612759113301 0.99315096437930961 4.149952244013547
leaf_count=171 183 644 69 291 15 425 19 1835 197 162 167 21 28 4070 138 17 1545 47 61 39 1542 12 28 117
internal_value=-0.0245322 -0.289653 0.017993 -0.094342 -0.565242 -0.580568 -0.175708 0.0300488 -0.052694 -0.234021 -0.0408403 -0.210568 -0.0790658 0.0340029 -0.0280381 -0.38215 0.0266134 -0.166962 0.0228965 0.0227267 0.041329 0.0168 0.031242 0.0404226
internal_weight=0 50.828 369.239 31.1424 21.672 21.1399 29.1561 338.097 12.6272 12.237 18.9053 23.5873 8.58366 325.47 5.56874 3.05039 122.264 7.59051 9.57681 66.4702 203.206 7.41316 55.7938 148.512
internal_count=11843 1433 10410 878 611 596 822 9532 356 345 533 665 242 9176 157 86 3447 214 270 1874 5729 209 1573 4187
cat_boundaries=0 17 18 28 29 30 31 32 49 50 51 53 54 55 56 57 58 59 60 61 62 63 64 65 66
cat_threshold=67108864 4 67240002 0 0 32768 262144 0 4194561 0 0 256 1073741824 0 33554436 1073741824 2 4 2148532244 67667968 2147483648 4194336 8192 262144 67108864 262144 64 34734081 4 1 4 8 131072 16777216 4194304 2304 32768 0 0 4210688 0 8388608 16384 0 0 4 0 8388608 33554432 4 8 167772160 2064 1 1 4 2 8 8 8 8 1 8 1 1 1
is_linear=0
shrinkage=1


Tree=1
num_leaves=13
num_cat=12
split_feature=7 6 1 8 6 1 1 1 2 6 1 2
split_gain=266.394 756.484 521.037 20.2952 17.8333 21.2037 14.7925 2.90468 1.55556 0.863844 0.586224 0.037559
threshold=0 1 2 3 4 5 6 7 8 9 10 11
decision_type=9 9 9 9 9 9 9 9 1 9 9 1
left_child=1 2 -1 4 5 -2 -3 -6 -8 10 11 -5
right_child=3 6 -4 9 7 -7 8 -9 -10 -11 -12 -13
leaf_value=-1.8842482368744085 -4.0577190658647186 -4.7282631749736241 -4.2163998186416993 -4.7031131408396361 -4.5741027675519277 -4.6371002924922449 -4.475316764656637 -4.7282161324630776 -4.7277685153853071 -4.7282949807661359 -4.724165696363146 -4.7280795218611269
leaf_weight=2.1077161654829979 1.4894527569413185 4.032763596624136 1.7564301379024985 31.770308334380388 4.5386154763400555 1.0960124060511589 6.3231484964489919 1.6721214912831763 0.25292593985795964 86.514722872525454 24.238735903054476 0.61826340854167838
leaf_count=150 106 287 125 2261 323 78 450 119 18 6157 1725 44
internal_value=-4.66099 -4.3535 -2.94354 -4.70747 -4.59673 -4.30312 -4.57749 -4.6156 -4.48504 -4.71802 -4.7124 -4.70359
internal_weight=0 14.473 3.86415 151.938 8.7962 2.58547 10.6088 6.21074 6.57607 143.142 56.6273 32.3886
internal_count=11843 1030 275 10813 626 184 755 442 468 10187 4030 2305
cat_boundaries=0 7 8 9 19 20 21 22 23 24 25 26 27
cat_threshold=1032 0 2147484672 269025280 0 131072 280 4 8 8208 32768 2147483656 80 0 8 67108864 0 16 130 4 8 4 8 1 4 8 1
is_linear=0
shrinkage=1


Tree=2
num_leaves=5
num_cat=4
split_feature=4 6 6 1
split_gain=3504.57 533.472 163.943 34.3564
threshold=0 1 2 3
decision_type=1 9 9 9
left_child=-1 -2 3 -3
right_child=1 2 -4 -5
leaf_value=-4.282372291269791 -0.66818181396638821 -2.2730390523289534 -4.2821258454758118 -2.7570852748065908
leaf_weight=250.1700257062912 1.7688348535448313 3.5813446417450905 0.54593668319284727 2.5549836773425341
leaf_count=11456 81 164 25 117
internal_value=-4.21471 -2.21211 -2.62174 -2.47404
internal_weight=0 8.4511 6.68227 6.13633
internal_count=11843 387 306 281
cat_boundaries=0 1 2 3 4
cat_threshold=1 8 4 8
is_linear=0
shrinkage=1


Tree=3
num_leaves=15
num_cat=14
split_feature=4 0 2 6 1 6 6 1 2 6 1 2 1 2
split_gain=200.019 66.2555 21.3674 16.0587 6.63995 2.39008 1.72609 0.606361 0.323687 0.193925 0.159127 0.0940651 0.0915513 0.0167931
threshold=0 1 2 3 4 5 6 7 8 9 10 11 12 13
decision_type=1 9 1 9 9 9 9 9 1 9 9 1 9 1
left_child=1 3 4 -1 9 11 -6 -5 -9 -2 13 12 -3 -7
right_child=2 5 -4 7 6 10 -8 8 -10 -11 -12 -13 -14 -15
leaf_value=-0.13054267646768442 -0.20538493472813268 0.044731484281487793 0.078923618631257644 0.068021770292670591 -0.14443627059774231 0.061802727618107706 -0.10965346434079529 0.067840314383485714 -0.013836075389395387 -0.17463713109958373 0.068128041954438043 0.06818381288728799 0.049840708998393719 0.068089904327833226
leaf_weight=26.393001344054937 13.961941719055176 85.976312901824713 4.5319947171956292 1.0213856007903814 31.623697102069855 156.4089720658958 26.082097865641117 0.49861395545303822 15.810981806367639 2.5202909074723729 57.450987968593836 2.0997960381209841 59.712273888289928 4.5705889631062737
leaf_count=112 108 2251 39 32 147 4795 83 16 435 10 1824 63 1782 146
internal_value=0 0.0421927 -0.13184 -0.0662787 -0.144717 0.0554397 -0.128719 -0.00664717 -0.0113311 -0.200705 0.0635992 0.0471306 0.0468262 0.0619821
internal_weight=0 409.943 78.72 43.724 74.188 366.219 57.7058 17.331 16.3096 16.4822 218.431 147.788 145.689 160.98
internal_count=11843 11456 387 595 348 10861 230 483 451 118 6765 4096 4033 4941
cat_boundaries=0 1 6 7 8 9 10 11 12 13 14 15 16 17 18
cat_threshold=1 33554944 0 8389120 131072 3145732 1 4 4 4 4 4 2 4 8 1 8 1
is_linear=0
shrinkage=0.1


Tree=4
num_leaves=13
num_cat=12
split_feature=3 1 8 4 1 4 6 4 1 6 1 6
split_gain=120.11 39.7707 31.3421 13.5067 4.76724 3.77194 2.70572 0.0935685 0.119037 0.0431407 0.00922653 0.00398965
threshold=0 1 2 3 4 5 6 7 8 9 10 11
decision_type=9 9 9 1 9 1 9 1 9 9 9 9
left_child=1 -1 4 -3 6 -6 -2 8 9 -4 11 -9
right_child=2 3 7 -5 5 -7 -8 10 -10 -11 -12 -13
leaf_value=0.87271882010885771 -0.067135017803755623 0.19735104143465121 -0.058218894097076569 -0.078758228999171037 0.20744117825659428 -0.071671280079385863 0.12912092245032913 -0.075913536648575641 -0.067258588659359186 -0.062579196629057712 -0.067649727715437799 -0.066965135828650588
leaf_weight=0.8488030843436718 1.298855971544981 26.167679356411099 36.081395205110312 1.8993068812415064 7.6159835550934059 0.51609415560960759 1.5255695227533579 6.4388251882046461 44.236326833255589 64.062796720303595 2.5517394049093109 0.70722743589431036
leaf_count=41 103 383 2079 31 420 19 103 130 3429 4907 131 67
internal_value=0 0.147937 -0.0465125 0.178662 0.078873 0.189714 0.0388859 -0.0596931 -0.062925 -0.0610094 -0.0731149 -0.0750469
internal_weight=0 28.9158 165.035 28.067 10.9565 8.13208 2.82443 154.078 144.381 100.144 9.69779 7.14605
internal_count=11843 455 11388 414 645 439 206 10743 10415 6986 328 197
cat_boundaries=0 16 17 27 28 29 30 31 32 33 34 35 36
cat_threshold=0 16777220 4194304 2048 128 0 0 4194304 4194305 570425344 0 8388608 1073741824 0 0 2048 4 8272 557056 2147483648 20971552 0 262144 67108864 0 16 34603138 1 4 1 8 1 8 4 8 4
is_linear=0
shrinkage=0.1


Tree=5
num_leaves=6
num_cat=5
split_feature=4 8 2 1 1
split_gain=282.553 59.5369 37.3349 45.1732 1.56858
threshold=0 1 2 3 4
decision_type=1 9 1 9 9
left_child=-1 4 3 -3 -2
right_child=1 2 -4 -5 -6
leaf_value=-0.067624264783058705 0.0022472917969869103 0.50046027244216307 -0.077571242823176526 0.2232266116129504 -0.055331920034899042
leaf_weight=233.9789998754859 7.5431480091065168 6.9104859977960587 3.4224792700260869 39.33183485083282 12.689259307458999
leaf_count=11456 62 56 30 170 69
internal_value=0 0.161502 0.200683 0.264676 -0.0226654
internal_weight=0 69.8972 49.6648 46.2423 20.2324
internal_count=11843 387 256 226 131
cat_boundaries=0 1 2 3 4 5
cat_threshold=1 4 1 4 4
is_linear=0
shrinkage=0.1


Tree=6
num_leaves=9
num_cat=8
split_feature=4 7 2 6 6 6 2 2
split_gain=139.282 67.5395 13.1573 11.5557 1.2321 1.18418 0.0607956 0.016346
threshold=0 1 2 3 4 5 6 7
decision_type=1 9 1 9 9 9 1 1
left_child=1 3 5 -1 6 -2 -3 -6
right_child=2 4 -4 -5 7 -7 -8 -9
leaf_value=-0.11006407314175587 -0.11516627093952481 0.050108745924190339 0.07742284661003819 -0.0081739609284333017 0.062690659725063422 -0.090481841322370901 0.068092768498215939 0.06792766702031898
leaf_weight=32.284463096410036 55.753013163805008 131.00774745084345 4.0708856880664817 16.987963637337089 187.96474890224636 29.919248837977648 1.9212580081075419 6.4610139448195687
leaf_count=125 255 4020 39 484 6531 93 63 233
internal_value=0 0.0404271 -0.0982013 -0.0622942 0.0560785 -0.106548 0.0503697 0.0628654
internal_weight=0 376.627 89.7431 49.2724 327.355 85.6723 132.929 194.426
internal_count=11843 11456 387 609 10847 348 4083 6764
cat_boundaries=0 1 8 9 10 11 12 13 14
cat_threshold=1 1024 0 2147483648 589824 0 131072 280 1 4 4 4 1 1
is_linear=0
shrinkage=0.1


Tree=7
num_leaves=8
num_cat=7
split_feature=3 4 7 4 4 2 2
split_gain=97.8318 13.1268 6.78404 16.0622 0.16905 0.0443128 0.000318285
threshold=0 1 2 3 4 5 6
decision_type=9 1 9 1 1 1 1
left_child=1 -1 3 -2 5 -4 -6
right_child=2 -3 4 -5 6 -7 -8
leaf_value=0.15852696904429858 0.25430597939928606 -0.07658818090908695 -0.056883152668741291 -0.073924721613801633 -0.073118642020464739 -0.068064677906530813 -0.0668240278796466
leaf_weight=36.195112270303071 3.0508828219026327 2.5402108682319513 130.59123597759753 2.9125598482787609 6.9582787402905515 3.6964548099786034 0.36426100740209211
leaf_count=591 127 49 10438 50 255 300 33
internal_value=0 0.113743 -0.0485658 0.0351327 -0.0541756 -0.0571919 -0.0728238
internal_weight=0 38.7353 147.574 5.96344 141.61 134.288 7.32254
internal_count=11843 640 11203 177 11026 10738 288
cat_boundaries=0 16 17 24 25 26 27 28
cat_threshold=131072 16777220 4194304 2048 128 32768 0 4210688 4194305 570425344 0 545259520 1073741824 0 4 2048 1 8 0 0 0 0 133120 280 1 1 1 1
is_linear=0
shrinkage=0.1


Tree=8
num_leaves=8
num_cat=7
split_feature=4 8 6 2 1 6 1
split_gain=205.368 47.5077 24.7426 23.8842 2.1795 1.84606 0.496913
threshold=0 1 2 3 4 5 6
decision_type=1 9 9 1 9 9 9
left_child=-1 5 3 4 -3 -2 -7
right_child=1 2 -4 -5 -6 6 -8
leaf_value=-0.06751803647400309 0.01677031834347328 0.2397135366777961 0.10378852523151268 -0.071692376072132372 0.29697673394480578 -0.034976219351490888 -0.069111275023646834
leaf_weight=208.24327786825597 4.6836943030357361 22.069900199770927 25.45965981297195 2.3746000602841368 9.5915096849203128 7.6639710552990437 9.6350057125091606
leaf_count=11456 13 102 77 25 52 59 59
internal_value=0 0.119742 0.152699 0.234138 0.257079 -0.0267494 -0.0539942
internal_weight=0 81.4783 59.4957 34.036 31.6614 21.9827 17.299
internal_count=11843 387 256 179 154 131 118
cat_boundaries=0 1 2 3 4 5 6 7
cat_threshold=1 4 4 1 8 8 4
is_linear=0
shrinkage=0.1


Tree=9
num_leaves=17
num_cat=16
split_feature=7 4 8 7 1 8 1 1 4 1 8 1 4 1 1 1
split_gain=111.835 53.3613 37.4416 19.8319 11.5653 11.3339 4.69152 4.25222 1.77192 1.80252 1.29762 6.39709 0.981397 0.127548 0.0492521 0.000245729
threshold=0 1 2 3 4 5 6 7 8 9 10 11 12 13 14 15
decision_type=9 1 9 9 9 9 9 9 1 9 9 9 1 9 9 9
left_child=5 2 3 14 -3 6 12 -5 13 -10 11 -4 -1 -7 -2 -12
right_child=1 4 10 7 -6 8 -8 -9 9 -11 15 -13 -14 -15 -16 -17
leaf_value=-0.053035049377675475 0.052654999022958719 -0.19725135543641786 0.0055767572628725804 -0.16026394254800561 -0.097869085864382907 0.062694479161887862 0.047247262654084021 -0.057485485259722607 0.015700579803893649 0.068825995314430163 0.053922321584309943 -0.30142584674213124 -0.11615501525101271 0.06786887778761673 0.067910032244448623 0.053033668262198345
leaf_weight=9.0610413271933794 10.631772745400667 15.125681936740875 4.167533727362752 26.39137833379209 51.877758292481303 153.00470738857985 4.6760975383222112 4.7533703390508917 15.93147349730134 10.65998475253582 46.483405545353889 0.80876027047634114 3.3853089585900298 69.826934127137065 2.682028437033293 13.430863074958323
leaf_count=279 267 66 90 256 176 5810 167 149 69 61 1087 25 13 2723 99 506
internal_value=0 -0.0473538 -0.00697949 -0.0690606 -0.120309 0.0530209 -0.0240773 -0.109444 0.0590377 0.0370011 0.0400289 -0.0147635 -0.0702191 0.0643165 0.0318322 0.0460407
internal_weight=0 176.353 109.349 44.4585 67.0034 266.546 17.1224 31.1447 249.423 26.5915 64.8906 4.97629 12.4464 222.832 13.3138 59.9143
internal_count=11843 2721 2479 771 242 9122 459 405 8663 130 1708 115 292 8533 366 1593
cat_boundaries=0 7 8 18 24 25 34 35 36 37 38 43 44 45 46 47 48
cat_threshold=2550663185 2148532228 21053456 4 263177 141116800 168 1 1179904 1057024 1051904 5374056 268500992 33554440 256 262144 4725024 34734082 0 134217728 32 67174400 65536 64 4 34611216 166400 8 80 8192 0 67108864 262144 536870912 8 8 1 8 8 524288 32768 16 1 8 1 8 8 8
is_linear=0
shrinkage=0.1


Tree=10
num_leaves=13
num_cat=12
split_feature=3 8 8 4 3 4 6 6 4 6 6 6
split_gain=77.881 22.8924 13.1354 10.0511 5.085 6.46562 1.96333 0.243308 0.0802614 0.067313 0.0146405 0.00220815
threshold=0 1 2 3 4 5 6 7 8 9 10 11
decision_type=9 9 9 1 9 1 9 9 1 9 9 9
left_child=2 4 10 7 -2 6 -6 -4 9 -3 -1 -10
right_child=1 8 3 -5 5 -7 -8 -9 11 -11 -12 -13
leaf_value=-0.079615439761073367 -0.025447378213303441 -0.060750425122731426 0.20560807030440317 -0.075818714194568107 0.30890743916450769 -0.070808042509778998 0.44196424313191707 0.17780710529069438 -0.073659352678522319 -0.065645991374255169 -0.067907638189321481 -0.066952993423068027
leaf_weight=6.2205893900245428 5.9838415076956153 49.447078612633049 3.6591949602589011 1.5999466064386059 3.1877548415213823 0.38204420544207085 1.7318450370803455 27.630376740358773 8.8213579738512635 66.845247064717114 1.4171668132767079 0.79227590747177323
leaf_count=33 408 3788 202 36 245 14 50 236 235 6463 50 83
internal_value=0 -0.0460466 0.0980176 0.129269 0.0618977 0.112682 0.355908 0.181071 -0.0595654 -0.0635655 -0.0335484 -0.0731207
internal_weight=0 137.191 40.5273 32.8895 11.2855 5.30164 4.9196 31.2896 125.906 116.292 7.63776 9.61363
internal_count=11843 11286 557 474 717 309 295 438 10569 10251 83 318
cat_boundaries=0 16 26 27 28 44 45 46 47 48 49 50 51
cat_threshold=131072 16777220 4194304 2048 128 32768 0 4210688 4194305 570425344 0 536870912 1073741824 0 4 2048 64 565248 2147483648 20971552 0 262152 67108864 0 16 34603010 4 1 0 1050640 131072 1024 65536 0 0 0 0 0 0 0 0 0 0 32768 1 8 8 1 4 4 4
is_linear=0
shrinkage=0.1


Tree=11
num_leaves=14
num_cat=13
split_feature=0 8 3 8 8 1 1 1 1 1 2 2 1
split_gain=96.3142 24.0531 8.35602 7.67471 3.63824 3.08836 0.19465 0.147084 0.0948789 0.0799125 0.0244729 0.00262381 0.00129548
threshold=0 1 2 3 4 5 6 7 8 9 10 11 12
decision_type=9 9 9 9 9 9 9 9 9 9 1 1 9
left_child=1 5 8 6 9 -1 -3 10 -2 -5 -4 -6 -13
right_child=2 3 7 4 11 -7 -8 -9 -10 -11 -12 12 -14
leaf_value=0.18738292230075976 0.044135157824832655 0.051876983148062897 -0.06022733102654098 0.040645458485606023 -0.069647519383802481 0.12897372951608818 0.089019626234292826 -0.066699603873207267 0.021654992274066236 0.061026962025783539 -0.06885944329299791 -0.077797714010798075 -0.068417107276431299
leaf_weight=12.833148219622672 10.936268722638488 1.6152920285239816 119.77815622277558 4.2716087847948074 17.433241618797183 30.858563119545579 11.726192012429234 55.199514248408377 2.2738413987681243 3.5363962724804878 3.4788181576877824 0.91345164366066456 0.39146520104259852
leaf_count=222 222 79 6458 83 833 384 180 3073 48 55 163 29 14
internal_value=0 0.0704244 -0.0525793 0.00411145 -0.0252494 0.118921 0.0483192 -0.0590881 0.022921 0.0218776 -0.0604721 -0.0456665 -0.0750926
internal_weight=0 83.5794 191.667 39.8876 26.5462 43.6917 13.3415 178.456 13.2101 7.80801 123.257 18.7382 1.30492
internal_count=11843 1879 9964 1273 1014 606 259 9694 270 138 6621 876 43
cat_boundaries=0 5 15 30 40 50 51 52 53 54 55 56 57 58
cat_threshold=75711552 1090536448 2155872768 2281834496 17833990 2147483654 605029641 268437504 16777234 1060864 33554432 256 16777216 272631072 33685505 0 0 147456 0 0 0 0 0 67272704 545259520 8192 256 1090519040 0 4 153744 526848 21004297 8 0 67108864 0 2147500032 69633 2 0 0 0 0 0 8 67141632 262144 18512 1024 4 4 8 8 8 1 1 8
is_linear=0
shrinkage=0.1


Tree=12
num_leaves=13
num_cat=12
split_feature=3 0 4 3 8 4 4 3 3 4 2 2
split_gain=92.704 24.3578 23.8621 33.2242 12.6556 3.69201 1.92646 1.13052 1.00436 0.0665082 0.0106523 0.00633094
threshold=0 1 2 3 4 5 6 7 8 9 10 11
decision_type=9 9 1 9 9 1 1 9 9 1 1 1
left_child=2 5 3 -1 8 -2 11 -5 -3 -10 -9 -6
right_child=1 4 -4 7 6 -7 -8 10 9 -11 -12 -13
leaf_value=-0.078897598482729356 -0.020120711767257615 0.018256194615501552 -0.10358529200315175 -0.016120373307235914 0.064055135900522572 -0.10281658296600882 0.035033674179386805 0.060446718454517614 -0.1457972075333018 -0.11580406194480529 0.070715848591417343 0.067702130449592057
leaf_weight=34.936018755659461 9.5441058650612831 3.6816703658550978 60.64564485475421 3.9788103383034468 220.28136519528925 12.431583195924759 25.286015998572111 36.352499363943934 6.529952906072138 0.88930000364780415 1.1112017855048169 5.5112135354429475
leaf_count=197 258 146 193 91 9143 49 141 1148 192 4 34 247
internal_value=0 0.0445111 -0.0528943 -0.0195684 0.0535074 -0.0459837 0.0588687 0.0398654 -0.0381817 -0.0605902 0.0479553 0.0641448
internal_weight=0 284.155 137.024 76.3785 262.18 21.9757 251.079 41.4425 11.1009 7.41925 37.4637 225.793
internal_count=11843 10180 1663 1470 9873 307 9531 1273 342 196 1182 9390
cat_boundaries=0 17 22 23 39 49 50 51 61 63 64 65 66
cat_threshold=67108864 16777220 71442530 0 32896 0 262144 0 71303169 570425360 8192 256 1073741824 0 33555460 1073747968 2 8405056 16777216 2147483648 2449604608 3153926 1 0 4 0 0 0 0 0 0 4194305 33554432 0 0 1073741824 0 0 2048 8272 34816 0 16777344 0 262656 67108864 262144 0 1048578 1 1 0 16777216 4194304 0 128 0 0 0 0 536870912 0 16 1 1 1
is_linear=0
shrinkage=0.1


Tree=13
num_leaves=9
num_cat=8
split_feature=3 8 8 4 3 4 4 4
split_gain=69.437 21.0805 10.2099 7.92492 1.78673 3.31415 0.0626829 0.0553547
threshold=0 1 2 3 4 5 6 7
decision_type=9 9 9 1 9 1 1 1
left_child=2 4 6 -4 -2 -6 -1 -3
right_child=1 7 3 -5 5 -7 -8 -9
leaf_value=-0.077769400216702048 -0.021316103190458967 -0.064976153424129504 0.16315613698776327 -0.076831560018069331 0.2197204819192814 -0.070778687242457825 -0.048991057369193194 -0.073020030733262617
leaf_weight=0.84111767075955868 4.628249928355217 105.39618587773293 32.29981082957238 1.4361040415242303 7.1651398837566358 0.41458807000890363 8.0633229566737992 9.4667781949974579
leaf_count=12 332 10317 376 26 305 15 131 329
internal_value=0 -0.0460073 0.0892637 0.11797 0.0555346 0.0878914 -0.0243672 -0.0603835
internal_weight=0 127.071 42.6404 33.7359 12.208 7.57973 8.90444 114.863
internal_count=11843 11298 545 402 652 320 143 10646
cat_boundaries=0 16 26 27 28 44 45 46 47
cat_threshold=131072 16777220 4194304 134219776 128 0 0 4210688 4194305 570425344 0 545259520 1073741824 4 0 2048 8256 32768 2147483648 20971552 0 262152 67108864 0 16 34603138 4 1 0 24 131072 0 0 0 0 0 0 0 0 0 0 0 0 32768 1 2 1
is_linear=0
shrinkage=0.1


Tree=14
num_leaves=16
num_cat=15
split_feature=0 8 8 8 7 8 1 1 1 1 2 1 2 1 1
split_gain=78.0669 14.8151 9.08972 5.34131 2.87645 2.53095 0.972905 0.278097 0.194568 0.133157 0.0257079 0.0166578 0.0107695 0.00613768 0.00149568
threshold=0 1 2 3 4 5 6 7 8 9 10 11 12 13 14
decision_type=9 9 9 9 9 9 9 9 9 9 1 9 1 9 9
left_child=1 6 9 4 -2 7 -1 -4 -6 -3 11 -5 14 -14 -7
right_child=3 2 5 10 8 12 -8 -9 -10 -11 -12 -13 13 -15 -16
leaf_value=0.13953530417646443 0.046743154563527761 0.090413845115446478 0.005606328808948533 -0.06012504955647581 -0.032841452998763496 -0.078516579110351925 0.10826134561859113 0.040873935895709368 -0.067248822173713543 0.11584663604247872 -0.068466912125512272 -0.062418518962262963 -0.068806771419938878 -0.064366363933333934 -0.068796001969204698
leaf_weight=14.634233262389898 4.7983309319242835 11.003133376128972 3.4278073767200112 109.35112753231078 5.4362913183867931 0.87750996463000774 31.327934689819813 6.4317362233996374 2.3597835348919016 2.5728961294516894 4.6556246839463702 47.415023783221841 5.0296333832666278 12.058319348841914 0.40645298734307289
leaf_count=209 75 184 61 6262 337 29 347 118 170 82 263 2852 319 521 14
internal_value=0 0.0592192 0.00686872 -0.0516203 0.0156833 -0.024519 0.0970995 0.0142084 -0.0189587 0.0548523 -0.0574801 -0.0608195 -0.0429847 -0.0656812 -0.0755512
internal_weight=0 87.7697 41.8075 174.016 12.5944 28.2315 45.9622 9.85954 7.79607 13.576 161.422 156.766 18.3719 17.088 1.28396
internal_count=11843 1884 1328 9959 582 1062 556 179 507 266 9377 9114 883 840 43
cat_boundaries=0 5 15 25 34 37 46 47 48 49 50 51 52 53 54 55
cat_threshold=75711552 1090536448 2155872768 2315388928 17833990 2147483654 605028617 2048 16777234 1060864 33554432 256 0 268436768 33685505 153744 525824 289439745 8 0 67108864 0 16793600 4259905 1026 35127296 68290560 0 0 0 0 0 0 536870944 1024 0 65536 0 2048 8 0 0 8 32768 2147745792 22544 4 4 8 8 1 8 2 4 8
is_linear=0
shrinkage=0.1


Tree=15
num_leaves=29
num_cat=28
split_feature=3 8 6 8 4 7 4 1 4 7 1 4 4 4 4 1 6 6 6 8 1 6 6 1 1 6 6 1
split_gain=79.2365 21.9512 24.7171 17.9632 15.3887 11.7629 6.9409 5.12957 3.01277 1.63039 1.89588 1.5868 1.47033 0.926979 0.689086 1.91645 3.14058 1.0142 0.565477 0.542787 1.9606 1.50046 0.376206 1.04434 0.313759 0.0510409 0.0228101 0.0164978
threshold=0 1 2 3 4 5 6 7 8 9 10 11 12 13 14 15 16 17 18 19 20 21 22 23 24 25 26 27
decision_type=9 9 9 9 1 9 1 9 1 9 9 1 1 1 1 9 9 9 9 9 9 9 9 9 9 9 9 9
left_child=1 8 7 5 9 12 24 11 26 -4 -11 -3 19 -9 15 17 -17 -7 -10 20 21 -2 -8 -24 25 -5 27 -1
right_child=3 2 4 6 -6 14 22 13 18 10 -12 -13 -14 -15 -16 16 -18 -19 -20 -21 -22 -23 23 -25 -26 -27 -28 -29
leaf_value=0.058512184088697378 -0.022226498229262662 -0.084562989613281334 0.043052997942373258 0.056649279575028702 -0.085339308763590999 -0.23016442113955679 -0.018332311365974928 -0.21506715180351277 -0.025631586235547978 -0.079940845435401239 0.067725687259203679 -0.11967124684544905 -0.047959797156218009 -0.15301957220153714 -0.12250690707363998 -0.22837689712623299 0.067963331714804662 -0.11338871364192071 0.021341988984496817 0.039593392517133195 0.067913433980599597 -0.18490870317464214 -0.00063019197842682892 0.037939890640658065 0.067644610312592432 0.060646185526349233 0.068202554028050741 0.068418692004369702
leaf_weight=8.8963243775069714 1.1020251531153917 32.02487089112401 17.311571504920721 52.06304550357163 16.735348202288151 3.3404019121080637 3.6445513367652893 3.1414587367326003 5.8117184042930603 4.0351148117333651 1.1064442526549125 21.569019339978695 1.891308039426806 10.557174175977705 6.20605743303895 0.66880151443183422 0.76452910713851607 0.96471260115504254 4.5810732655227202 13.979819567874076 0.90574075840413604 1.1670303680002689 16.513167077675462 12.209250148385765 63.464752752333879 85.694594237953424 6.1507728490978488 2.1850951053202143
leaf_count=42 31 273 673 1997 50 89 10 56 16 111 47 65 7 32 20 14 25 17 21 556 31 12 82 84 3076 4131 213 62
internal_value=0 -0.0488723 -0.0693802 0.0428468 -0.0127603 -0.0258799 0.0526531 -0.112662 0.027606 0.0413389 -0.0163542 -0.0986963 0.023398 -0.167278 -0.0793086 -0.170721 -0.0704365 -0.204062 -0.00492583 0.0449079 -0.0135886 -0.105987 0.0119261 0.0157666 0.0618206 0.0591365 0.0632425 0.0604776
internal_weight=0 134.106 106.481 264.58 39.1885 30.9904 233.589 67.2925 27.625 22.4531 5.14156 53.5939 19.0459 13.6986 11.9445 5.73845 1.43333 4.30511 10.3928 17.1546 3.1748 2.26906 32.367 28.7224 201.222 137.758 17.2322 11.0814
internal_count=11843 1661 1307 10182 881 802 9380 426 354 831 158 338 637 88 165 145 39 106 37 630 74 43 176 166 9204 6128 317 104
cat_boundaries=0 17 27 28 38 39 45 46 47 48 50 51 52 53 54 55 56 57 58 59 61 62 63 64 65 66 67 68 69
cat_threshold=67108864 16777220 71442530 256 32896 0 262144 0 71303169 570425360 8192 536871168 1073741824 0 33555456 1073747968 2 4 34816 268435464 32 268435456 0 0 262144 0 2 4 8272 560128 2048 16777264 8192 262144 67108864 278528 1024 34603137 1 134218769 4 65552 4 0 2621440 1 8 1 1 134217728 8 1 1 1 1 8 4 8 8 8192 32768 8 8 8 8 8 4 4 8
is_linear=0
shrinkage=0.1


Tree=16
num_leaves=11
num_cat=10
split_feature=7 4 6 2 4 6 6 2 2 4
split_gain=31.9057 15.5977 2.03462 1.56891 0.313834 0.151335 0.224149 0.0841732 0.00530373 0.000836451
threshold=0 1 2 3 4 5 6 7 8 9
decision_type=9 1 9 1 1 9 9 1 1 1
left_child=2 3 4 5 7 -2 -7 -1 9 -4
right_child=1 -3 8 -5 -6 6 -8 -9 -10 -11
leaf_value=-0.029136681589857799 0.07158572466319639 -0.075621335095613348 -0.061157874404699698 -0.069943488853301691 -0.067468397373774622 -0.066186507792197605 0.061150254241651575 -0.067354506209994572 -0.067063565628193211 -0.066780400556883293
leaf_weight=38.712664035148919 41.553116217255592 8.9136976650916022 50.227764600422233 0.82989851012825866 2.3312548752874127 0.1379309045150876 15.546259046997871 0.58424460748210449 1.8341291374526907 0.5047287680208673
leaf_count=3576 567 178 5723 54 140 13 1263 54 211 64
internal_value=0 0.0413581 -0.0437043 0.0664394 -0.0318261 0.0684193 0.0600221 -0.0297083 -0.061423 -0.0612164
internal_weight=0 66.9809 94.1948 58.0672 41.6282 57.2373 15.6842 39.2969 52.5666 50.7325
internal_count=11843 2075 9768 1897 3770 1843 1276 3630 5998 5787
cat_boundaries=0 7 8 9 10 11 12 13 14 15 16
cat_threshold=436731985 2551185412 4259888 335544324 328705 6897792 160 1 4 1 1 4 2 1 1 1
is_linear=0
shrinkage=0.1


Tree=17
num_leaves=5
num_cat=4
split_feature=4 2 1 1
split_gain=117.557 7.61156 0.0549731 0.00445675
threshold=0 1 2 3
decision_type=1 1 9 9
left_child=-1 2 -2 -3
right_child=1 3 -4 -5
leaf_value=-0.06732088044590416 0.083969312779574881 -0.080227540313031809 0.078421067657251903 -0.070826641950853059
leaf_weight=153.92075544688851 25.361821739003062 2.2811291497200727 65.370457025244832 0.88846513349562828
leaf_count=11456 118 21 230 18
internal_value=0 0.0746521 0.0799738 -0.0776387
internal_weight=0 93.9019 90.7323 3.16959
internal_count=11843 387 348 39
cat_boundaries=0 1 2 3 4
cat_threshold=1 1 4 8
is_linear=0
shrinkage=0.1


Tree=18
num_leaves=31
num_cat=30
split_feature=3 7 6 4 4 3 1 1 6 6 7 1 1 4 6 3 4 4 6 4 4 1 1 1 4 2 2 1 1 2
split_gain=71.0075 17.2428 14.6857 15.2717 11.9593 7.96877 6.10243 1.97504 2.07546 1.74938 1.74848 1.35744 1.1872 4.14745 1.03378 0.888506 0.841998 0.528646 0.163631 0.841758 0.229717 0.165302 0.119367 0.0548488 0.0246348 0.00472961 0.00420976 0.00385834 0.00199762 0.000404223
threshold=0 1 2 3 4 5 6 7 8 9 10 11 12 13 14 15 16 17 18 19 20 21 22 23 24 25 26 27 28 29
decision_type=9 9 9 1 1 9 9 9 9 9 9 9 9 1 9 9 1 1 9 1 1 9 9 9 1 1 1 9 9 1
left_child=2 5 6 10 7 12 17 8 15 22 -4 -11 16 14 -14 -3 -2 -1 20 23 21 26 -6 25 -8 -20 -7 -22 29 -12
right_child=1 4 3 -5 9 18 24 -9 -10 11 28 -13 13 -15 -16 -17 -18 -19 19 -21 27 -23 -24 -25 -26 -27 -28 -29 -30 -31
leaf_value=-0.05806102181127766 -0.039941311106655629 0.01556351914327876 -0.021317024422044223 -0.07232910469238675 -0.086925652394110139 0.057533907367249559 -0.13864073299138555 0.067708342146792805 0.046494608974021828 0.025067947869268799 0.062858101864292915 -0.079689184607185826 0.00044654667124411604 -0.19312397211723004 -0.064426864464120714 -0.026076849937740339 0.084721693378747756 -0.078199261840259146 0.062098742931118639 0.1239782592569604 0.051159906860494979 0.067550934434203111 -0.06691305691171269 0.067510600367957765 -0.12965208198853825 0.067436493530313946 0.06733661154853815 0.04809088896836286 0.067741094453863435 0.067499180845915122
leaf_weight=37.616680428385735 0.90796748921275139 2.9917757362127304 3.1695163268595934 20.729601208120584 14.268748812377453 39.866404997184873 4.7457525786012411 9.2497683241963404 8.1222668029367924 3.1028103344142437 19.783285863697522 2.0542547255754497 7.040456235408783 1.6320772171020497 3.7705989964306337 5.6855555046349764 1.3380224704742434 19.99423910677433 73.027795866131783 2.3668210431933394 7.9487259909510612 29.299268828704953 3.8199288323521623 27.359250672161579 13.040549069643022 1.9824326746165741 0.51182743720710178 10.993291951715948 1.3210645951330722 0.57017954438925755
leaf_count=237 25 153 66 64 49 1782 75 435 188 14 803 15 164 5 135 213 7 61 3881 11 52 1557 18 1515 40 112 28 51 60 27
internal_value=0 0.0403592 -0.0496703 -0.00896011 -0.0132377 0.0530834 -0.0808642 0.030605 0.0101705 -0.0680609 0.0439159 -0.0166755 -0.0193716 -0.0446352 -0.0221872 -0.0238328 0.0343345 -0.0650526 0.0592698 0.0650167 0.0591645 0.0618218 -0.0827073 0.0636511 -0.132066 0.0622416 0.0576615 0.049384 0.0433101 0.0629947
internal_weight=0 257.34 120.971 45.5736 49.2951 208.045 75.3972 26.0494 16.7996 23.2457 24.844 5.15707 14.6891 12.4431 10.8111 8.67733 2.24599 57.6109 193.356 104.736 88.6195 69.6775 18.0887 102.369 17.7863 75.0102 40.3782 18.942 21.6745 20.3535
internal_count=11843 10410 1433 1020 1085 9325 413 989 554 96 956 29 336 304 299 366 32 298 8989 5519 3470 3367 67 5508 115 3993 1810 103 890 830
cat_boundaries=0 17 24 25 26 27 44 45 46 47 48 51 52 53 54 55 57 58 59 60 61 62 63 64 65 66 67 68 69 70 71
cat_threshold=67108864 4 4333666 134250752 32896 0 262144 4194304 71303169 570425360 8192 536871168 1073741824 0 33555456 1082136576 2 168297489 2282749956 2151744528 65540 328705 141115776 56 4 1 1 0 2164260864 0 2048 0 32768 0 16384 32768 8388608 0 41943040 0 4 0 0 33554432 8 8 8 4 1024 0 2147483648 8 4 1 4 134217728 16 1 1 4 1 1 8 8 8 1 1 1 4 8 1
is_linear=0
shrinkage=0.1


Tree=19
num_leaves=18
num_cat=17
split_feature=3 4 1 6 7 4 6 1 1 6 1 6 4 2 4 2 1
split_gain=56.9355 6.73963 5.31582 9.80505 4.1072 5.08616 2.1027 11.4109 1.69633 1.38932 0.262475 0.26813 0.0793434 0.0306546 0.0121044 0.00562257 0.0034358
threshold=0 1 2 3 4 5 6 7 8 9 10 11 12 13 14 15 16
decision_type=9 1 9 9 9 1 9 9 9 9 9 9 1 1 1 1 9
left_child=1 2 9 -4 5 6 7 -2 -8 -1 11 13 -13 14 -6 -14 -7
right_child=4 -3 3 -5 10 16 8 -9 -10 -11 -12 12 15 -15 -16 -17 -18
leaf_value=0.13263239487440992 0.50856967164973377 -0.07616985427627633 0.31605548567013952 -0.067870955915361311 -0.050007240991031043 -0.067640422127833374 0.3195910307569228 -0.06695863768743239 0.051949395949753688 0.080630576749360416 -0.067057340429899692 -0.07444489321932983 -0.060433875432388443 -0.066915771379227787 -0.066693733133016811 -0.071216167715633369 -0.077147404299423794
leaf_weight=5.9790503727272153 0.69158316636458039 2.3441685512661925 2.5677765868604183 0.89669434446841423 40.848460996989161 0.99349385080859065 0.256446847692132 0.68365586642175913 2.849050080403686 36.721260266378522 28.555644733365625 5.1906735189259052 22.611450962722301 1.1436560391448427 0.45589490421116252 0.55856823176146164 0.98724270891398169
leaf_count=235 30 49 27 39 4968 43 17 64 139 310 3605 133 1920 156 65 33 10
internal_value=0 0.0739483 0.0975917 0.216704 -0.0471756 0.0239244 0.119912 0.222783 0.0742423 0.0879179 -0.0535643 -0.0556855 -0.0632207 -0.0506483 -0.0501946 -0.0606999 -0.072452
internal_weight=0 48.509 46.1648 3.46447 105.826 6.46147 4.48074 1.37524 3.1055 42.7003 99.3643 70.8087 28.3607 42.448 41.3044 23.17 1.98074
internal_count=11843 660 611 66 11183 303 250 94 156 545 10880 7275 2086 5189 5033 1953 53
cat_boundaries=0 16 17 18 19 26 27 28 29 30 31 32 33 34 35 36 37 38
cat_threshold=131072 2164260868 4194304 134219776 128 32768 0 4210688 4194305 570425344 0 578813952 1073741824 4 4 2048 1 8 4 16777224 0 0 0 0 134219776 280 1 8 8 4 8 8 8 2 1 1 1 4
is_linear=0
shrinkage=0.1


Tree=20
num_leaves=7
num_cat=6
split_feature=4 8 6 6 1 1
split_gain=97.2105 24.4023 2.49533 0.646356 0.324465 0.0998357
threshold=0 1 2 3 4 5
decision_type=1 9 9 9 9 9
left_child=-1 3 5 -2 -5 -3
right_child=1 2 -4 4 -6 -7
leaf_value=-0.067265776942292119 -0.0053795972701019823 0.11067475330349229 0.072386562331322721 -0.02626946024030305 -0.051785940683509418 0.12060243399986458
leaf_weight=137.9552702549845 7.647150844335556 32.677050910890102 20.86320332903415 9.5731044001877308 10.410846714861695 15.236660812050102
leaf_count=11456 21 116 69 66 61 54
internal_value=0 0.0636138 0.088411 -0.0221061 -0.0395664 0.113837
internal_weight=0 96.408 68.7769 27.6311 19.984 47.9137
internal_count=11843 387 239 148 127 170
cat_boundaries=0 1 11 12 13 14 15
cat_threshold=1 4 0 0 0 0 0 0 0 2048 33554432 4 8 4 8
is_linear=0
shrinkage=0.1


Tree=21
num_leaves=17
num_cat=16
split_feature=3 0 3 1 3 2 2 7 5 7 1 1 2 1 2 1
split_gain=59.0824 20.3525 5.31202 4.96606 4.32039 3.23483 2.22445 1.61195 1.57259 0.319036 0.221 0.0950488 0.0575514 0.00653739 0.00360393 0.000248819
threshold=0 1 2 3 4 5 6 7 8 9 10 11 12 13 14 15
decision_type=9 9 9 9 9 1 1 9 1 9 9 9 1 9 1 9
left_child=3 2 13 -1 15 7 11 9 -9 -5 12 -4 -6 -2 -12 -3
right_child=1 4 6 5 10 -7 -8 8 -10 -11 14 -13 -14 -15 -16 -17
leaf_value=-0.094442487901718913 0.080932178001203003 -0.028108622150179275 -0.068280218586115993 -0.0065272371872224294 0.055826538542523611 0.083046942298168461 0.076039781617871685 -0.012444640200568766 -0.060279449768548259 0.01489327557759434 0.063343716099754643 -0.055095608704237013 0.068785338454741093 0.072329190129610962 0.06802713676361298 -0.030235142775943281
leaf_weight=20.015830849297345 1.2476163264364004 10.246845779940486 21.378184918314219 7.7603797130286694 127.64863932784647 2.0967137627303591 1.1637989189475799 32.079689547419548 50.568898342549801 5.2763772495090961 58.134014314040542 7.4323298688977983 3.5593435484915963 5.8801597636193037 2.0808292236179105 0.9899459704756709
leaf_count=153 20 224 185 290 6236 36 20 572 241 59 3161 76 166 262 111 31
internal_value=0 0.0385293 -0.0266263 -0.0452231 0.051149 -0.039771 -0.0445463 -0.042464 -0.0450604 0.00484426 0.0555815 -0.064883 0.0561791 0.030741 0.0635078 -0.014976
internal_weight=0 239.762 37.1021 117.798 202.66 97.7821 29.9743 95.6853 82.6486 13.0368 191.423 28.8105 131.208 7.12778 60.2148 11.2368
internal_count=11843 10492 563 1351 9929 1198 281 1162 813 349 9674 261 6402 282 3272 255
cat_boundaries=0 17 22 35 36 50 51 52 58 59 60 61 62 63 64 65 66
cat_threshold=67108864 2147483652 4333666 134250496 4194432 0 262144 0 71303169 570425360 8192 536871168 1073741824 0 33554432 1073747968 2 8470592 16777216 0 2319450112 3153926 134217728 16 0 4194304 0 1048576 0 0 0 8388608 0 0 1 4 131072 16777216 0 0 0 32768 0 4210688 32768 8388608 0 33554432 0 4 1 1 134217737 0 16 0 0 1024 4 1 8 8 1 8 1 8
is_linear=0
shrinkage=0.1


Tree=22
num_leaves=14
num_cat=13
split_feature=3 8 8 3 2 1 6 1 6 6 6 1 2
split_gain=45.2016 10.4947 9.80646 3.87782 2.29958 2.22786 2.39605 1.9269 2.40492 0.758359 0.0247547 0.0200732 0.00450754
threshold=0 1 2 3 4 5 6 7 8 9 10 11 12
decision_type=9 9 9 9 1 9 9 9 9 9 9 9 1
left_child=2 3 10 -2 7 6 -4 8 -5 -9 -1 12 -3
right_child=1 11 5 4 -6 -7 -8 9 -10 -11 -12 -13 -14
leaf_value=-0.054332697839616174 -0.024318090585715449 -0.063436082457469165 0.16275670437404982 0.28258066734915882 -0.071041429299103995 0.17912873397624965 0.089441866364015007 0.15053010913381382 -0.067124680003314924 0.22802896984167242 -0.067941596240896157 -0.067045084585941592 -0.06906416089835006
leaf_weight=7.7626303695142269 5.5303009562194347 58.20013748575002 5.1926976777613163 0.28343070670962334 0.39916212763637293 3.9191040927544227 31.603904944844544 2.0507505936548114 0.63053846312686801 3.3687799107283336 1.6635790988802908 24.959278893657029 1.7262868033722032
leaf_count=84 441 6748 180 13 18 42 264 80 44 163 60 3513 193
internal_value=0 -0.0445671 0.063842 0.0318716 0.064975 0.0862568 0.0997963 0.176124 0.0417026 0.19877 -0.0275391 -0.0578053 -0.0636005
internal_weight=0 97.1487 50.1419 12.263 6.73266 40.7157 36.7966 6.3335 0.913969 5.41953 9.42621 84.8857 59.9264
internal_count=11843 11213 630 759 318 486 444 300 57 243 144 10454 6941
cat_boundaries=0 16 26 27 43 44 45 46 47 48 49 50 51 52
cat_threshold=0 2164260868 4194304 134219776 128 32768 0 4210688 4194305 570425344 0 578813952 1073741824 4 4 2048 64 32768 2147483648 20971560 0 262152 67108864 0 16 34603010 4 134217728 2064 131072 1024 65536 0 0 0 0 0 0 0 0 0 1 32768 1 8 8 4 4 4 4 8 1
is_linear=0
shrinkage=0.1


Tree=23
num_leaves=11
num_cat=10
split_feature=0 8 8 8 3 8 2 2 2 2
split_gain=47.8327 9.16621 8.38481 7.27928 5.16804 0.996701 1.02285 0.0233404 0.00276012 0.00220622
threshold=0 1 2 3 4 5 6 7 8 9
decision_type=9 9 9 9 9 9 1 1 1 1
left_child=1 -1 4 -3 -2 6 -5 -6 -4 -7
right_child=2 3 8 5 7 9 -8 -9 -10 -11
leaf_value=0.07107011681502283 0.047985534138044385 0.043002130938137303 -0.065496971340659779 0.018389152112541322 -0.044095613663362843 -0.069624453671108463 -0.10305155062178006 -0.068760072428656116 -0.068782814785482593 -0.076029673212734059
leaf_weight=46.942645675502717 9.3889092924073321 14.363193274475632 109.29743041750044 9.7374308966100198 11.87775698117912 0.86729666963219643 0.74474782217293878 0.40156607609242101 3.4577029012143603 13.500758438371122
leaf_count=543 249 269 8377 199 1065 42 6 24 244 825
internal_value=0 0.0427403 -0.0485916 0.00127535 0.0119636 -0.0282618 0.0049866 -0.0247559 -0.0602552 -0.0446094
internal_weight=0 86.1561 134.423 39.2134 21.6682 24.8502 10.4822 12.2793 112.755 14.3681
internal_count=11843 1884 9959 1341 1338 1072 205 1089 8621 867
cat_boundaries=0 5 15 24 34 50 59 60 61 62 63
cat_threshold=75711552 1090536448 2155872768 2315388928 17833990 2147483654 605028361 2048 16777234 1060864 33554432 256 16777216 268436768 33685505 35127296 68290560 33024 0 0 0 67109120 0 536872992 153744 526080 289439745 8 0 0 0 278528 4259905 1026 0 4 131072 0 0 0 2 0 67108864 8388608 8192 256 1073741824 0 0 4096 0 2048 8 1048576 0 67108872 32768 2147483648 22544 1 1 1 2
is_linear=0
shrinkage=0.1


Tree=24
num_leaves=23
num_cat=22
split_feature=7 8 8 4 8 4 0 1 4 0 1 1 1 1 1 4 1 1 1 2 1 2
split_gain=47.4696 27.4249 9.80855 9.41486 7.67118 4.58235 3.13807 2.75205 1.91844 0.992979 0.610558 0.60073 0.501088 0.44215 0.378455 0.247808 0.743195 0.136222 0.118073 0.0255974 0.0156199 0.00827411
threshold=0 1 2 3 4 5 6 7 8 9 10 11 12 13 14 15 16 17 18 19 20 21
decision_type=9 9 9 1 9 1 9 9 1 9 9 9 9 9 9 1 9 9 9 1 9 1
left_child=2 5 6 4 9 12 17 -5 18 11 -10 -3 -2 -11 -6 16 -8 -1 21 -16 -7 -4
right_child=1 3 8 7 14 20 15 -9 10 13 -12 -13 -14 -15 19 -17 -18 -19 -20 -21 -22 -23
leaf_value=0.04000717124458042 -0.063015852592144164 0.067868833182209806 0.060589561959379548 -0.086859844596807401 0.066926014998701752 -0.11083280690631583 0.067379093141245794 -0.018146161886089814 0.019682996382766001 -0.063528956703722828 0.051373794530240373 0.0013848937299428968 -0.030815492227904424 -0.002299045090207159 0.041226633428281784 -0.082727706086795999 -0.060611541821396601 0.067395225599449507 0.06738956623487867 0.067910644769729536 -0.10588496221266588 0.067359145706623408
leaf_weight=3.5388289727270603 29.862769226543605 2.7545108962804079 86.530687586404383 7.3098475746810436 33.215852973982692 22.846974644809961 0.47359361313283443 28.743423910811543 14.963149661198258 12.389671990647912 10.242756770923734 2.6810427354648709 5.7729186210781327 1.303567721508444 7.5038173533976069 4.586621291935443 10.018315535970032 3.7591924583539367 38.67826331499964 0.38118828088045109 10.845149466767905 2.0102638052776447
leaf_count=138 441 116 5485 30 1003 69 26 98 67 157 75 52 158 42 415 15 310 241 2714 19 32 140
internal_value=0 -0.0281212 0.0446218 0.0075499 0.0325272 -0.0723672 -0.0172881 -0.032082 0.0542153 -0.0205774 0.032564 0.0123593 -0.0578015 -0.0333498 0.0500677 -0.0380737 -0.0548224 0.0228407 0.062766 0.0425335 -0.109247 0.0607448
internal_weight=0 165.611 174.802 96.2829 60.2297 69.3278 22.3766 36.0533 152.425 19.1288 25.2059 5.43555 35.6357 13.6932 41.1009 15.0785 10.4919 7.29802 127.219 7.88501 33.6921 88.541
internal_count=11843 2632 9211 1932 1804 700 730 128 8481 367 142 168 599 199 1437 351 336 379 8339 434 101 5625
cat_boundaries=0 7 17 27 28 38 39 44 45 46 48 49 50 51 52 53 54 55 56 57 58 59 60
cat_threshold=2550661137 2148532228 21053456 4 263177 141116864 168 2147614722 605552904 3072 17956952 8192 33554432 256 0 268438816 1179650 34611216 174592 2056 80 8192 0 67108864 262144 536870928 128 1 1048840 134258688 1081600 4194336 268500993 8 0 134479872 4722688 33554432 1 4194304 8388608 0 0 168 4 1 0 1073758208 8 8 8 8 8 1 4 8 8 1 8 1
is_linear=0
shrinkage=0.1


Tree=25
num_leaves=11
num_cat=10
split_feature=3 8 3 8 6 2 6 6 6 2
split_gain=40.9211 13.7043 6.91578 6.50534 3.20606 2.25748 0.77419 0.384875 0.00812327 6.62054e-05
threshold=0 1 2 3 4 5 6 7 8 9
decision_type=9 9 9 9 9 1 9 9 9 1
left_child=3 2 -2 7 -5 -4 -7 -1 -3 -10
right_child=1 8 5 4 -6 6 -8 -9 9 -11
leaf_value=-0.019389564556053465 -0.029375120743964672 -0.064561034405552623 -0.069660896536941491 0.19993197046687117 0.10533622561319732 0.18707350657859753 0.12844903223568652 -0.068000247480899487 -0.066594095212570925 -0.069749597803332702
leaf_weight=9.0469100717455149 7.5495742647908628 40.77406345307827 0.46400515036657453 4.0907367039471865 28.955122273415327 4.3001575022935867 4.7894783620722592 1.9852756513282628 38.605576789937913 0.98185035726055403
leaf_count=88 648 6444 38 114 201 210 98 81 3836 85
internal_value=0 -0.0409426 0.0321797 0.0657898 0.0898652 0.0709677 0.156218 -0.0147659 -0.0583444 -0.0666759
internal_weight=0 97.4647 17.1032 44.078 33.0459 9.55364 9.08964 11.0322 80.3615 39.5874
internal_count=11843 11359 994 484 315 346 308 169 10365 3921
cat_boundaries=0 17 27 44 52 53 54 55 56 57 58
cat_threshold=131072 2164260864 4194304 134219776 128 0 0 4194304 71303169 570425344 0 578813952 1073741824 4 4 2048 1 139584 32768 8 20971560 268500992 262152 67108864 0 4718592 34603010 142606336 34832 131072 1024 65536 0 0 0 0 0 16896 0 0 0 1 32768 16777216 4 0 0 16 0 0 0 134217728 8 2 8 4 8 1
is_linear=0
shrinkage=0.1


Tree=26
num_leaves=7
num_cat=6
split_feature=4 8 6 1 6 1
split_gain=75.6877 16.3591 0.912488 0.519627 0.244779 0.00179705
threshold=0 1 2 3 4 5
decision_type=1 9 9 9 9 9
left_child=-1 3 5 -2 -5 -3
right_child=1 2 -4 4 -6 -7
leaf_value=-0.067195277221261326 -0.0089305300255272165 0.089710238065632886 0.064849750566714048 -0.023102495495217257 -0.048320165192263037 0.091474924603515306
leaf_weight=113.15489375079051 9.775123979896307 34.382878758013248 19.613051415421069 6.4427773058414459 9.583468696568163 16.182668093591928
leaf_count=11456 69 116 69 18 61 54
internal_value=0 0.053529 0.0728006 -0.0195338 -0.0381865 0.0902786
internal_weight=0 95.98 70.1786 25.8014 16.0262 50.5655
internal_count=11843 387 239 148 79 170
cat_boundaries=0 1 11 12 13 14 15
cat_threshold=1 4 0 0 0 0 0 0 0 2048 33554432 4 4 8 8
is_linear=0
shrinkage=0.1


Tree=27
num_leaves=23
num_cat=22
split_feature=7 8 4 8 6 4 2 8 6 7 6 4 6 6 4 6 6 6 6 2 2 2
split_gain=41.3257 25.6067 10.9393 7.50038 5.53169 5.28888 4.01848 3.99551 3.87009 0.826832 1.31406 0.765561 0.535663 0.225361 0.115699 0.0770191 0.0484155 0.0418318 0.0249883 0.00352801 0.00255604 0.00139636
threshold=0 1 2 3 4 5 6 7 8 9 10 11 12 13 14 15 16 17 18 19 20 21
decision_type=9 9 1 9 9 1 1 9 9 9 9 1 9 9 1 9 9 9 9 1 1 1
left_child=3 5 7 4 11 8 17 9 -2 10 -3 -1 -11 -7 16 -9 19 -4 -16 -5 -17 -18
right_child=1 2 6 14 -6 13 -8 15 -10 12 -12 -13 -14 -15 18 20 21 -19 -20 -21 -22 -23
leaf_value=-0.12563688973243262 -0.070509147766470465 0.067706960981284481 -0.038394945563155168 0.05955270447584942 0.032214930486104028 -0.10550628610734269 0.080569582676380314 0.052057417283871456 -0.0064607681377967519 -0.072455608740142494 -0.087517546312397707 -0.054360692689683812 -0.027478078412021958 -0.086719259223686479 0.044012634537623239 0.060082734277285423 0.063794795303074123 -0.031675038711440971 0.054823058903472312 0.06803843780428924 0.067136311177917921 0.06720035877075739
leaf_weight=4.5809756508097053 26.354652759619057 3.6703373556956649 25.894767433404922 50.312821621075273 5.5494652390480024 25.676729373633862 3.1899103838950387 20.034170277416706 14.694408616982399 4.1811594571918249 0.63872301392257202 2.2522749975323677 7.226959150284527 8.5983806475996953 2.5307876467704773 26.512635804712772 56.059950638562441 14.560279071331022 16.013012491166595 0.59375771135091682 0.67455320619046943 1.9736230056732882
leaf_count=118 278 195 82 3419 237 74 31 296 671 125 18 7 39 33 7 1570 4236 51 102 41 50 163
internal_value=0 -0.0220648 0.0100696 0.0481496 -0.0232076 -0.0633853 -0.0274565 0.0376921 -0.0475831 -0.0120207 0.0134559 -0.102167 -0.0234343 -0.100799 0.0562647 0.0468607 0.0619241 -0.0359781 0.0533526 0.0596543 0.0602627 0.0639129
internal_weight=0 181.908 106.583 139.867 12.3827 75.3242 43.645 62.9385 41.0491 15.7172 4.30906 6.83325 11.4081 34.2751 127.484 47.2214 108.94 40.455 18.5438 50.9066 27.1872 58.0336
internal_count=11843 3513 2457 8330 362 1056 164 2293 949 377 213 125 164 107 7968 1916 7859 133 109 3460 1620 4399
cat_boundaries=0 7 17 18 27 28 29 30 40 41 44 45 46 47 48 49 50 51 52 53 54 55 56
cat_threshold=2550661137 2148532228 20987920 4 263177 141116800 168 2148663298 605593864 35840 16908360 73728 33554432 256 0 268438816 1179648 1 8208 33280 2048 80 8192 0 67108864 262144 16 4 1 1 328 0 1048832 5242912 268435457 8 4 0 4722688 33554434 4 0 134217728 2147550208 8 1 8 4 1 4 4 4 8 1 1 1
is_linear=0
shrinkage=0.1


Tree=28
num_leaves=13
num_cat=12
split_feature=7 4 6 7 4 1 6 6 1 1 4 1
split_gain=16.2956 9.54413 2.20802 2.9442 0.553005 0.428679 7.87919 5.42075 0.0717992 0.0070933 0.00425337 1.67311e-05
threshold=0 1 2 3 4 5 6 7 8 9 10 11
decision_type=9 1 9 9 1 9 9 9 9 9 1 9
left_child=2 5 3 4 -1 7 -7 -2 10 -3 -4 -5
right_child=1 9 8 11 -6 6 -8 -9 -10 -11 -12 -13
leaf_value=-0.069796438936698388 0.1161256954072387 -0.076028277843543227 -0.054793293639679642 -0.068739679842990134 0.020706416728459954 0.10595918522237689 -0.067202870182171942 0.03376237690090346 -0.066936802002616799 -0.068070362666797765 -0.066564564443855209 -0.067095055717108762
leaf_weight=0.70073654036968946 10.287101828958839 5.5187074872665107 31.803163551259786 5.3804516550153494 17.248143906705085 5.9798550507985055 4.6844755378551763 35.787914688233286 5.949687448097392 1.6878733099438239 0.35241245524957676 9.6063655563630146
leaf_count=46 784 108 4606 320 1781 235 638 340 1222 92 61 1610
internal_value=0 0.029579 -0.0354282 -0.0214502 0.0110243 0.0479733 0.0298967 0.0521558 -0.0568051 -0.0741838 -0.0549264 -0.0406046
internal_weight=0 63.9459 71.041 32.9357 17.9489 56.7393 10.6643 46.075 38.1053 7.20658 32.1556 14.9868
internal_count=11843 2197 9646 3757 1827 1997 873 1124 5889 200 4667 1930
cat_boundaries=0 7 8 9 13 14 15 16 17 18 19 20 21
cat_threshold=402653265 2282749956 4259888 67174404 328712 6995968 160 1 4 1 0 65552 65536 2 8 4 8 8 8 1 8
is_linear=0
shrinkage=0.1


Tree=29
num_leaves=5
num_cat=4
split_feature=4 8 6 6
split_gain=64.2604 13.0205 0.468209 0.420249
threshold=0 1 2 3
decision_type=1 9 9 9
left_child=-1 3 -3 -2
right_child=1 2 -4 -5
leaf_value=-0.067150168228233789 -0.0058683460015456091 0.078065766981905468 0.059620486733224023 -0.034208408185825684
leaf_weight=101.35356136551127 7.4200562536716461 51.721486173570156 18.806811877526343 17.753410645760599
leaf_count=11456 21 170 69 127
internal_value=0 0.0471067 0.0640656 -0.0185055
internal_weight=0 95.7018 70.5283 25.1735
internal_count=11843 387 239 148
cat_boundaries=0 1 11 12 13
cat_threshold=1 4 0 0 0 0 0 0 0 2048 33554432 4 8
is_linear=0
shrinkage=0.1


Tree=30
num_leaves=30
num_cat=29
split_feature=3 0 7 3 3 6 6 2 6 1 2 6 1 6 1 6 1 1 6 1 1 2 1 1 1 2 2 6 2
split_gain=38.4063 14.516 4.43439 2.96797 2.5285 2.23993 2.02583 1.7928 1.35487 1.25763 1.05231 0.55986 0.847955 0.265248 0.208842 0.13449 0.13017 0.0969772 0.0865177 0.682689 0.0786285 0.0681363 0.0337015 0.0292193 0.0144842 0.0140429 0.00949092 0.00358347 0.00222241
threshold=0 1 2 3 4 5 6 7 8 9 10 11 12 13 14 15 16 17 18 19 20 21 22 23 24 25 26 27 28
decision_type=9 9 9 9 9 9 9 1 9 9 1 9 9 9 9 9 9 9 9 9 9 1 9 9 9 1 1 9 1
left_child=2 4 8 18 6 9 -2 11 10 -4 -1 24 -13 17 -10 16 21 -7 20 -20 -3 -5 25 -8 -6 27 -18 -17 -24
right_child=1 3 5 15 7 13 23 -9 14 -11 -12 12 -14 -15 -16 22 26 -19 19 -21 -22 -23 28 -25 -26 -27 -28 -29 -30
leaf_value=0.094933320386038356 -0.035090252325721168 -0.010935882575902084 -0.058140397671715541 0.048017326804432124 -0.064159669218454049 0.0097290139203466998 0.081568533060423512 0.075935416839048045 0.011288426788936682 -0.092231325465527314 -0.015764540802623312 -0.046351563380475302 0.045786582446112202 0.068754776164318507 0.048258637538042097 0.056545174553670391 0.057353289475253588 -0.024129968606371729 -0.064593673885162864 0.067221960044226189 -0.031769654250762121 0.070626762405273422 0.061376384574903547 0.066959096975409624 -0.058132972730316347 0.067105788289265597 0.069742292049674373 0.068343171544853171 0.067086327834866399
leaf_weight=0.88748380541801453 2.4171754624694586 5.5921046696603298 49.187905890867114 42.989242948591709 5.7312874803319573 0.91437307186424732 2.8002345571294427 1.1320229042321468 2.1953912787139416 13.88329767808318 24.867065996862951 4.0424254890531301 1.324645086191597 0.33230092283338031 5.0352470483630887 58.98466659989208 25.04027633741498 11.137074911035596 2.0141258230432868 0.48627968877553707 2.6802392695099115 1.3834467707201827 18.63750883191824 2.8790720645338279 15.488001620396973 1.3615070823580016 0.67766704782843845 0.30305766314268012 0.96009424980730074
leaf_count=17 99 97 221 1995 36 38 103 24 27 81 554 56 53 8 69 4260 1648 371 69 27 12 39 1558 25 112 123 27 9 85
internal_value=0 0.0342441 -0.037294 0.047094 -0.0212223 -0.0512242 0.0185982 -0.034701 -0.00092381 -0.0656472 -0.0119429 -0.0524684 -0.0236024 -0.0191256 0.0370398 0.0517786 0.0520145 -0.0215598 -0.0117352 -0.0389249 -0.0176921 0.0487254 0.0580236 0.0741886 -0.0597667 0.0568457 0.0576851 0.0566078 0.0616629
internal_weight=0 196.925 108.44 161.11 35.8149 75.455 8.09648 27.7184 32.9852 63.0712 25.7545 26.5864 5.36707 12.3837 7.23064 150.337 70.0906 12.0514 10.7727 2.50041 8.27234 44.3727 80.2468 5.67931 21.2193 60.6492 25.7179 59.2877 19.5976
internal_count=11843 10457 1386 9949 508 719 227 281 667 302 571 257 109 417 96 9744 3709 409 205 96 109 2034 6035 128 148 4392 1675 4269 1643
cat_boundaries=0 17 22 29 46 61 62 63 64 65 66 67 68 69 70 71 72 73 74 75 76 77 78 79 80 81 82 83 84 85
cat_threshold=67108864 2147483652 4333664 134250496 4227200 0 262144 0 71335937 570425360 8192 570425600 1073741824 4 1024 8394752 2 8470528 16777216 0 2151677952 19931142 167772160 134217728 16 0 0 1024 8 131072 16777216 0 0 0 32768 0 4194304 0 8388608 0 0 0 0 33554432 0 1 134217728 0 0 0 0 1048576 0 0 0 8388608 0 0 1 0 4 4 8 1 8 8 2 4 8 8 4 4 8 4 4 8 8 1 8 4 4 1 1 8 1
is_linear=0
shrinkage=0.1


Tree=31
num_leaves=19
num_cat=18
split_feature=8 0 0 4 8 4 1 1 1 4 4 4 2 2 1 2 1 2
split_gain=29.4251 7.64577 4.9026 5.31412 2.59725 2.08639 0.486626 0.432383 0.35085 0.22789 0.182551 0.11613 0.0366301 0.035049 0.0207657 0.0162928 0.00306707 0.00219358
threshold=0 1 2 3 4 5 6 7 8 9 10 11 12 13 14 15 16 17
decision_type=9 9 9 1 9 1 9 9 9 1 1 1 1 1 9 1 9 1
left_child=1 5 3 -2 6 8 9 11 -1 -4 14 13 -8 -3 15 -6 -12 -16
right_child=2 7 4 -5 10 -7 12 -9 -10 -11 16 -13 -14 -15 17 -17 -18 -19
leaf_value=0.12413287239362746 0.2160760099270608 -0.018275819277194957 0.022494049023410106 -0.067955468097911934 -0.055113438963418963 -0.074039448207936204 -0.066137034562277083 -0.067415735726310141 0.092536327085089798 -0.066954984280830063 -0.074451881956945229 -0.069053525729734763 -0.019452687124758533 -0.066701633070805719 -0.068084093994220246 -0.068318728681297555 -0.067333507420763411 -0.059599576736349337
leaf_weight=24.181357756489888 2.6132372771389782 8.1004574177786797 10.791496390709653 0.87941633583977852 50.12164581567049 0.56684282515198248 0.17492608795873821 2.7576232450082871 4.1490909513086107 0.29064872674643893 5.9146159128285944 0.49321871250867388 3.5375183145515599 0.15059307054615878 0.41540995938703418 0.98661088943481345 0.94775923155248065 12.875466380501162
leaf_count=731 52 855 562 45 5447 23 38 415 338 23 180 33 274 15 59 144 77 2532
internal_value=0 0.0588372 -0.0349827 0.0374365 -0.0415139 0.0859645 0.00575243 -0.0176013 0.119512 0.0201364 -0.0508271 -0.0220041 -0.0216868 -0.0191756 -0.0563024 -0.055371 -0.0734887 -0.059875
internal_weight=0 40.3992 89.5488 3.49265 86.0561 28.8973 14.7946 11.5019 28.3304 11.0821 71.2615 8.74427 3.71244 8.25105 64.3991 51.1083 6.86238 13.2909
internal_count=11843 2410 9433 97 9336 1092 897 1318 1069 585 8439 903 312 870 8182 5591 257 2591
cat_boundaries=0 10 15 20 21 31 32 33 34 35 36 37 38 39 40 41 42 43 44
cat_threshold=139344 565504 2148533248 17956928 65537 302252036 67108864 0 2320 1179778 4211201 1082130433 8389120 406847488 2097152 33619968 0 0 16777216 3145728 1 1048832 0 35072 16 0 8 0 134217728 4722688 33554432 1 8 8 8 1 1 1 2 1 8 1 8 2
is_linear=0
shrinkage=0.1


Tree=32
num_leaves=7
num_cat=6
split_feature=4 3 6 6 1 1
split_gain=54.9521 5.13927 0.953952 0.0684398 0.573993 0.0309362
threshold=0 1 2 3 4 5
decision_type=1 9 9 9 9 9
left_child=-1 3 5 4 -2 -3
right_child=1 2 -4 -5 -6 -7
leaf_value=-0.067112541247761046 -0.031596049318153012 0.069929469303412414 0.042870537808376567 -0.022206913709841822 0.0042952268906355289 0.06457336493968184
leaf_weight=90.911990585271269 6.1356779783964157 28.196164272725582 22.870059630833566 2.7667420059442547 16.259600937366489 18.316039767116308
leaf_count=11456 47 102 92 14 62 70
internal_value=0 0.0417754 0.0520919 -0.00527711 -0.00553992 0.0678232
internal_weight=0 94.5443 69.3823 25.162 22.3953 46.5122
internal_count=11843 387 264 123 109 172
cat_boundaries=0 1 17 18 19 20 21
cat_threshold=1 0 4 67108864 0 0 0 0 0 256 0 0 0 0 0 4 1073741824 4 4 4 8
is_linear=0
shrinkage=0.1


Tree=33
num_leaves=23
num_cat=22
split_feature=7 8 4 8 4 2 8 1 1 4 4 1 4 1 5 1 1 1 1 2 2 2
split_gain=30.1137 23.5892 8.43494 7.06176 3.33359 3.17208 3.02264 2.10584 1.02196 2.0419 1.19001 0.697923 0.388976 0.383019 0.336089 2.42593 0.277266 0.224108 0.0475666 0.0288482 0.0139101 0.00487624
threshold=0 1 2 3 4 5 6 7 8 9 10 11 12 13 14 15 16 17 18 19 20 21
decision_type=9 9 1 9 1 1 9 9 9 1 1 9 1 9 1 9 9 9 9 1 1 1
left_child=3 4 6 8 11 7 14 -4 10 -10 -1 -2 17 -6 -3 -16 21 20 -14 -18 -5 -8
right_child=1 2 5 12 13 -7 16 -9 9 -11 -12 -13 18 -15 15 -17 19 -19 -20 -21 -22 -23
leaf_value=0.013135475042631212 -0.05489389358430579 0.0045821328427886618 -0.017002457402669233 0.056277091455701971 -0.10061645830474336 0.080342790950591519 0.060442561381256837 -0.077774920409961645 0.067145063853618583 -0.20693016500697137 -0.082740420669393397 -0.018399675477113856 0.039789420343192689 -0.077229166305284883 -0.0057122397947986315 -0.14267058811317876 0.037126750624323183 0.067202069063431222 0.04968893444782152 0.067991002652422264 0.067133759172814902 0.069131711586060324
leaf_weight=1.5766806602478027 31.527110728435218 9.203791250474751 32.576294526457787 61.82756017241627 21.087882075458765 2.9197206692770115 35.371085099875927 6.91003344208002 1.4804768692702026 0.33087330032140005 7.2207741159945726 6.2880893899127832 10.685785265639424 10.55231609195471 3.338930681347847 2.1091516036540243 6.4811660796403876 28.459935726597905 9.0253042820841074 0.31911636143922795 1.2574503356590856 0.75716360099613567
leaf_count=5 730 189 106 4991 70 25 1396 23 126 2 222 191 49 32 56 90 459 2815 75 20 125 46
internal_value=0 -0.0190564 0.0124015 0.0440174 -0.0602031 -0.0202026 0.0385669 -0.0276409 -0.0265016 0.0169076 -0.0655585 -0.0488268 0.0523731 -0.0928219 -0.00942164 -0.0207302 0.0463448 0.0598255 0.0443268 0.0385947 0.0564956 0.0606285
internal_weight=0 169.442 99.9865 121.865 69.4554 42.406 57.5804 39.4863 10.6088 1.81135 8.79745 37.8152 111.256 31.6402 14.6519 5.44808 42.9285 91.5449 19.7111 6.80028 63.085 36.1282
internal_count=11843 3433 2410 8410 1023 154 2256 129 355 128 227 921 8055 102 335 146 1921 7931 124 479 5116 1442
cat_boundaries=0 7 17 18 28 29 30 40 41 42 43 44 45 46 47 48 49 50 51 52 53 54 55
cat_threshold=2550661137 2148532228 4210704 4 263177 141116864 168 2147614722 68722952 35840 16908360 77824 33554440 256 0 268438816 1179650 1 8208 512 8 80 8192 0 67108864 262144 16 128 1 1 1048904 0 1048832 5242912 1 0 4 0 4722688 33554432 8 8 1 2 8 1 8 12 4 8 8 8 1 1 1
is_linear=0
shrinkage=0.1


Tree=34
num_leaves=11
num_cat=10
split_feature=3 8 8 1 6 1 1 6 6 1
split_gain=30.2374 8.56116 4.12947 2.76522 0.787505 3.15439 0.993026 0.396003 0.139205 0.0190904
threshold=0 1 2 3 4 5 6 7 8 9
decision_type=9 9 9 9 9 9 9 9 9 9
left_child=2 3 7 -2 5 -4 -6 -1 -5 -3
right_child=1 9 4 8 6 -7 -8 -9 -10 -11
leaf_value=0.012075358677322054 -0.067057707141936942 -0.062965688851589735 0.14042874542760084 0.079112031372899808 0.07123897009318822 -0.06812319677440655 0.11835061099605282 -0.049027939779732695 0.056402432031132876 -0.066980736743947181
leaf_weight=1.2501402958296239 1.7719931069295853 48.057216184213758 6.1842457014136016 5.355947122676298 27.20513354241848 0.82035993598401535 5.3606859948486081 6.969563400372861 5.5099113397300208 16.619928245898336
leaf_count=52 248 6983 150 374 254 41 29 79 151 3482
internal_value=0 -0.0403544 0.0529295 0.0272 0.0682958 0.115991 0.0790008 -0.0179281 0.0676088 -0.0554295
internal_weight=0 77.315 47.7901 12.6379 39.5704 7.00461 32.5658 8.2197 10.8659 64.6771
internal_count=11843 11238 605 773 474 191 283 131 525 10465
cat_boundaries=0 17 27 30 31 32 33 34 35 36 37
cat_threshold=131072 2164260864 4194304 134219776 4194432 32768 0 4210688 71303169 570425344 0 578813952 1073741824 4 4 2048 1 131392 32768 0 16777256 268500992 262152 67108864 0 4718592 34603008 4 0 8 4 8 8 8 8 8 8
is_linear=0
shrinkage=0.1


Tree=35
num_leaves=6
num_cat=5
split_feature=4 8 2 6 6
split_gain=48.5851 7.83072 6.29057 0.111953 0.0922639
threshold=0 1 2 3 4
decision_type=1 9 1 9 9
left_child=-1 4 3 -3 -2
right_child=1 2 -4 -5 -6
leaf_value=-0.067082313647240391 -0.0072659691393403922 0.069088983937791379 -0.078579048222290976 0.059554153020372105 -0.020491868612927542
leaf_weight=82.111338563263416 7.2897228598594666 47.438956007361412 3.1285028755664817 16.807686809450388 19.106388679239902
leaf_count=11456 21 139 29 64 134
internal_value=0 0.0382646 0.052118 0.0665965 -0.0122135
internal_weight=0 93.7713 67.3751 64.2466 26.3961
internal_count=11843 387 232 203 155
cat_boundaries=0 1 11 12 13 14
cat_threshold=1 4 1 0 0 0 0 0 0 2048 33554432 1 4 8
is_linear=0
shrinkage=0.1


Tree=36
num_leaves=21
num_cat=20
split_feature=0 8 8 7 8 7 4 4 4 1 1 4 1 4 1 1 1 1 1 1
split_gain=25.5137 14.4113 13.6375 9.62859 4.15711 3.33125 1.92156 1.58953 1.2938 1.13047 1.05293 0.697669 0.490132 0.406332 0.156026 0.114882 0.109758 0.10478 0.0533454 0.00286657
threshold=0 1 2 3 4 5 6 7 8 9 10 11 12 13 14 15 16 17 18 19
decision_type=9 9 9 9 9 9 1 1 1 9 9 1 9 1 9 9 9 9 9 9
left_child=2 5 6 4 8 -2 9 12 15 -1 -5 14 -6 -7 -3 -4 -13 -9 -8 -15
right_child=1 11 3 10 7 13 18 17 -10 -11 -12 16 -14 19 -16 -17 -18 -19 -20 -21
leaf_value=-0.052762286274092733 0.024437671594950128 0.057619599430701475 -0.00029281806003431853 -0.081056195684210339 0.071950805846281746 -0.091852641349758318 -0.081891015849532622 0.031669969657609202 -0.11773809805341875 -0.0015744130896114183 -0.033155801686716141 0.037733503471855868 0.037867050734209796 -0.052812647787125494 0.067205923602643158 -0.034652173417033603 0.053806958329842627 0.014237453022322594 -0.07336167816854898 -0.058003212331840082
leaf_weight=25.528721932321787 5.7148993876762688 66.329092340543866 1.1944327028468251 11.584245472215116 22.814088026061654 4.3917515221983194 21.330209478735924 11.392441362142563 2.1573728322982788 5.1919470159336951 7.6059606494382033 19.689177079126239 5.1854290263727334 1.4343745140358806 22.959299316164106 5.2504187691956741 5.4364068619906929 4.9513771161437043 11.573759265244005 14.866429391317077
leaf_count=367 560 5606 58 147 754 18 71 39 7 214 249 91 229 71 2560 136 58 19 38 551
internal_value=0 0.0360884 -0.0227075 0.00780969 0.0291172 -0.0263055 -0.0536677 0.0417599 -0.0234677 -0.0441119 -0.0408117 0.0514463 0.0656417 -0.0437163 0.060086 -0.0282864 0.0412153 0.0263912 -0.0788955 -0.057553
internal_weight=0 140.821 135.76 72.1358 52.9456 26.4075 63.6246 44.3433 8.60222 30.7207 19.1902 114.414 27.9995 20.6926 89.2884 6.44485 25.1256 16.3438 32.904 16.3008
internal_count=11843 9515 2328 1638 1242 1200 690 1041 201 581 396 8315 983 640 8166 194 149 58 109 622
cat_boundaries=0 5 15 25 32 41 47 48 49 50 51 52 53 54 55 56 57 58 59 60 61
cat_threshold=75712064 1090536449 512 2571241472 19931142 35135504 1220608 1048576 131136 268435456 8 67108868 134217728 536872976 2 2147614722 605552904 35840 17825880 12288 33554432 256 262144 272631072 34734081 1024 134217728 2147484672 67108864 65536 134349056 16 264 9216 16777472 4194306 1114112 0 32768 0 537399296 134217744 4 0 0 0 2621440 1 1 1 8 8 1 8 2 8 4 8 8 8 4
is_linear=0
shrinkage=0.1


Tree=37
num_leaves=13
num_cat=12
split_feature=3 8 8 0 1 6 1 6 2 6 1 1
split_gain=27.5062 7.23096 3.37247 3.261 1.93768 1.72441 3.29733 0.29902 0.0104583 0.0105636 0.0578335 0.0269623
threshold=0 1 2 3 4 5 6 7 8 9 10 11
decision_type=9 9 9 9 9 9 9 9 1 9 9 9
left_child=2 3 7 -2 -5 -4 -7 -1 9 10 -3 -11
right_child=1 8 5 4 -6 6 -8 -9 -10 11 -12 -13
leaf_value=0.0074865230914098625 -0.023600443281441386 -0.061233563733836052 0.13545748116336842 0.13877940211633308 -0.067354383944035826 0.17001032883297346 0.065940557769398764 -0.044538541687884591 -0.067971785718677499 -0.059339347593449478 -0.052022178905296534 -0.066888037702214451
leaf_weight=1.3248781245201826 5.2956053290981782 20.300455610500649 6.3123001605272293 6.8753999907057732 0.48724897671490897 3.4396103862673044 26.466536507010463 6.6323419781401753 1.5823528817854811 25.021538654109463 10.44021256756969 6.0316280391998616
leaf_count=52 561 2051 152 286 36 19 252 79 301 4737 1747 1570
internal_value=0 -0.0374505 0.0535318 0.0247331 0.0530669 0.0689257 0.0779206 -0.0158999 -0.0515489 -0.059468 -0.0581088 -0.0608098
internal_weight=0 76.0344 44.1757 12.6583 7.36265 36.2184 29.9061 7.95722 63.3762 61.7938 30.7407 31.0532
internal_count=11843 11289 554 883 322 423 271 131 10406 10105 3798 6307
cat_boundaries=0 17 27 30 35 36 37 38 39 40 41 42 43
cat_threshold=131072 2164260864 4194304 134217728 4194432 32768 0 16384 71303201 536870912 0 578813952 1073741824 4 4 2048 1 131392 41216 0 16777256 268500992 262144 67108864 0 4718592 1048576 4 0 8 4210689 1073758208 2147483648 8192 168 8 8 4 8 1 4 8 8
is_linear=0
shrinkage=0.1


Tree=38
num_leaves=7
num_cat=6
split_feature=4 8 1 6 6 1
split_gain=42.1251 6.34361 1.30076 0.142176 0.0451072 0.00129117
threshold=0 1 2 3 4 5
decision_type=1 9 9 9 9 9
left_child=-1 2 -2 -4 5 -3
right_child=1 4 3 -5 -6 -7
leaf_value=-0.067051438378974745 0.010291021231302804 0.055839560509768273 -0.023688657562321823 -0.04350382826684622 0.049396606893068615 0.05445465710661939
leaf_weight=74.027684573084116 10.914151748642325 35.665042161941528 6.2649132311344147 8.6099432618357223 16.627722308970988 13.776145599782465
leaf_count=11456 76 116 18 61 69 47
internal_value=0 0.0343196 -0.0114769 -0.0351625 0.0468427 0.0554559
internal_weight=0 91.8579 25.789 14.8749 66.0689 49.4412
internal_count=11843 387 155 79 232 163
cat_boundaries=0 1 11 12 13 14 15
cat_threshold=1 4 1 0 0 0 0 0 0 2048 33554432 4 8 4 8
is_linear=0
shrinkage=0.1


Tree=39
num_leaves=24
num_cat=23
split_feature=3 8 0 8 6 7 4 7 6 8 4 6 4 4 6 4 6 6 6 6 4 6 6
split_gain=26.875 19.2084 10.4885 5.78008 3.99394 2.69221 2.64357 3.89516 2.36644 1.67086 4.09095 0.988075 0.684347 0.504842 0.272129 0.114351 0.216177 0.0945031 0.0347342 0.0153784 0.00151049 0.00132424 0.000400341
threshold=0 1 2 3 4 5 6 7 8 9 10 11 12 13 14 15 16 17 18 19 20 21 22
decision_type=9 9 9 9 9 9 1 9 9 9 1 9 1 1 9 1 9 9 9 9 1 9 9
left_child=9 5 6 4 -4 13 7 18 -9 10 14 20 -13 -2 -1 19 -17 -11 -3 -5 -7 -8 -21
right_child=1 2 3 15 -6 11 21 8 -10 17 -12 12 -14 -15 -16 16 -18 -19 -20 22 -22 -23 -24
leaf_value=0.018109587321322687 0.068354670139721338 0.055025783615787839 -0.061054440636818363 0.056199802455464777 0.037541508029120797 -0.078152874575155656 -0.053244803852986577 -0.023767263609707504 -0.16286298194176874 0.060508429702513848 -0.096431297110768893 -0.079169259683937565 -0.037538213676064122 -0.0023188778111106825 0.068493324451189538 0.093911226270397705 0.061553900992215298 0.067542758777748457 0.067604886666413275 0.060192502054219457 -0.076623453954992371 -0.051494635760847333 0.066945270579539404
leaf_weight=2.0167473363690078 4.47072415612638 3.7166818771511316 10.786804787814617 16.907956529408693 6.6335854064673194 21.478608176112175 12.60931384563446 1.9847946506924927 3.1884665112011144 36.417574995197356 3.8982636630535126 5.6607104577124119 13.074112158734353 1.3056737482547758 2.291051675565539 2.8391512632369995 7.6815073667094094 40.899422405753285 5.6610516579821688 22.422215765342116 25.077838927507401 11.872469544410706 0.24786491133272903
leaf_count=194 359 94 125 1447 543 265 42 105 53 3655 12 27 683 4 167 8 56 2551 360 952 79 46 16
internal_value=0 -0.0152022 0.0118803 0.0341456 -0.0149365 -0.052263 -0.0257433 0.00141853 -0.0373522 0.050079 -0.0100225 -0.0602928 -0.0501241 0.0191844 0.0449249 0.050858 0.0703022 0.0568752 0.0303138 0.0585354 -0.0773324 -0.0524003 0.0602722
internal_weight=0 177.62 106.552 67.5191 17.4204 71.0677 39.0328 14.551 5.17326 85.5231 8.20606 65.2913 18.7348 5.7764 4.3078 50.0987 10.5207 77.317 9.37773 39.578 46.5564 24.4818 22.6701
internal_count=11843 5264 3847 3147 668 1417 700 612 158 6579 373 1054 710 363 361 2479 64 6206 454 2415 344 88 968
cat_boundaries=0 16 26 31 41 42 48 49 56 57 67 68 69 70 71 72 73 74 75 76 77 78 79 80
cat_threshold=167772288 166456 50331648 3072 2048 17826816 0 0 2432 128 0 0 1 2147483648 570425349 33792 2148016208 68714505 3328 16777280 73728 33554440 67109124 0 805308720 34734080 8471616 16794624 8388610 151128064 3145732 1179904 134217984 17825800 1048577 1048577 268435460 0 134479872 4722752 2 4 134217728 0 0 65540 262144 6815744 1 0 134217728 32 0 0 0 16 8 0 1048576 0 24 0 0 0 16384 1024 129 1 4 2 1 8 1 8 8 4 8 1 4 4
is_linear=0
shrinkage=0.1


Tree=40
num_leaves=23
num_cat=22
split_feature=8 7 4 7 1 6 8 4 6 1 1 6 4 6 1 6 1 4 1 1 4 1
split_gain=21.4294 6.57295 2.27613 1.96816 3.46002 1.10039 3.69162 1.42878 0.588538 4.18585 0.504781 0.455534 0.437801 0.307544 0.27518 0.146527 0.137854 0.136193 0.0993516 0.0195277 0.00103221 0.00051778
threshold=0 1 2 3 4 5 6 7 8 9 10 11 12 13 14 15 16 17 18 19 20 21
decision_type=9 9 1 9 9 9 9 1 9 9 9 9 1 9 9 9 9 1 9 9 1 9
left_child=1 15 8 4 13 6 7 14 9 -3 -10 12 -6 -2 -5 -1 -17 18 -8 20 -7 -19
right_child=3 2 -4 5 11 19 17 -9 10 -11 -12 -13 -14 -15 -16 16 -18 21 -20 -21 -22 -23
leaf_value=-0.067465923918206175 0.079690195523089022 -0.067441359467939069 -0.074092160135464033 0.010561927200777217 -0.067360940426360968 -0.058944153451899829 -0.05094164218060946 -0.073472291446275054 0.080498980290841182 0.14148681682353295 0.12294689003070894 -0.066895558633890143 0.022951443143135429 0.16066470804364266 0.066499581012520112 -0.026453896600981793 -0.066943822192758837 -0.073305838983905053 -0.067104481652572198 -0.066813553526064412 -0.066523883634326153 -0.06718706524077743
leaf_weight=4.6657830192707479 0.6637788088992238 1.0875830505974591 0.81425573350861569 1.0111898551695049 0.66012670518830419 23.307167881866913 21.882705512456596 0.90340174827724684 19.783835950540379 8.038893135963006 3.2728796934243318 1.1399020138196645 2.8331982134841387 1.6533090719021859 6.791113068116827 2.3894166480749846 1.2996793859638258 3.994255852419883 4.6334900434594628 3.9119111297186491 0.30296335509047523 0.46791016543284314
leaf_count=775 26 115 28 160 46 4334 1530 37 607 588 125 232 59 15 181 67 262 114 1212 1226 59 45
internal_value=0 0.0493391 0.0697473 -0.0326426 0.0155193 -0.0389886 -0.0341306 0.0211634 0.0950615 0.11658 0.0865346 -0.0120637 0.00585651 0.137557 0.0592545 -0.0253484 -0.0407472 -0.0427138 -0.0537708 -0.0601557 -0.059047 -0.0726946
internal_weight=0 41.3523 32.9974 74.1564 6.95031 67.2061 39.6841 8.7057 32.1832 9.12648 23.0567 4.63323 3.49332 2.31709 7.8023 8.35488 3.6891 30.9784 26.5162 27.522 23.6101 4.46217
internal_count=11843 2567 1463 9276 378 8898 3279 378 1435 703 732 337 105 41 341 1104 329 2901 2742 5619 4393 159
cat_boundaries=0 10 17 18 25 26 27 36 37 38 39 40 41 42 43 44 45 46 47 48 49 50 51
cat_threshold=139344 565504 2148533248 17956928 65537 302252044 67108864 0 530704 1179778 134217808 134217732 16416 67174404 262144 2621440 160 1 16781312 0 1024 0 0 131072 264 8 4 264 135266304 2304 16 0 0 260 134217728 4194304 1 8 4 8 4 2 4 4 8 8 1 8 8 1 8
is_linear=0
shrinkage=0.1


Tree=41
num_leaves=8
num_cat=7
split_feature=4 8 1 6 6 1 6
split_gain=36.7606 5.12007 2.41484 1.08739 0.119573 0.100628 0.0658892
threshold=0 1 2 3 4 5 6
decision_type=1 9 9 9 9 9 9
left_child=-1 2 3 -2 -4 6 -3
right_child=1 5 4 -5 -6 -7 -8
leaf_value=-0.067028297421194677 0.093004624306605277 0.053622901652413041 -0.028125350792771311 0.0081284926491418143 -0.046277292159050187 0.041761646881307672 0.045631577298765241
leaf_weight=66.994014494819567 1.8183451890945435 34.289522431790829 5.9057610034942627 8.8406423293054086 9.4695035987533611 14.744179767556487 14.92441734857857
leaf_count=11456 6 113 17 69 68 54 60
internal_value=0 0.030807 -0.0100814 0.0226225 -0.0393096 0.0423979 0.0512014
internal_weight=0 89.9924 26.0343 10.659 15.3753 63.9581 49.2139
internal_count=11843 387 160 75 85 227 173
cat_boundaries=0 1 11 12 13 14 15 16
cat_threshold=1 4 1 0 0 0 33554432 0 0 0 33554432 4 8 8 8 4
is_linear=0
shrinkage=0.1


Tree=42
num_leaves=19
num_cat=18
split_feature=3 0 7 3 4 6 4 3 6 4 4 6 6 6 6 4 6 6
split_gain=24.7762 13.2744 5.5396 6.09694 8.51229 0.726286 0.648295 1.5482 1.46599 0.632684 0.564319 0.501381 0.446049 0.442194 0.354613 0.325583 0.134271 0.0338524
threshold=0 1 2 3 4 5 6 7 8 9 10 11 12 13 14 15 16 17
decision_type=9 9 9 9 1 9 1 9 9 1 1 9 9 9 9 1 9 9
left_child=10 -2 3 5 11 9 7 14 -9 -3 16 -5 -6 -8 -4 -7 -1 -12
right_child=1 2 6 4 12 15 13 8 -10 -11 17 -13 -14 -15 -16 -17 -18 -19
leaf_value=0.058312171886292369 0.044766599516620882 -0.097020605553134728 0.014198676299628468 0.040495063353993943 -0.043347274258491969 -0.026564818423381095 -0.05951884417894835 -0.086396855141336049 -0.040868737205701798 -0.046528779069227068 0.041796614184537721 0.067317548411959596 -0.0074928418453687933 -0.027328806372355879 0.067864405382656326 -0.09480135651224364 0.068357946501917927 0.05369386255173049
leaf_weight=32.614160218741745 23.146104111801833 7.0279707284644237 6.8749299757182598 12.369482447393239 12.484161034226418 5.1812782208435246 36.011184297502041 9.3993536541238427 28.591652574483305 3.8455010354518899 18.73328123986721 16.001908821985126 4.8063020072877416 4.8468374572694293 1.4984136475250105 0.80701848864555348 22.691322543192655 2.7745445519685772
leaf_count=3785 2036 180 111 680 52 161 123 385 224 12 105 1525 23 25 55 3 2346 12
internal_value=0 -0.0144773 -0.0258641 -0.00102586 0.017984 -0.0400339 -0.0417317 -0.0384194 -0.0412734 -0.0791756 0.0505135 0.055627 -0.0333827 -0.0557018 0.0108552 -0.0357894 0.0624362 0.0433362
internal_weight=0 172.892 149.746 62.5236 45.6619 16.8618 87.2224 46.3643 37.991 10.8735 76.8133 28.3714 17.2905 40.858 8.37334 5.9883 55.3055 21.5078
internal_count=11843 5595 3559 2636 2280 356 923 775 609 192 6248 2205 75 148 166 164 6131 117
cat_boundaries=0 17 22 28 45 46 47 48 51 52 53 54 55 56 57 58 59 60 61
cat_threshold=167772160 201361464 50331648 3072 2048 17826816 0 4096 2432 128 0 0 1 2147483648 570425349 33792 16777216 301989888 75497504 40992 1145069908 4202633 167772161 134217728 1024 65536 0 138412800 0 2164260864 71303168 0 0 32768 0 16384 1 8388608 0 578814208 1073741824 0 0 8388608 1 1 4 1 0 4 67239936 8 1 1 4 8 4 4 1 8 4
is_linear=0
shrinkage=0.1


Tree=43
num_leaves=17
num_cat=16
split_feature=3 8 8 4 3 1 4 4 1 8 1 4 1 2 1 1
split_gain=22.2781 6.64253 5.13391 3.3061 1.91393 1.15507 0.919399 0.576751 0.33028 0.249678 0.12105 0.0189505 0.0140081 0.00104135 0.000425949 0.000281309
threshold=0 1 2 3 4 5 6 7 8 9 10 11 12 13 14 15
decision_type=9 9 9 1 9 9 1 1 9 9 9 1 9 1 9 9
left_child=2 4 7 8 -2 -6 -7 9 -4 10 -1 12 13 -3 -13 -9
right_child=1 11 3 -5 5 6 -8 15 -10 -11 -12 14 -14 -15 -16 -17
leaf_value=0.025116620090925454 -0.020296700538384661 -0.062632550262023926 0.093523326776969867 -0.074115969485138503 -0.066851791715041284 -0.069496777447543887 0.095739242052033047 -0.073428725418122689 0.12450717646449022 -0.0126747669688159 -0.0026404654848691655 -0.071780459620979661 -0.066920676334361037 -0.067611812599386908 -0.067197315805030397 -0.066777005110356821
leaf_weight=4.4226744752377272 4.1272885510697961 34.135138009209186 25.99054853245616 1.1626295354217315 0.49775371793657541 0.34885472571477294 8.7455626605078525 1.1795180798508227 3.989684569649401 7.0473739276640099 2.4356692219153047 3.3953833517152816 11.227190408855675 0.75185686792246897 0.84990667970850964 0.39407714223489043
leaf_count=92 377 6645 306 34 68 14 276 43 25 89 34 163 3372 177 88 40
internal_value=0 -0.0371044 0.0462166 0.0690629 0.0207793 0.0397921 0.089387 -0.00881457 0.0976546 -0.00800998 0.00620962 -0.0537038 -0.0637635 -0.0627437 -0.070895 -0.0718498
internal_weight=0 64.0789 46.6222 31.1429 13.7195 9.59217 9.09442 15.4793 29.9802 13.9057 6.85834 50.3595 46.1142 34.887 4.24529 1.5736
internal_count=11843 11180 663 365 735 358 290 298 331 215 126 10445 10194 6822 251 83
cat_boundaries=0 17 27 35 36 53 54 55 56 57 65 66 67 68 69 70 71
cat_threshold=131072 2164260864 4194304 134219776 4194432 32768 0 16384 71303457 33554432 0 578813952 1073741824 4 4 2048 1 131392 32768 0 20971560 268500992 262144 67108864 0 4718592 34603008 1048580 0 8 48 0 0 0 134479872 1 134217728 32784 131072 0 0 0 0 0 0 0 0 0 0 0 1 32768 16777216 4 2 1 8 1048576 0 8 16 0 0 0 134217728 8 1 8 1 8 8
is_linear=0
shrinkage=0.1


Tree=44
num_leaves=6
num_cat=5
split_feature=4 2 1 6 1
split_gain=32.0521 4.0286 0.0255009 0.103858 0.00135137
threshold=0 1 2 3 4
decision_type=1 1 9 9 9
left_child=-1 2 -2 -4 -3
right_child=1 4 3 -5 -6
leaf_value=-0.067003791583943248 0.034825741641165073 -0.080307929827878141 0.033827008161500902 0.024965201803987282 -0.074404885865568995
leaf_weight=60.256000495515764 23.868922179564834 2.3487158324569464 40.789416149258614 19.621014853939414 1.0805777194909745
leaf_count=11456 118 21 147 83 18
internal_value=0 0.0277245 0.0320482 0.0309497 -0.0784923
internal_weight=0 87.7086 84.2794 60.4104 3.42929
internal_count=11843 387 348 230 39
cat_boundaries=0 1 2 3 4 5
cat_threshold=1 1 4 4 8
is_linear=0
shrinkage=0.1


Tree=45
num_leaves=25
num_cat=24
split_feature=3 8 0 8 8 6 4 8 4 6 7 6 4 6 4 6 6 4 4 6 6 4 4 4
split_gain=21.6022 16.8385 11.0065 3.77214 3.15489 3.34131 2.91697 2.76879 3.06769 2.02748 1.36123 1.24469 0.933617 0.777886 0.775215 0.433465 0.290702 0.0927074 0.0825527 0.0401284 0.0302106 0.344219 0.33458 0.0194821
threshold=0 1 2 3 4 5 6 7 8 9 10 11 12 13 14 15 16 17 18 19 20 21 22 23
decision_type=9 9 9 9 9 9 1 9 1 9 9 9 1 9 1 9 9 1 1 9 9 1 1 1
left_child=7 9 3 14 5 -4 11 8 15 -2 12 -5 -11 -12 -3 -1 23 -15 -18 -8 21 -6 -22 -9
right_child=1 2 4 6 20 -7 19 16 -10 10 13 -13 -14 17 -16 -17 18 -19 -20 -21 22 -23 -24 -25
leaf_value=-0.0052985042174571624 -0.070368596437465694 0.068052508303325779 -0.059958440826258341 -0.041670384886886763 0.091359786479168231 0.037548934097665299 -0.079462938627878552 0.060261803444677811 -0.088817622425968371 -0.12377437230916771 0.069669169126314864 0.020528862299187059 0.038367604439785458 -0.064426154480351355 0.015167437951051433 0.06813492105192584 0.068288913740367094 -0.082943491070428865 0.078278835150533674 -0.070191223268965194 0.070974662722366966 0.052589112046738544 0.045576705680689028 0.051108378590546955
leaf_weight=1.3615932231768966 43.758132576011121 4.3296013576909882 7.6194129781797528 7.3955692569725215 2.7835369408130646 6.5195953794755024 11.348288454115391 27.824538600631058 4.4696559309959412 0.37308371067047119 0.40652040392160416 5.6917593581601995 6.6948068868368864 8.0935956244356948 7.7015126198530197 1.9593578497879207 17.863589601125568 4.1234717220067951 15.776533696800469 8.3177477009594405 21.881680532824248 13.019351786933838 6.8185814185999361 2.6361172795295742
leaf_count=144 420 204 117 147 8 492 39 3588 15 1 6 458 589 356 26 173 2102 19 100 37 1278 1465 51 8
internal_value=0 -0.0134473 0.0116864 -0.0231016 0.0377487 -0.00878543 -0.0392295 0.0487964 -0.015217 -0.0504293 -0.0317249 -0.0146205 0.0123325 -0.0369178 0.0186818 0.0380421 0.0575802 -0.0706886 0.0729784 -0.075549 0.0514321 0.0594289 0.0649442 0.0594731
internal_weight=0 166.876 103.427 44.7845 58.6422 14.139 32.7534 71.8914 7.79061 63.4496 19.6915 13.0873 7.06789 12.6236 12.0311 3.32095 64.1008 12.2171 33.6401 19.666 44.5032 15.8029 28.7003 30.4607
internal_count=11843 5713 4322 911 3411 609 681 6130 332 1391 971 605 590 381 230 317 5798 375 2202 76 2802 1473 1329 3596
cat_boundaries=0 17 27 32 42 52 53 54 64 65 66 72 73 74 75 76 77 78 79 80 81 82 83 84 85
cat_threshold=134217728 134383672 50331648 4197376 2048 17826816 0 4096 2432 128 0 0 1 2147483648 570425349 1073775616 16777216 2148016144 68722689 2147486976 16777280 73728 33554444 67109120 0 536873264 34734080 8602688 1090536448 8388610 2298611712 19922948 131073 134220800 8 1048592 1048576 262144 0 134217728 0 66 132480 134218048 1048584 1048592 1048577 268435456 0 134217728 4722688 2 4 1 0 1048584 0 24 0 0 0 16384 1024 128 1 4 1 0 16 0 0 2621440 4 2 2 1 8 8 1 1 4 8 2 1 1
is_linear=0
shrinkage=0.1


Tree=46
num_leaves=12
num_cat=11
split_feature=3 4 7 6 4 6 6 4 2 2 4
split_gain=18.1965 3.93784 2.46218 2.78162 0.930379 0.863083 0.3645 0.229923 0.0296994 0.00232516 0.000814699
threshold=0 1 2 3 4 5 6 7 8 9 10
decision_type=9 1 9 9 1 9 9 1 1 1 1
left_child=1 5 3 -2 -5 -1 7 8 -4 10 -8
right_child=2 -3 6 4 -6 -7 9 -9 -10 -11 -12
leaf_value=0.080398772797608986 0.14806937865641134 -0.072578831165978783 -0.068171641946153494 0.04408087384901372 -0.071840744427923986 0.047747519291640672 -0.05972322839769785 -0.070406183419536819 -0.039706278413960745 -0.066628457338989533 -0.066519890970631962
leaf_weight=10.529426531866193 2.1655537055339664 2.5411496544256797 0.3746091736247763 1.7485718571115285 1.1433496433310211 35.108439194969833 26.294633260229599 2.8227996195200857 22.901696275454018 0.67009336920455354 0.33347048144788161
leaf_count=240 140 117 59 145 20 320 6640 159 3687 238 78
internal_value=0 0.0401947 -0.0358732 0.0209723 -0.00176786 0.0552839 -0.0437165 -0.0434456 -0.0401702 -0.0599855 -0.0598133
internal_weight=0 48.179 58.4548 5.05748 2.89192 45.6379 53.3973 26.0991 23.2763 27.2982 26.6281
internal_count=11843 677 11166 305 165 560 10861 3905 3746 6956 6718
cat_boundaries=0 17 18 25 26 27 28 29 30 31 32 33
cat_threshold=131072 2164260864 4194304 134219776 4194432 32768 0 4210688 71303457 33554432 0 578813952 1073741824 4 4 2048 1 1 16777224 0 2147483648 0 0 134217728 256 8 1 8 4 1 2 1 1
is_linear=0
shrinkage=0.1


Tree=47
num_leaves=6
num_cat=5
split_feature=4 8 2 1 1
split_gain=27.9343 3.75299 4.44981 0.825086 0.0312334
threshold=0 1 2 3 4
decision_type=1 9 1 9 9
left_child=-1 3 4 -2 -3
right_child=1 2 -4 -5 -6
leaf_value=-0.066976619494325929 0.0060545204327836872 0.050382355641366505 -0.078436247480044352 -0.031122254949073131 0.04484653440143626
leaf_weight=54.169306808849797 10.547308393754065 13.332129418849945 3.0137616526335469 13.751400368753821 45.859853263944387
leaf_count=11456 76 43 29 79 160
internal_value=0 0.0245975 0.0345116 -0.0106169 0.0460951
internal_weight=0 86.5045 62.2057 24.2987 59.192
internal_count=11843 387 232 155 203
cat_boundaries=0 1 11 12 13 14
cat_threshold=1 4 1 0 0 0 0 0 0 2048 33554432 1 4 4
is_linear=0
shrinkage=0.1


Tree=48
num_leaves=31
num_cat=30
split_feature=3 8 8 4 3 8 3 4 8 2 2 4 1 1 4 4 1 4 1 1 4 4 1 4 1 1 4 2 1 2
split_gain=18.7454 14.3957 6.32892 4.71211 2.79896 2.56062 2.54564 2.26496 2.04736 1.64337 1.33845 0.827525 0.803873 0.597063 1.53603 0.591923 0.720371 0.567229 0.403286 0.2256 0.531096 0.245998 0.118021 0.0622141 0.0216916 0.0210078 0.0176157 0.00176637 0.00170484 0.00163381
threshold=0 1 2 3 4 5 6 7 8 9 10 11 12 13 14 15 16 17 18 19 20 21 22 23 24 25 26 27 28 29
decision_type=9 9 9 1 9 9 9 1 9 1 1 1 9 9 1 1 9 1 9 9 1 1 9 1 9 9 1 1 9 1
left_child=5 9 3 6 12 7 -3 18 10 15 11 24 17 14 -10 22 -17 -4 -1 21 -21 -7 -2 -14 -6 29 27 -15 -5 -8
right_child=1 2 4 28 8 19 25 -9 13 -11 -12 -13 23 26 -16 16 -18 -19 -20 20 -22 -23 -24 -25 -26 -27 -28 -29 -30 -31
leaf_value=0.0035932062383526929 -0.053034159786364402 -0.026381694318913164 -0.034148000055295467 -0.066954053143885153 -0.0029329969478284605 0.042328816771025526 0.054354491361200422 -0.076082794941927101 0.067104647395734005 0.070544662449231785 0.085799001781343601 -0.05438844198937684 0.016752939743137213 0.062603260909758859 -0.015460332181351934 -0.080973584320675362 -0.038376593887328718 -0.10478665871833606 0.067401167205275628 0.06437787133914559 0.090281971252362578 0.066960657981865374 -0.037685966603505289 -0.023741991441002919 0.011920620189457814 0.067120306193148987 0.058073012790300062 0.068391223376141855 -0.069660980250610724 0.06620466147767988
leaf_weight=3.0687680654227734 29.525521020404994 5.85594228701666 6.6034212922677398 5.6402639448642731 5.4589692768640816 6.3367677181959152 7.9860782600007978 4.4775293469429016 5.4432757650502026 1.0031694923527528 1.2455170457251359 4.9041142463684073 2.9872835627756995 24.6922198664397 3.8427443504333496 17.268594961613417 5.1625130921602276 1.3723281621932981 1.4607886308804134 27.724894023966044 11.104689539410172 11.335397119633855 6.0632360843010238 0.43275780975818667 1.1970352106727649 1.66223921999335 12.23178675631061 0.78489912813529628 10.056061185896395 0.1600208957679542
leaf_count=212 958 71 186 19 337 49 645 16 832 49 27 17 94 1727 27 65 19 4 182 3517 58 2001 249 3 99 183 61 74 40 22
internal_value=0 -0.0124467 0.0105248 -0.0227299 0.0261684 0.0474636 0.00882528 -0.0121619 0.0351656 -0.0481027 -0.00708201 -0.0232275 -0.0154135 0.0459002 0.0329416 -0.0584469 -0.0711742 -0.0463255 0.024192 0.0573683 0.0717903 0.0581341 -0.0504216 0.011618 -0.000258901 0.0280974 0.061261 0.0627869 -0.0686969 0.0546035
internal_weight=0 161.58 102.557 31.3606 71.1964 65.5088 15.6643 9.00709 59.8006 59.023 12.8056 11.5601 11.3958 46.9949 9.28602 58.0199 22.4311 7.97575 4.52956 56.5017 38.8296 17.6722 35.5888 3.42004 6.656 9.80834 37.7089 25.4771 15.6963 8.1461
internal_count=11843 5808 4468 980 3488 6035 921 410 3201 1340 480 453 287 2721 859 1291 84 190 394 5625 3575 2050 1207 97 436 850 1862 1801 59 667
cat_boundaries=0 17 27 37 38 53 63 76 77 86 87 88 89 90 91 92 93 94 95 96 97 98 99 100 101 102 103 104 105 106 107
cat_threshold=134225920 134252600 50331648 4197376 2048 17825792 0 4096 2432 128 0 0 1 2147483648 570425349 1073775616 16777216 2147491856 68722688 2147486720 16777280 73728 33554444 67109124 0 536873264 34734080 34211904 537002761 16810240 131082 1052673 268435456 0 262144 272699456 1027 1 67239936 33554432 4194304 0 128 0 0 16384 0 33554432 0 8388608 0 0 1024 0 1048840 0 24 0 0 0 16384 1024 128 0 4 67108864 0 4194304 0 0 0 1 0 0 0 1073741824 1 1065352 2048 5242889 5242880 0 67371008 32768 0 541697 1 1 1 8 4 1 1 8 1 8 4 1 2 8 1 8 8 1 1 4 1
is_linear=0
shrinkage=0.1


Tree=49
num_leaves=25
num_cat=24
split_feature=8 3 3 4 1 8 6 4 6 6 1 6 1 1 1 6 6 1 1 4 1 4 4 1
split_gain=16.076 8.26219 3.82799 3.20043 2.25493 2.09011 1.83653 1.15651 1.13755 1.06532 0.744397 0.582895 0.21276 0.168084 0.115299 0.104814 0.0470905 0.0333542 0.0267263 0.0242833 0.00877639 0.00620087 0.00113828 0.000298136
threshold=0 1 2 3 4 5 6 7 8 9 10 11 12 13 14 15 16 17 18 19 20 21 22 23
decision_type=9 9 9 1 9 9 9 1 9 9 9 9 9 9 9 9 9 9 9 1 9 1 1 9
left_child=1 14 7 4 11 8 -6 -2 10 12 -4 -3 -9 -11 15 -1 17 -7 21 20 -18 -10 -19 -21
right_child=2 3 5 -5 6 16 -8 9 18 13 -12 -13 -14 -15 -16 -17 19 22 -20 23 -22 -23 -24 -25
leaf_value=-0.047903515023130665 -0.070005209733889892 0.18574254948137808 0.029994410113333449 -0.073040136625954377 0.109250169098283 -0.066804896628270882 -0.067231417278290531 0.058502169284525299 -0.065503332517135304 -0.0017649589333981618 -0.066770169541665716 0.1442594457378869 0.027693848680800683 -0.06658458469280315 -0.067454469985680707 -0.025494948806285757 -0.061583719004539184 -0.065904982676556395 -0.066489958035948413 -0.07214098453330535 -0.067044755090519395 -0.037771510274658714 -0.054848929436661156 -0.067324932545535426
leaf_weight=5.0634879129938781 1.2188143595121801 6.1393531616777182 10.478081677574664 0.70691560907289641 3.174901504535228 2.9410463948734105 0.72261293476913602 7.2718324628658593 0.084793453570455313 4.4142431251239032 0.85839561861939628 7.7058776502963156 3.2486588237807155 0.43793099513277312 1.6610695032868505 3.56553815305233 17.621474534855224 0.14205106231383979 0.3853969585616136 3.1888241055421531 3.9161206352291655 3.1794109900947665 13.743833649787121 0.68743660510517957
leaf_count=633 94 217 609 16 63 1211 128 188 11 117 236 70 61 139 387 86 1455 44 136 101 1327 436 4006 72
internal_value=0 0.0530032 -0.024891 0.0878411 0.143761 -0.0368796 0.0765122 0.0147784 0.00421341 0.0311208 0.0226569 0.162678 0.0489958 -0.00764025 -0.0219687 -0.0386523 -0.049474 -0.0570475 -0.0415188 -0.0639213 -0.0625828 -0.0385316 -0.0549715 -0.071322
internal_weight=0 28.7398 73.8183 18.4497 17.7427 57.2269 3.89751 16.5915 14.9861 15.3727 11.3365 13.8452 10.5205 4.85217 10.2901 8.62903 42.2408 16.8269 3.6496 25.4139 21.5376 3.2642 13.8859 3.87626
internal_count=11843 1600 10243 494 478 9644 191 599 1428 505 845 287 249 256 1106 719 8216 5261 583 2955 2782 447 4050 173
cat_boundaries=0 10 26 38 39 40 50 51 52 53 54 55 56 57 58 59 60 61 62 63 64 65 66 67 68
cat_threshold=8272 565504 2147484672 17956928 65537 268697612 67108864 0 2320 1179778 134217728 1050648 131072 68608 0 16777216 0 4194304 0 545259520 512 0 4194304 0 1 32768 131072 16777216 71303168 0 128 0 0 16384 4194561 33554432 0 8388608 1 8 4325632 0 1310976 6291456 0 33554432 4 262144 2152202240 33554432 4 2 4 4 8 8 8 8 8 8 8 4 8 1 8 2 2 8
is_linear=0
shrinkage=0.1


Tree=50
num_leaves=7
num_cat=6
split_feature=4 7 6 1 1 6
split_gain=24.5014 0.535348 0.408246 1.349 0.178968 0.0200049
threshold=0 1 2 3 4 5
decision_type=1 9 9 9 9 9
left_child=-1 5 4 -4 -3 -2
right_child=1 2 3 -5 -6 -7
leaf_value=-0.066958167675494257 0.05050560463741325 0.018998947181105261 -0.027557046227596929 0.065039511382198517 0.0058332279858406659 0.044716712350742441
leaf_weight=48.848737178836018 12.877979896962643 35.36978679895401 7.3139293259009719 2.0024201082997006 14.584393464028834 11.606972634792328
leaf_count=11456 44 146 30 21 91 55
internal_value=0 0.0221532 0.00990109 -0.00764501 0.0151555 0.033915
internal_weight=0 83.7555 59.2705 9.31635 49.9542 24.485
internal_count=11843 387 288 51 237 99
cat_boundaries=0 1 5 6 7 8 9
cat_threshold=1 0 134217728 32 67108864 4 8 8 4
is_linear=0
shrinkage=0.1


Tree=51
num_leaves=16
num_cat=15
split_feature=3 4 8 8 1 2 3 1 4 1 2 1 1 4 4
split_gain=15.4843 9.95933 8.41027 5.61613 3.1866 2.40198 1.40231 0.220178 0.0614798 0.0591354 0.0167295 0.0144123 0.000795211 0.0192247 0.018111
threshold=0 1 2 3 4 5 6 7 8 9 10 11 12 13 14
decision_type=9 1 9 9 9 1 9 9 1 9 1 9 9 1 1
left_child=2 3 8 4 -2 6 7 -3 -1 -8 11 -5 13 -4 -14
right_child=1 5 12 10 -6 -7 9 -9 -10 -11 -12 -13 14 -15 -16
leaf_value=0.029924902292187486 0.066975479953205797 -0.063614478388508408 -0.063777377779526884 0.058631248130135732 -0.063652163002254333 0.078338398978640519 -0.00023839657512706217 -0.032741024822561929 0.018132901914857672 0.0080471181032168784 0.067479543421196345 0.055441451896285909 -0.068477473264110661 -0.072985548801603392 -0.063093123677518806
leaf_weight=14.833362044766545 2.3276721178553998 2.6127167046070099 4.5314344884827733 56.527300797402859 9.4154113167896849 3.157851045485585 14.417204596102238 20.021841138601307 6.3168908189982185 21.398288098163903 1.9001573130954046 20.086116535123438 25.789740840438753 5.0012012720108032 8.7915909439325315
leaf_count=355 367 10 146 6588 433 36 87 83 26 96 279 3034 254 16 33
internal_value=0 0.0229042 -0.0321091 0.0455696 -0.0203912 -0.00658375 -0.0111743 -0.0251845 0.0179289 0.0036836 0.0514763 0.0577964 -0.0549793 -0.0686226 -0.0671123
internal_weight=0 151.865 65.2642 90.2567 11.7431 61.6079 58.4501 22.6346 21.1503 35.8155 78.5136 76.6134 44.114 9.53264 34.5813
internal_count=11843 11013 830 10701 800 312 276 93 381 183 9901 9622 449 162 287
cat_boundaries=0 17 18 28 38 39 40 56 57 58 59 60 61 62 63 64
cat_threshold=67108864 2181038084 4202528 134250496 4194432 32768 262144 1024 71335969 16 8192 578814208 1073741824 4 1024 8390656 3 1 4 1207961600 32768 16 0 0 0 0 0 278528 68 32768 0 16777256 0 262144 67108864 0 0 128 4 1 0 0 67239936 0 0 0 0 0 0 0 0 0 0 0 0 4096 4 1 4 1 8 4 1 1
is_linear=0
shrinkage=0.1


Tree=52
num_leaves=22
num_cat=21
split_feature=8 4 8 6 1 6 2 4 1 6 4 6 1 1 1 2 2 2 2 4 1
split_gain=13.7829 1.50274 1.34333 1.57194 0.922802 2.01496 0.860028 0.397606 0.269934 0.261215 0.179996 0.15569 0.103634 0.09743 0.0592633 0.0349487 0.0294433 0.018763 0.0144576 0.0135057 0.000457866
threshold=0 1 2 3 4 5 6 7 8 9 10 11 12 13 14 15 16 17 18 19 20
decision_type=9 1 9 9 9 9 1 1 9 9 1 9 9 9 9 1 1 1 1 1 9
left_child=1 4 3 8 6 -6 9 11 19 -1 -10 14 18 17 16 -16 -4 -5 -13 -2 -9
right_child=2 -3 7 13 5 -7 -8 20 10 -11 -12 12 -14 -15 15 -17 -18 -19 -20 -21 -22
leaf_value=0.084175196728885016 -0.016962376300047793 -0.071493097921713336 -0.068408873414909574 -0.028772135427379122 0.064876091445141615 -0.067295656447027077 -0.070630181280527476 -0.07159884877351351 0.028962017802204604 0.06385280423808333 -0.066501639266314042 -0.043733218917393152 -0.066774178534610248 -0.066681331786889883 -0.024941102762086831 -0.06869698806909974 -0.037315662137746175 -0.066661373801608234 -0.066583940054320098 -0.064985755232148099 -0.067178418042267721
leaf_weight=12.980430657276884 1.3359867113176733 0.84024907043203612 0.31032163742929697 7.3929926174459979 4.057891059666872 1.6093291294528196 0.41501649538986995 3.7125492305494845 11.725837645353749 12.433429631637406 0.19906242308206579 11.613283130805943 2.4905563460197273 0.77543460309971113 5.678848935756835 0.18737505143508304 19.927643509581689 0.13230250286869694 0.28953714121598295 0.05958742182701815 0.93194985331501712
leaf_count=244 289 48 28 694 263 401 35 173 665 943 23 3607 1192 270 1238 21 1455 24 109 7 114
internal_value=0 0.0461076 -0.0249624 0.000823137 0.0638875 0.0273326 0.0719055 -0.0352218 0.0224878 0.0742385 0.0273576 -0.0398417 -0.0481977 -0.0329485 -0.0352311 -0.0263617 -0.0377991 -0.0294558 -0.0443002 -0.0191029 -0.0707412
internal_weight=0 32.3363 66.7633 21.6212 31.4961 5.66722 25.8289 45.1421 13.3205 25.4139 11.9249 40.4976 14.3934 8.30073 26.1042 5.86622 20.238 7.5253 11.9028 1.39557 4.6445
internal_count=11843 1934 9909 1972 1886 664 1222 7937 984 1187 688 7650 4908 988 2742 1259 1483 718 3716 296 287
cat_boundaries=0 10 11 21 22 23 24 25 26 27 28 29 30 31 32 33 34 35 36 37 38 39
cat_threshold=139344 565504 2148533248 17956936 65537 268697612 67108864 0 530704 1179778 1 264 0 35080 4194320 0 33554432 4 671088640 4194304 33554432 4 8 4 1 1 4 4 1 4 8 8 8 1 2 1 1 1 8
is_linear=0
shrinkage=0.1


Tree=53
num_leaves=3
num_cat=2
split_feature=4 8
split_gain=21.6055 2.58789
threshold=0 1
decision_type=1 9
left_child=-1 -2
right_child=1 -3
leaf_value=-0.066940234635822354 -0.0097002172559142123 0.028362631697681242
leaf_weight=44.105623891344294 22.967245035804808 58.602887657471001
leaf_count=11456 155 232
internal_value=0 0.0199334
internal_weight=0 81.5701
internal_count=11843 387
cat_boundaries=0 1 11
cat_threshold=1 4 1 0 0 0 0 0 0 2048 33554432
is_linear=0
shrinkage=0.1


Tree=54
num_leaves=27
num_cat=26
split_feature=3 8 0 8 8 4 0 6 3 2 0 4 6 4 4 4 4 3 6 6 4 6 3 2 2 6
split_gain=14.2643 10.5306 8.74555 6.60758 5.85931 2.9181 2.1292 1.92126 1.60378 1.33915 1.03104 1.00295 0.878231 1.4269 0.614754 0.488437 0.263972 0.0980305 0.0732376 0.0562395 0.0554673 0.131329 0.0192718 0.00890469 0.00532602 0.000802694
threshold=0 1 2 3 4 5 6 7 8 9 10 11 12 13 14 15 16 17 18 19 20 21 22 23 24 25
decision_type=9 9 9 9 9 1 9 9 9 1 9 1 9 1 1 1 1 9 9 9 1 9 9 1 1 9
left_child=4 7 25 6 5 10 9 -2 16 -4 -1 -10 15 -14 18 -11 -9 -13 -8 -6 24 -22 -19 -20 -5 -3
right_child=1 2 3 20 19 -7 14 8 11 12 -12 17 13 -15 -16 -17 -18 22 23 -21 21 -23 -24 -25 -26 -27
leaf_value=-0.020945592648248995 -0.065072632187449478 -0.070574500075120047 0.090015989967883028 0.059127447581581151 0.060635325679858756 -0.082907413928403353 0.019901229866719723 -0.11777392374808943 -0.060256233876166798 -0.05550287274995197 0.021608957243211022 0.022633347485370842 -0.059274116268839744 0.020174995291128938 0.11599892474661247 -0.11126946583741565 -0.076800455116649236 -0.0079324196830548779 0.042373702277213543 0.067285507270232109 0.036854347319239859 0.058943366682488618 0.0020478046940575647 0.066104769781441072 0.067826008823365425 -0.068143335205289396
leaf_weight=0.96416946733370423 35.896766810910776 11.734583407174796 0.74929993553087115 30.888110361993313 21.002228969242424 6.382784441113472 1.9817213183268905 4.0512086660601199 1.5803226716816425 8.6169592463411391 4.7279755505733174 4.7842740374617279 4.9912238270044327 4.1291459859348869 1.1310209706425665 1.9227030277252186 2.6000283360481262 1.4531846754252908 3.8654235820286003 33.473038155585527 4.1290938556194305 7.8117806767113489 4.7716412728186697 0.17014263640157867 0.81612096307799475 4.0533938831649694
leaf_count=49 364 69 12 2909 3364 24 46 131 9 128 625 322 26 303 10 6 16 54 346 2300 15 57 382 39 109 128
internal_value=0 -0.0127245 0.00926609 0.0246709 0.0403025 -0.0199638 -0.0130823 -0.0435147 -0.0259057 -0.0275401 0.015561 0.00791027 -0.046036 -0.0233079 0.0201841 -0.0656953 -0.0406647 0.0248884 0.0356745 0.0546857 0.0465032 0.0513125 -0.00373541 0.0434065 0.0593556 -0.0428326
internal_weight=0 142.128 86.9907 71.2027 66.5502 12.0749 27.5576 55.1374 19.2407 20.4093 5.69215 12.5894 19.66 9.12037 7.14831 10.5397 6.65124 11.0091 6.01729 54.4753 43.6451 11.9409 6.22483 4.03557 31.7042 15.788
internal_count=11843 5481 4203 4006 6362 698 916 1278 914 475 674 767 463 329 441 134 147 758 431 5664 3090 72 436 385 3018 197
cat_boundaries=0 16 26 31 41 51 52 55 56 65 66 71 72 73 74 75 76 77 94 95 96 97 98 115 116 117 118
cat_threshold=134217728 134252600 117440512 3072 2048 17826816 2 4096 2432 128 0 0 1 2147483648 570425349 1073775616 2148016144 68722688 2147486976 16777280 73728 33554444 67109120 0 536873264 34734080 8537152 16778240 0 2281834496 19922948 34750728 537002240 22020104 1179666 1052673 335806464 32772 262144 4722689 2 2048 1048840 34817 16777240 0 0 4 16384 1024 128 1 513 1073758208 2 4 0 2147483648 131072 0 0 32768 0 0 4194337 2 65536 1073741824 2147484160 4196352 32 2 4 2 1 1 1 0 1048576 0 65536 0 0 33554432 4194304 0 8388608 0 570425344 4194304 4 0 4096 16777216 4 8 1 8 0 536870912 0 0 0 256 0 0 0 0 0 0 0 0 0 2048 1 1 1 4
is_linear=0
shrinkage=0.1


Tree=55
num_leaves=12
num_cat=11
split_feature=3 8 8 4 0 8 3 4 4 4 2
split_gain=12.5886 5.36323 5.18269 2.48814 0.948484 0.903259 0.725897 0.961856 0.678574 0.0138739 0.000853483
threshold=0 1 2 3 4 5 6 7 8 9 10
decision_type=9 9 9 1 9 9 9 1 1 1 1
left_child=2 6 4 -4 -1 8 -2 -8 -6 10 -3
right_child=1 9 3 -5 5 -7 7 -9 -10 -11 -12
leaf_value=-0.027301576761126867 -0.01302763721833502 -0.062521086406483406 0.083736959140344722 -0.071883734713572803 -0.066753710697008029 -0.017065272463423251 0.090801198788643234 -0.067764249690645748 0.04779405406194679 -0.070142270808953355 -0.067312424895093148
leaf_weight=6.721179598942399 3.8644698853604496 33.558918421738781 27.465446533868089 1.065865416079762 0.54738709726370871 2.7012586789205697 7.3577648438513261 0.40213252149987955 8.8893835984636063 2.8085319026140487 0.7269431771710505
leaf_count=28 213 9779 269 43 85 128 431 53 366 193 255
internal_value=0 -0.0320879 0.0337711 0.0576976 -0.00987734 0.00774602 0.0212815 0.0360823 0.0199746 -0.0497802 -0.0626266
internal_weight=0 48.7188 47.3905 28.5313 18.8592 12.138 11.6244 7.7599 9.43677 37.0944 34.2859
