tree
version=v3
num_class=3
num_tree_per_iteration=3
label_index=0
max_feature_idx=8
objective=multiclass num_class:3
feature_names=service priority status group type_query criticality impact system place
feature_infos=-1:0:131:65:22:55:46:133:140:9:135:62:126:77:14:69:73:107:56:118:109:50:37:102:123:25:98:87:110:149:128:17:150:42:138:7:58:100:28:34:129:139:145:146:19:24:130:8:113:119:127:26:47:148:40:141:134:104:114:10:78:95:3:116:121:27:29:51:151:21:122:23:30:67:152:6:16:32:86:124:147:79:81:99:111:112:125 -1:3:2:1 -1:0:1 -1:36:27:495:81:43:35:7:90:492:25:37:414:193:57:89:234:170:184:375:58:384:175:264:34:41:209:477:328:217:247:49:118:311:334:306:239:100:180:238:45:61:13:389:86:208:447:507:30:144:23:52:137:361:450:17:47:107:228:70:8:103:503:160:29:104:165:246:26:75:112:168:256:551:225:516:68:178:210:278:430:21:338:56:59:65:79:87:95:135:141:322:521:525:537:108:244:303:360:465:83:106:140:143:271:40:78:115:327:519:547:28:117:162:401:418:15:55:114:157:223:252:267:273:330:457:6:18:174:214:215:230:260:348:473:497:53:76:116:186:274:313:368:408:513:54:101:120:124:139:146:182:203:250:257:263:284:291:329:365:396:405:406:412:432:484:38:248:265:321:381:404:409:490:510:528:530:88:111:125:156:195:259:279:293:297:336:337:395:480:512:2:12:16:74:77:80:126:130:142:161:172:183:289:307:317:320:324:355:380:425:446:448:460:467:491:517:11:96:98:129:136:163:185:211:212:231:240:254:261:266:282:333:350:376:397:423:429:445:475:526:536:14:39:46:63:102:105:109:158:169:181:192:194:196:224:235:241:249:255:275:295:296:299:318:332:345:356:358:374:377:378:410:411:458:468:478:481:509:511:524:540:552 -1:0:1 -1:3:0:1:2 -1:3:2:1 -1:0:179:27:80:68:59:34:4:10:181:74:174:98:86:95:187:144:166:182:146:63:69:52:122:138:171:19:128:195:112:88:196:176:197:25:31:60:11:175:131:28:199:78:6:193:186:39:54:115:177:167:12:92:154:200:32:41:42:65:29:30:56:180:62:159:107:124:170:5:84:93:185:44:71:169:20:37:38:3:24:33:45:47:90:114:189:9:35:36:91:108:113:135:164:168:188:192:194:40:100:120:198 -1:185:2:200:1:267:32:148:292:59:248:99:52:261:48:259:116:194:270:100:72:251:40:3:265:74:79:45:62:298:301:67:61:264:294:88:266:306:260:281:288:163:10:101:19:92:140:47:53:75:64:278:302:305:20:276:96:170:42:269:277:285:289:207:214:274:106:120:6:7:295:18:125:268:303:4:135:58:35:238:8:233:313:27:97:296:43:118:121:186:263:290:310:275:84:228:256:297:25:262:31:38:71:66:76:253:17:21:13:51:80:284:308:5:91:287:69:117:139:141:102:128:22:12:63:111:167:280:304:14:156:178:252:291:144:168:9:57:257:279:68:103:119:218:258:272:56:73:95:113:115:241:0:16:50:98:110:169:242:26:34:41:49:112:81:86:165:286:77:105:132:216:30:109:127:155:183:255:78:176:24:36:87:104:122:150:157:187:188:219:254:283:123:124:126:131:152:192:224:273:293:37:44:60:107:136:138:151:190:191:229:299:311:23:28:39:54:82:85:90:108:133:147:153:158:175:180:193:195:197:199:203:204:208:209:220:223:227:282:309
tree_sizes=2374 1611 715 1776 2077 715 1426 952 974 2098 1375 2098 2197 1067 2264 3886 1680 638 3838 2083 1017 2140 1682 1390 2527 1579 837 2487 1837 659 3450 1967 544 3034 1781 841 2676 1874 844 2795 2237 664 2220 1690 724 3555 1550 638 3240 2545 748 3476 2526 484 3897 1285 1896 2551 1992 569 3452 1971 841 2151 2466 856 2819 1818 667 3394 1972 748 2850 1639 2384 3510 1545 1636 4206 1480 827 4181 1751 754 2326 1679 1835 2207 1757 734 2637 1647 1227 3651 2025 939 2184 1720 931 2591 2057 559 2461 1092 2025 2333 2138 936

Tree=0
num_leaves=21
num_cat=20
split_feature=3 6 8 1 3 6 3 6 1 1 2 2 6 1 1 2 1 2 2 1
split_gain=478.958 249.398 56.4927 50.3764 41.9401 15.7933 13.2472 61.9978 12.8309 11.3095 5.40397 4.93581 1.95929 0.96434 0.181331 0.0578746 0.0402641 0.030187 0.0122721 0.00678988
threshold=0 1 2 3 4 5 6 7 8 9 10 11 12 13 14 15 16 17 18 19
decision_type=9 9 9 9 9 9 9 9 9 9 1 1 9 9 9 1 9 1 1 9
left_child=1 3 4 -1 -2 -6 7 16 11 -9 -7 -3 14 -12 15 -8 -4 -18 -16 -14
right_child=2 8 6 -5 5 10 12 9 -10 -11 13 -13 19 -15 18 -17 17 -19 -20 -21
leaf_value=-0.3952383694259467 0.020381292722041432 -0.20723702311065592 0.043693622440291624 -0.75305136227348812 -0.30170837865423461 0.043774713763636008 0.022735273379190884 -0.89574151582853101 -0.018075888337985742 -0.38800639203584802 -0.17537631600621986 0.043701222355020872 0.042442864689456294 -0.099890482617582529 0.030744960772344909 0.043767292969114691 0.019120939130485719 0.043612156631375992 0.043693622440291721 0.043866226687096221
leaf_weight=5.6916814520955086 19.090111702680588 21.105179049074646 0.77774529159069061 12.797445252537729 10.994490258395672 1.449434407055378 66.249758020043373 0.53028088063001633 4.8432320430874851 2.5453482270240797 9.1208311468362808 0.81309735029936447 140.34767307341099 2.0857714638113949 53.346256591379642 1.3433782309293736 12.12575613707304 0.53028088063001355 0.77774529159068961 52.073582477867603
leaf_count=161 540 597 22 362 311 41 1874 15 137 72 258 23 3970 59 1509 38 343 15 22 1473
internal_value=-0.0244478 -0.299704 0.015221 -0.642954 -0.0847425 -0.1577 0.0295336 -0.0535723 -0.165376 -0.476056 -0.137845 -0.197923 0.0346651 -0.161343 0.0266149 0.0231553 0.0215302 0.0201577 0.0309335 0.0428288
internal_weight=0 45.2506 373.388 18.4891 42.7406 23.6505 330.648 16.5094 26.7615 3.07563 12.656 21.9183 314.138 11.2066 121.717 67.5931 13.4338 12.656 54.124 192.421
internal_count=11842 1280 10562 523 1209 669 9353 467 757 87 358 620 8886 317 3443 1912 380 358 1531 5443
cat_boundaries=0 16 17 27 28 44 45 61 62 63 64 65 66 67 68 69 70 71 72 73 74
cat_threshold=0 4 67239938 0 0 0 0 0 4194561 0 0 256 1073741824 0 33554436 8388608 4 2182488084 560136 34816 20971552 8192 0 67108864 0 0 34734081 4 134217728 2072 0 0 0 0 0 0 0 0 0 0 0 0 0 32768 4 0 16777216 12582912 2304 32768 0 8388608 4210688 0 8388608 0 0 0 0 0 4096 8 8 4 2 1 4 8 8 1 4 1 1 8
is_linear=0
shrinkage=1


Tree=1
num_leaves=15
num_cat=14
split_feature=7 6 1 8 1 1 6 6 2 2 6 1 2 1
split_gain=280.913 918.938 288.558 21.615 19.6865 17.0498 11.3034 2.69439 1.89104 0.411266 0.132523 0.231967 0.0113149 0.00254623
threshold=0 1 2 3 4 5 6 7 8 9 10 11 12 13
decision_type=9 9 9 9 9 9 9 9 1 1 9 9 1 9
left_child=1 4 -3 5 8 6 -2 -7 -1 -8 11 12 -5 -12
right_child=3 2 -4 10 -6 7 9 -9 -10 -11 13 -13 -14 -15
leaf_value=-4.4128064573805963 -4.4011408100101157 -3.8926304491213095 -1.7573982838147226 -4.7144575287111454 -4.7281714162565018 -4.4447979536220439 -4.5979605732981463 -4.728191992462869 -4.7275348416270013 -4.7276841743450051 -4.7266698423287075 -4.7282062216117113 -4.7280089644076977 -4.7282049509073083
leaf_weight=5.7053622715175152 4.8903105184435844 0.95557791739702225 1.8830506019294238 29.088916014879942 3.3023648615926504 0.35131541080772877 6.1409933809190989 6.6749928053468475 0.196736630052328 0.2529470957815646 64.923087917268276 22.694975538179278 0.66047297231853264 18.68997985497117
leaf_count=406 348 68 134 2070 235 25 437 475 14 18 4620 1615 47 1330
internal_value=-4.66091 -4.32571 -2.47514 -4.70587 -4.53268 -4.61614 -4.51555 -4.71396 -4.42332 -4.60311 -4.72018 -4.72058 -4.71476 -4.72701
internal_weight=0 12.0431 2.83863 154.368 9.20446 18.3106 11.2843 7.02631 5.9021 6.39394 136.057 52.4444 29.7494 83.6131
internal_count=11842 857 202 10985 655 1303 803 500 420 455 9682 3732 2117 5950
cat_boundaries=0 7 8 9 19 20 21 22 23 24 25 26 27 28 29
cat_threshold=1024 0 2147484672 0 0 131072 272 8 4 8276 33792 32776 131144 0 0 67108864 0 16 128 8 8 4 2 1 1 4 8 1 8
is_linear=0
shrinkage=1


Tree=2
num_leaves=6
num_cat=5
split_feature=4 6 6 1 1
split_gain=3493.27 340.269 170.42 26.3062 1.22476
threshold=0 1 2 3 4
decision_type=1 9 9 9 9
left_child=-1 -2 3 -3 -4
right_child=1 2 4 -5 -6
leaf_value=-4.2880128104934361 -0.91519970361439906 -2.2008597432504864 -4.2874980320844269 -2.6299362494603526 -4.0014716297431256
leaf_weight=248.78249216079712 1.6287261620163918 3.7352119982242584 0.26059618592262268 2.4105147197842598 0.34746158123016169
leaf_count=11456 75 172 12 111 16
internal_value=-4.22035 -2.21274 -2.52654 -2.36858 -4.12387
internal_weight=0 8.38251 6.75378 6.14573 0.608058
internal_count=11842 386 311 283 28
cat_boundaries=0 1 2 3 4 5
cat_threshold=1 8 4 8 2
is_linear=0
shrinkage=1


Tree=3
num_leaves=17
num_cat=16
split_feature=4 0 2 6 1 6 6 1 6 1 6 2 6 2 2 1
split_gain=203.172 59.6274 29.8815 8.76794 7.65821 1.57213 0.729968 0.293902 0.255705 0.227711 0.0905063 0.0747058 0.0292469 0.0250584 0.0121486 0.00366259
threshold=0 1 2 3 4 5 6 7 8 9 10 11 12 13 14 15
decision_type=1 9 1 9 9 9 9 9 9 9 9 1 9 1 1 9
left_child=1 3 4 -1 8 9 7 11 -2 13 -6 -7 -4 -3 -9 -14
right_child=2 5 12 -5 10 6 -8 14 -10 -11 -12 -13 15 -15 -16 -17
leaf_value=-0.014850673130060086 -0.20630037122563138 0.060460415218918144 0.09267696044049395 -0.10371638027899444 -0.13577417969086333 0.045634117758011496 -0.03914782098202936 0.054945040509482228 -0.24738006737223794 0.068121117329599842 -0.12745652254960624 0.068687127849631768 0.078570299999990892 0.068079734827665189 0.068318038107662654 0.071689070154897991
leaf_weight=18.019914025440812 14.227927982807159 155.25172339379787 1.5172683894634247 28.92472955211997 35.419093787670135 84.946143478155136 0.92771820351481338 59.98624050244689 1.7600966431200493 55.612988490611315 22.048538856208324 1.4356139600276936 3.0763401389122009 4.5721493586897841 0.71985411457717319 1.5221972484141577
leaf_count=496 101 4777 5 118 157 2271 25 1792 9 1773 75 37 18 147 20 21
internal_value=0 0.042649 -0.131946 -0.0573838 -0.149628 0.0556184 0.0492121 0.0497699 -0.210853 0.0626009 -0.132588 0.0460188 0.0804105 0.0606792 0.0551059 0.0763246
internal_weight=0 410.397 79.5715 46.9446 73.4557 363.452 148.016 147.088 15.988 215.437 57.4676 86.3818 6.11581 159.824 60.7061 4.59854
internal_count=11842 11456 386 614 342 10842 4145 4120 110 6697 232 2308 44 4924 1812 39
cat_boundaries=0 1 6 7 8 9 10 11 12 13 14 15 16 17 18 19 20
cat_threshold=1 640 0 8389120 262144 3145796 1 8 4 8 4 8 4 8 4 1 8 1 1 8
is_linear=0
shrinkage=0.1


Tree=4
num_leaves=19
num_cat=18
split_feature=3 8 1 6 4 8 6 1 4 6 6 6 6 4 1 6 1 6
split_gain=99.791 33.942 14.935 12.0403 11.7872 10.1078 11.4556 6.03193 2.32745 1.75762 1.4437 0.16446 0.0542552 0.0447848 0.0196328 0.0188163 0.007151 0.00307685
threshold=0 1 2 3 4 5 6 7 8 9 10 11 12 13 14 15 16 17
decision_type=9 9 9 9 1 9 9 9 1 9 9 9 9 1 9 9 9 9
left_child=2 7 3 -1 5 12 -7 9 10 -2 -9 -8 -4 14 15 -3 17 -15
right_child=1 13 4 -5 -6 6 11 8 -10 -11 -12 -13 -14 16 -16 -17 -18 -19
leaf_value=-0.0667810062340429 -0.067117926368264622 -0.062667480820514473 -0.067510245499717153 0.66126670671528931 -0.079040878364238135 0.19766923827458541 0.40790229841937786 0.18764893503021837 -0.067162999251079922 0.11169284648285593 0.27799396574486851 0.31616316010583179 -0.044669616233119311 -0.06695089461474836 -0.067267520426907701 -0.065687183100739219 -0.067565507245761491 -0.075444885455662913
leaf_weight=0.29713338054716587 1.0798955475911498 32.647200040519238 1.2224607188254595 0.95774325169622898 2.3313545575365415 21.075590560212731 2.9441140731796622 4.7040361007675529 0.28834833204746235 1.1156916730105877 2.8629558812826854 0.25169073045254053 7.3085472229868174 0.64133269991725683 44.018651523627341 63.406969343312085 2.177602179348467 5.9801900507882237
leaf_count=24 85 2015 59 34 43 229 202 309 16 80 103 3 77 59 3402 4846 122 134
internal_value=0 -0.0479608 0.117898 0.489045 0.138169 0.153611 0.158967 0.0853863 0.21127 0.0237641 0.221895 0.400879 -0.0220808 -0.0617724 -0.0654819 -0.0646622 -0.072907 -0.0746427
internal_weight=0 158.923 36.3886 1.25488 35.1338 32.8024 24.2714 10.0509 7.85534 2.19559 7.56699 3.1958 8.53101 148.872 140.073 96.0542 8.79912 6.62152
internal_count=11842 11171 671 58 613 570 434 593 428 165 412 205 136 10578 10263 6861 315 193
cat_boundaries=0 16 26 27 28 29 30 31 32 33 34 35 36 37 38 39 40 41 42
cat_threshold=0 16777220 4194306 2048 32896 33024 8388608 4210688 4194305 33554432 0 8388608 1073741824 0 4 2048 80 557056 32768 20971552 0 0 67108864 0 16 34603008 4 8 1 4 4 4 1 8 8 8 8 1 8 4 8 8
is_linear=0
shrinkage=0.1


Tree=5
num_leaves=6
num_cat=5
split_feature=4 8 2 1 1
split_gain=280.721 66.3425 52.0982 54.8449 1.163
threshold=0 1 2 3 4
decision_type=1 9 1 9 9
left_child=-1 4 3 -3 -2
right_child=1 2 -4 -5 -6
leaf_value=-0.067622771962604467 -0.011121939150622227 0.53603828496623951 -0.080162745586063427 0.22673210402876878 -0.060397820079333364
leaf_weight=232.60611503385007 7.6721689738333225 6.7014553993940353 4.6340142507106057 39.658292727544904 12.751507211476566
leaf_count=11456 58 52 32 172 72
internal_value=0 0.159037 0.200242 0.271465 -0.0281222
internal_weight=0 71.4174 50.9938 46.3597 20.4237
internal_count=11842 386 256 224 130
cat_boundaries=0 1 2 3 4 5
cat_threshold=1 4 1 4 4
is_linear=0
shrinkage=0.1


Tree=6
num_leaves=13
num_cat=12
split_feature=4 7 2 6 6 6 0 6 6 2 2 6
split_gain=140.211 67.1073 17.9759 5.85361 0.838692 0.556398 0.427145 9.60449 0.605537 0.0424516 0.020001 0.0179074
threshold=0 1 2 3 4 5 6 7 8 9 10 11
decision_type=1 9 1 9 9 9 9 9 9 1 1 9
left_child=1 3 6 -1 -3 10 7 -2 -8 -7 -6 -4
right_child=2 4 11 -5 5 9 8 -9 -10 -11 -12 -13
leaf_value=-0.023754644664689958 -0.2379519868817159 -0.034253366873094153 0.08853093667755195 -0.095074989869265283 0.062109409412134692 0.053636857106223484 -0.034515131269781944 -0.13094550532657021 -0.066104226321050161 0.068543580716468364 0.067927678579034742 0.074989524175828728
leaf_weight=17.369808675721288 15.443234875798225 0.96867802739143372 1.398880809545517 34.107673170045018 186.32669631391764 129.60397982224822 7.0116384923458099 18.382389593869448 45.445088751614094 1.9639086220413435 6.3446940016001454 4.0915562286972991
leaf_count=492 63 25 5 129 6472 4052 20 53 206 57 229 39
internal_value=0 0.0408864 -0.0969537 -0.0594611 0.0568511 0.0588768 -0.108118 -0.138784 -0.0519755 0.0538604 0.0623017 0.0784707
internal_weight=0 376.685 91.7728 51.4775 325.208 324.239 86.2824 33.8256 52.4567 131.568 192.671 5.49044
internal_count=11842 11456 386 621 10835 10810 342 116 226 4109 6701 44
cat_boundaries=0 1 8 9 10 11 12 14 15 16 17 18 19
cat_threshold=1 3072 0 2147483648 589824 0 131072 272 1 8 2 8 16384 16793600 4 8 1 1 8
is_linear=0
shrinkage=0.1


Tree=7
num_leaves=7
num_cat=6
split_feature=3 4 7 4 4 2
split_gain=82.7716 12.0317 10.3314 5.92244 0.207318 0.0434065
threshold=0 1 2 3 4 5
decision_type=9 1 9 1 1 1
left_child=1 -1 3 -2 5 -4
right_child=2 -3 4 -5 -6 -7
leaf_value=0.14555578496563995 0.17643994292294182 -0.077448009889078351 -0.055403009422517684 -0.076111173474936275 -0.072214830147890749 -0.067170206035986946
leaf_weight=35.813068704679608 4.8029612498357892 2.5934393368661395 131.09444481041282 1.1497467765584586 8.0704313581809384 3.2566178869456044
leaf_count=498 220 53 10452 12 321 286
internal_value=0 0.103537 -0.0461234 0.0476428 -0.0529116 -0.0556892
internal_weight=0 38.4065 148.374 5.95271 142.421 134.351
internal_count=11842 551 11291 232 11059 10738
cat_boundaries=0 16 17 24 25 26 27
cat_threshold=0 16777220 4194306 2048 32896 33024 8388608 4194304 4194305 33554432 0 536870912 1073741824 0 4 2048 1 2048 0 0 0 0 134348800 272 1 1 1
is_linear=0
shrinkage=0.1


Tree=8
num_leaves=9
num_cat=8
split_feature=4 8 2 6 1 6 1 6
split_gain=201.402 51.249 28.1366 16.6078 5.18825 2.79593 0.221649 0.0181211
threshold=0 1 2 3 4 5 6 7
decision_type=1 9 1 9 9 9 9 9
left_child=-1 5 3 -3 -5 -2 -7 -4
right_child=1 2 7 4 -6 6 -8 -9
leaf_value=-0.0675170078408633 0.032853722128658176 0.1210835265698354 -0.087893676660803596 0.29159330089499558 0.20824167964044293 -0.049435245788569435 -0.071672769673544467 -0.073405834597415134
leaf_weight=207.06078212708235 3.7191846966743469 21.368780910968781 1.3781158924102783 10.4556102193892 26.309034358710051 7.8375433385372162 10.549924034625297 2.7724818009883156
leaf_count=11456 11 59 5 50 115 55 64 27
internal_value=0 0.115763 0.149283 0.19121 0.231961 -0.0318164 -0.0622006 -0.0782562
internal_weight=0 84.3907 62.284 58.1334 36.7646 22.1067 18.3875 4.1506
internal_count=11842 386 256 224 165 130 119 32
cat_boundaries=0 1 2 3 4 5 6 7 8
cat_threshold=1 4 1 8 4 8 4 8
is_linear=0
shrinkage=0.1


Tree=9
num_leaves=18
num_cat=17
split_feature=7 4 8 8 1 4 4 8 1 1 5 8 1 1 1 1 1
split_gain=107.496 46.2652 36.7781 19.8744 7.56253 5.89957 5.49288 3.77181 3.71783 2.80097 1.94882 1.73182 0.85147 0.309988 0.212342 0.0426988 0.00135821
threshold=0 1 2 3 4 5 6 7 8 9 10 11 12 13 14 15 16
decision_type=9 1 9 9 9 1 1 9 9 9 1 9 9 9 9 9 9
left_child=1 2 9 5 -3 8 13 15 -2 10 -1 14 -8 -5 -9 -4 -13
right_child=3 4 7 6 -6 -7 12 11 -10 -11 -12 16 -14 -15 -16 -17 -18
leaf_value=0.0076795156521375987 -0.0769034848483236 -0.18757056204428724 0.077355215213797832 0.060094686933662982 -0.10460234273267066 -0.16937574785997511 0.0092609303631918487 -0.040054834326612457 0.067845819742933702 -0.036891922202116227 -0.12030511155275186 0.022815788423375241 0.043026017294385745 0.067864732273637152 -0.083615314776283312 0.067823382060576712 0.024810562421147878
leaf_weight=8.8615249227732402 6.1985892355442047 14.58484110981226 24.568749759346247 166.06666533835232 44.57811844535172 5.2991729527711859 23.711562097072601 7.687096556648612 2.4840100333094579 4.720324892550706 19.868472211062912 18.109457870945334 10.901545852422712 74.593932431191206 1.3107674885541181 6.0020943526178625 4.6233211699873271
leaf_count=206 200 58 413 6299 149 18 97 111 95 143 144 470 64 2930 43 239 163
internal_value=0 -0.052172 -0.0125823 0.0485366 -0.125061 -0.050287 0.0551432 0.0334441 -0.035486 -0.083377 -0.12003 0.00264136 0.0198973 0.0625036 -0.0219872 0.0568827 0.0161291
internal_weight=0 154.915 95.7518 289.255 59.163 13.9818 275.274 62.3015 8.6826 33.4503 28.73 31.7306 34.6131 240.661 8.99786 30.5708 22.7328
internal_count=11842 2139 1932 9703 207 313 9390 1439 295 493 350 787 161 9229 154 652 633
cat_boundaries=0 7 8 18 27 28 29 30 40 41 42 43 50 51 52 53 54 55
cat_threshold=51383880 402686464 2164261920 336134144 67108864 537037376 276 1 1048832 1048832 1082624 4194400 65536 33554432 0 0 5511456 34734080 33824784 168448 0 64 8192 0 2214592512 0 805371904 4 1 1 22 671155201 285278216 0 1048576 0 4 151257088 0 8194 8 8 6 131080 0 6145 1048584 268435457 0 256 8 8 8 8 8
is_linear=0
shrinkage=0.1


Tree=10
num_leaves=11
num_cat=10
split_feature=3 8 8 4 6 4 4 6 4 6
split_gain=67.3721 27.7878 22.8227 10.6172 7.2956 1.40197 0.226248 0.0602018 0.0449283 0.00822513
threshold=0 1 2 3 4 5 6 7 8 9
decision_type=9 9 9 1 9 1 1 9 1 9
left_child=2 5 6 4 -4 -2 -1 -6 -3 -8
right_child=1 8 3 -5 7 -7 9 -9 -10 -11
leaf_value=-0.076946875465746981 -0.067226100629720925 -0.065060066004640413 0.1789677472159843 -0.076112624645749485 0.32415875534723282 0.15716997682996514 -0.026810738739742459 0.37016931513183371 -0.072604336871698996 -0.032787936050440253
leaf_weight=1.0001360140740871 0.2856354434043169 114.35927160922438 22.387704553082585 1.463008440099659 3.3152415463700891 9.6694213273003662 12.764096699655056 0.43613667041063608 8.6517235715873522 2.8719343738630405
leaf_count=16 16 10286 232 37 149 545 100 3 317 141
internal_value=0 -0.0459398 0.0851658 0.136502 0.200624 0.0751975 -0.019281 0.329702 -0.0606606 -0.0279126
internal_weight=0 132.966 44.2383 27.6021 26.1391 9.95506 16.6362 3.75138 123.011 15.636
internal_count=11842 11164 678 421 384 561 257 152 10603 241
cat_boundaries=0 16 26 34 35 36 37 38 39 40 41
cat_threshold=0 16777220 4194306 2048 32896 33024 8388608 4210688 4194305 33554432 0 545259520 1073741824 0 4 2048 64 557056 2147516416 20971552 0 0 67108864 0 16 34603008 4 0 4104 48 268435456 0 256 262144 1 4 2 2 8 1 4
is_linear=0
shrinkage=0.1


Tree=11
num_leaves=17
num_cat=16
split_feature=0 3 8 8 8 8 2 1 1 1 1 2 1 2 1 1
split_gain=89.6295 19.2209 12.3633 5.43624 6.7686 1.77219 2.02671 1.83245 1.56841 1.46603 0.274603 0.0328164 0.0262522 0.0186788 0.0105158 0.000220436
threshold=0 1 2 3 4 5 6 7 8 9 10 11 12 13 14 15
decision_type=9 9 9 9 9 9 1 9 9 9 9 1 9 1 9 9
left_child=2 5 8 10 15 9 7 -7 -1 -2 -4 -6 13 -3 -13 -5
right_child=1 12 3 4 11 6 -8 -9 -10 -11 -12 14 -14 -15 -16 -17
leaf_value=0.18132864125050036 0.042488758228263888 -0.063704691088835183 0.090978977377430673 0.080168272341316474 -0.073232910386813885 -0.067555987845172957 -0.073565666250795345 0.097372781381861215 0.13636512433373579 -0.080022045508975542 0.059840701994376258 -0.050875629444566556 -0.066637492679071444 -0.070786320338154463 -0.055967579328683438 0.084085559551922165
leaf_weight=13.101678728125989 1.3041248340159655 117.44746348261833 15.27728573884815 1.2064199605956674 0.81492431089282036 0.70494268834590912 0.79808932170272306 14.578223893418906 19.156610284931958 3.8767339158803225 3.4971339115872988 12.719870628789067 53.693332438357174 4.0187680013477793 6.423227789811798 8.2738303113728726
leaf_count=211 15 6428 233 33 25 33 18 358 194 86 93 485 3030 175 317 108
internal_value=0 -0.0498325 0.0697912 0.0227705 -0.0069449 0.0338475 0.0503426 0.0897575 0.118046 -0.0167879 0.0555832 -0.0356029 -0.0612698 -0.0639402 -0.0525898 0.0406911
internal_weight=0 196.422 80.471 48.2127 29.4383 21.2621 16.0813 15.2832 32.2583 5.18086 18.7744 19.958 175.16 121.466 19.1431 9.48025
internal_count=11842 10143 1699 1294 968 510 409 391 405 101 326 827 9633 6603 802 141
cat_boundaries=0 5 21 31 41 51 61 62 63 64 65 66 67 68 69 70 71
cat_threshold=75711552 1090536448 8388608 2315405312 18358278 0 0 8519680 0 0 0 16 4194304 4228096 8388608 8192 256 1073741824 0 4 4096 6 537919497 2048 16777232 12288 33554432 256 0 268436480 131073 131200 1792 32776 8 1048576 8 67108868 16793600 71744 4194306 20560 67635264 268435456 2 0 67108864 0 2147483648 4210945 33554432 12 0 0 0 0 33554432 0 0 1024 2048 1 4 4 4 8 2 8 1 8 4
is_linear=0
shrinkage=0.1


Tree=12
num_leaves=18
num_cat=17
split_feature=3 0 8 4 0 8 3 4 2 4 4 3 2 4 4 2 2
split_gain=91.3129 30.6929 26.7252 13.2361 27.392 9.2276 5.88254 4.31661 3.44176 2.74515 2.74461 1.70424 0.487618 0.134926 0.11367 0.0207811 0.00250335
threshold=0 1 2 3 4 5 6 7 8 9 10 11 12 13 14 15 16
decision_type=9 9 9 1 9 9 9 1 1 1 1 9 1 1 1 1 1
left_child=2 6 7 4 15 11 13 -1 10 16 -8 -3 -11 -2 -13 -4 -7
right_child=1 5 3 -5 -6 9 8 -9 -10 12 -12 14 -14 -15 -16 -17 -18
leaf_value=0.06905986876329262 0.0700734272013738 0.019669851958097236 0.050494851822329351 -0.12453507009542449 -0.09599858574336223 0.065084976515607212 -0.058735741545900166 -0.015248913631509577 0.0735277725315122 0.075134314811899361 -0.12455777044129684 -0.15961862279830194 0.027862483901218427 0.10597227854177281 -0.20413970188141986 0.068468808209624019 0.067660485792758018
leaf_weight=18.09351009875536 4.9290728941559792 4.0777449384331703 21.837066611275077 48.024850241839886 31.288817325606942 217.21030541881919 12.056995633989571 9.1395525112748164 1.297751266509297 2.3846823889762163 13.361568510532381 4.81767340749502 25.579424448311332 1.3423554599285124 0.68463449925184239 0.67790868133306759 5.1719051823019973
leaf_count=311 157 154 569 142 301 9263 305 36 22 27 44 125 122 4 3 21 236
internal_value=0 0.0427763 -0.0552646 -0.0786508 -0.0523094 0.0546326 -0.0416206 0.029818 -0.0620198 0.0590724 -0.0933429 -0.0323016 0.0318987 0.0299876 -0.0586598 0.035345 0.0651455
internal_weight=0 292.914 129.062 101.829 53.8038 259.926 32.9877 27.2331 26.7163 250.346 25.4186 9.58005 27.9641 6.27143 5.50231 22.515 222.382
internal_count=11842 10462 1380 1033 891 9930 532 347 371 9648 349 282 149 161 128 590 9499
cat_boundaries=0 17 22 30 31 33 43 58 59 60 61 62 78 79 80 81 82 83
cat_threshold=67108864 4 67248130 32768 32896 0 8650768 4194304 4195329 33554432 8192 536936704 1073741824 0 33554436 1082132480 2 75513920 16777216 512 2583707648 3153926 524292 0 268439552 48 0 0 67108864 134217728 1 4210688 1090535424 8256 32768 32768 0 0 0 67108864 0 536870912 1048576 134217728 0 16777216 4194304 0 0 0 0 128 8388608 0 0 0 0 536870912 1 1 1 1 0 16 0 0 0 0 0 0 0 0 0 0 0 0 0 32768 2 1 1 1 1
is_linear=0
shrinkage=0.1


Tree=13
num_leaves=7
num_cat=6
split_feature=8 3 4 3 8 4
split_gain=54.7883 52.1844 13.1702 3.48898 0.260491 0.126698
threshold=0 1 2 3 4 5
decision_type=9 9 1 9 9 1
left_child=1 -1 -3 -2 -5 -6
right_child=3 2 -4 4 5 -7
leaf_value=-0.046167493299885065 0.021404953697084929 0.2015816522814427 -0.076226648931191132 0.005905702584662104 -0.060649358884968023 -0.073185447405905699
leaf_weight=21.602420285344124 6.5557917356491089 29.057208016514778 1.8119563795626188 7.0632770452648401 93.322472287341952 8.880535393021999
leaf_count=1990 193 768 47 345 8192 307
internal_value=0 0.0681958 0.139941 -0.0465328 -0.0520621 -0.0562376
internal_weight=0 52.4716 30.8692 115.822 109.266 102.203
internal_count=11842 2805 815 9037 8844 8499
cat_boundaries=0 10 26 27 39 48 49
cat_threshold=1188176 558336 1082368 16908360 65537 301989888 67108864 2147483648 1055008 34734208 142606336 570460216 131072 0 0 0 0 0 0 8388608 16384 0 0 2147483648 0 32768 1 0 0 4194304 0 128 0 0 16384 4194304 0 0 8388608 0 0 4097 4194304 268435456 0 0 0 4456464 1
is_linear=0
shrinkage=0.1


Tree=14
num_leaves=19
num_cat=18
split_feature=0 8 8 8 7 2 8 1 2 1 1 1 2 2 1 1 1 1
split_gain=71.3864 17.9587 9.20025 5.4862 4.84008 4.63188 3.28503 1.41042 1.30693 1.25009 0.0562625 0.0453711 0.0366777 0.0225122 0.0119175 0.000624127 0.000187066 0.000145937
threshold=0 1 2 3 4 5 6 7 8 9 10 11 12 13 14 15 16 17
decision_type=9 9 9 9 9 1 9 9 1 9 9 9 1 1 9 9 9 9
left_child=2 4 5 9 8 7 10 -1 -2 -4 -5 -6 16 17 -14 -15 -8 -3
right_child=1 13 3 6 11 -7 12 -9 -10 -11 -12 -13 14 15 -16 -17 -18 -19
leaf_value=0.10729223823222445 -0.070832613812288933 -0.063353345773662001 0.02939267849413596 0.059594243219671619 -0.06723564368417162 -0.079418503786726033 -0.076966021446506105 0.1458253992668711 0.096896558707699643 0.099155172907559264 0.031643655364117305 -0.051036696270851903 -0.055415499987280896 -0.071573030834933729 -0.049803978269395012 -0.067593484998973025 -0.0689742459982053 -0.063900825401972255
leaf_weight=24.683460064232349 0.47792351711541414 45.404663804918528 3.3509661098942161 6.8869882524013519 2.6947789033874869 1.1719287019222964 0.46039886493235826 15.491825969889758 15.108427104540166 11.030168456956742 0.81250734999775875 5.0116101363673833 6.0777056682854891 3.8260933617129922 11.31359615176917 1.3926090346649278 0.34734042268246412 108.12148921750486
leaf_count=243 13 2786 69 73 199 20 13 231 442 149 27 283 317 170 425 91 12 6279
internal_value=0 -0.0477044 0.0598428 0.0132973 0.0298232 0.0937642 -0.0145914 0.122157 0.0558908 0.0489047 0.0246487 -0.0246887 -0.0340468 -0.0601736 -0.0517712 -0.0705374 -0.0737083 -0.0637397
internal_weight=0 182.038 81.6269 40.2797 23.2927 41.3472 25.8985 40.1753 15.5864 14.3811 7.6995 7.70639 18.199 158.745 17.3913 5.2187 0.807739 153.526
internal_count=11842 10263 1579 1085 937 494 867 474 455 218 100 482 767 9326 742 261 25 9065
cat_boundaries=0 5 14 24 34 40 41 51 52 53 54 55 56 57 58 59 60 61 62
cat_threshold=75711552 1090536448 8388608 2315403264 18358278 2182873088 67244032 32768 0 0 0 2147483908 0 805371904 6 537919497 2056 16777232 1060864 33554440 260 0 5120 131073 151760 67110656 32768 2 0 0 0 16793600 268453953 4194306 1025 0 2147549184 0 65536 512 1 0 526400 268435456 8 0 67108864 67108864 2147483648 4194560 33554432 8 2 4 8 4 2 1 4 8 8 4
is_linear=0
shrinkage=0.1


Tree=15
num_leaves=36
num_cat=35
split_feature=3 7 8 8 4 3 3 4 6 1 4 4 6 1 1 1 1 6 6 6 1 6 6 6 1 6 6 6 1 1 1 1 6 1 1
split_gain=75.0067 24.6793 19.671 10.3917 10.3869 26.7886 6.04519 4.78143 3.99586 3.10779 3.03969 2.74906 2.99415 4.57024 1.24933 1.07174 0.807758 0.587039 0.510752 0.38723 0.371428 3.04673 1.18443 0.552648 0.125575 0.123233 0.107068 0.0868456 0.0783695 0.0582268 0.0453746 0.00920862 0.00102515 0.000940398 0.000817132
threshold=0 1 2 3 4 5 6 7 8 9 10 11 12 13 14 15 16 17 18 19 20 21 22 23 24 25 26 27 28 29 30 31 32 33 34
decision_type=9 9 9 9 1 9 9 1 9 9 1 1 9 9 9 9 9 9 9 9 9 9 9 9 9 9 9 9 9 9 9 9 9 9 9
left_child=2 11 7 6 5 26 25 32 15 -6 27 12 13 -2 -14 -8 18 -11 -12 -9 22 -22 -7 -23 -13 28 33 30 -3 -28 -5 -29 34 -4 -1
right_child=1 3 4 10 9 20 8 19 -10 17 16 24 14 -15 -16 -17 -18 -19 -20 -21 21 23 -24 -25 -26 -27 29 31 -30 -31 -32 -33 -34 -35 -36
leaf_value=0.068149622048349359 -0.10989748262714936 0.034510279029044653 0.067557533570721515 0.059690822859946382 -0.15390434249069415 -0.10548232203928674 -0.10044816423655088 -0.045206004403756481 -0.22890717996626561 -0.10630159970750944 0.010817382862285035 -0.096580376803932638 0.079452671643412298 0.067834177014031424 -0.020289978359965193 0.067732690316569324 0.055396280363028516 -0.080846514567609593 0.052928449225366152 -0.0047979792858694583 -0.2406439492775613 -0.079441945655075313 -0.16291750479081049 0.067642007590148254 -0.077320609613524952 0.067833224408886311 0.043628445236313637 0.065464882094709839 0.067607009187595421 0.068574551599297595 0.064598232464322419 0.067586845487563149 0.067911264175343225 0.060817048305965841 0.065055507731237694
leaf_weight=2.1383766978979111 5.6042668037116528 2.6732564605772495 0.37917670421302319 46.684928802773356 11.717858776450157 24.902881363406777 2.9566290639340878 3.9780347645282745 3.7380429208278647 19.966197341680527 16.3498415350914 8.0726964827626944 2.8286381214857101 1.9485197104513643 2.255943963304162 0.4331452772021297 8.2956699822098035 16.675265148282051 3.4944851696491268 5.8695495687425154 1.5917538180947304 0.65956470370292664 4.2040328122675445 0.41427486576140193 5.9533909857273093 4.8225201554596406 7.4918593503534794 91.714479859918356 0.98104976117610965 1.0763379875570533 32.486777845770121 29.61051844060421 5.2761068977415571 13.624216513708232 9.6873612273484451
leaf_count=67 174 44 15 2025 35 130 77 11 30 57 75 27 23 78 75 15 62 48 13 27 14 13 79 15 26 192 134 4414 42 29 1583 1487 207 452 47
internal_value=0 0.0410453 -0.0487843 0.0514269 -0.0686704 -0.0453544 -0.0249072 0.0250751 -0.0656071 -0.109068 0.0574623 -0.042139 -0.0241084 -0.0640392 0.0352079 -0.0789308 0.0291951 -0.0947222 0.0182375 -0.0211271 -0.089054 -0.152919 -0.113789 -0.0226784 -0.0884177 0.026303 0.0385389 0.0642953 0.0434277 0.0467774 0.0617061 0.0659839 0.0663392 0.0610092 0.0656264
internal_weight=0 270.905 129.653 244.241 102.703 54.3441 15.6046 26.9494 7.12782 48.3593 228.637 26.6635 12.6374 7.55279 5.08458 3.38977 28.14 36.6415 19.8443 9.84758 31.7725 2.66559 29.1069 1.07384 14.0261 8.47683 22.5716 200.497 3.65431 8.5682 79.1717 121.325 17.1018 14.0034 11.8257
internal_count=11842 10462 1380 10059 1021 881 400 359 122 140 9659 403 350 252 98 92 150 105 88 38 251 42 209 28 53 278 630 9509 86 163 3608 5901 321 467 114
cat_boundaries=0 17 24 32 42 43 59 75 76 77 78 79 80 81 82 83 84 85 86 87 88 89 90 91 92 93 94 95 96 97 98 99 100 101 102 103
cat_threshold=67108864 4 67248130 32768 32896 0 8650768 4194304 4195329 33554432 8192 536936704 1073741824 0 33554436 1082132480 2 576 33280 2168455168 336068608 0 537036800 260 524292 0 268439552 48 0 8 67108864 134217728 8272 33792 32768 4194304 8192 0 67108864 0 536870912 1048576 1 0 0 67239938 0 0 0 0 4194304 0 0 0 0 0 0 0 8388608 134217728 16 0 0 0 0 2 0 0 0 0 0 0 0 0 32768 1 8 4 1 1 8 8 8 8 8 4 4 8 8 4 4 2 8 4 8 4 8 8 8 8 4 4 4
is_linear=0
shrinkage=0.1


Tree=16
num_leaves=15
num_cat=14
split_feature=7 4 6 0 4 6 6 6 0 4 2 2 4 6
split_gain=36.8846 12.0376 2.7855 2.65066 1.58439 2.96611 1.11361 0.638362 0.465758 0.208783 0.0475799 0.00966655 0.00253355 0.0018024
threshold=0 1 2 3 4 5 6 7 8 9 10 11 12 13
decision_type=9 1 9 9 1 9 9 9 9 1 1 1 1 9
left_child=1 2 -1 7 5 -5 -4 9 -7 10 -2 12 13 -9
right_child=3 -3 6 4 -6 8 -8 11 -10 -11 -12 -13 -14 -15
leaf_value=0.064082525417723982 -0.040791498144349764 -0.078586822956545566 0.1136593545089547 0.1726032541230885 -0.067462096003293809 -0.012190765689286197 0.26134702549147665 -0.059390189531647854 0.018477143195898472 -0.067525136702842353 -0.067753956309442684 -0.067085885319182109 -0.06696526357728981 -0.067659508570170099
leaf_weight=39.954965050332248 37.68670910410583 5.559276499785482 10.473698076792061 1.6631098524667323 1.1968203885480759 2.2167092142626643 0.53619620203971585 51.577837872784585 2.5100108068436375 3.2915601483546189 0.66891154740005632 1.885090616531669 0.57871585665270586 0.36757913324981828
leaf_count=417 3652 65 726 114 73 235 2 5770 261 184 54 212 59 18
internal_value=0 0.0519317 0.0763606 -0.0419754 0.0164174 0.0578292 0.120898 -0.0477007 0.0173897 -0.0433438 -0.0412652 -0.0598007 -0.0595366 -0.0594513
internal_weight=0 56.5241 50.9649 103.643 7.58665 6.38983 11.0099 96.0564 4.72672 41.6472 38.3556 54.4092 52.5241 51.9454
internal_count=11842 1210 1145 10632 683 610 728 9949 496 3890 3706 6059 5847 5788
cat_boundaries=0 7 8 9 14 15 16 17 18 23 24 25 26 27 28
cat_threshold=3072 0 2147484672 589824 0 134348864 276 1 4 306200577 25444384 8226 1216374852 4198570 1 4 8 4 655360 67142660 0 16 1025 1 1 1 1 8
is_linear=0
shrinkage=0.1


Tree=17
num_leaves=5
num_cat=4
split_feature=4 2 1 1
split_gain=114.665 9.22885 0.0925531 0.00352572
threshold=0 1 2 3
decision_type=1 1 9 9
left_child=-1 2 -2 -3
right_child=1 3 -4 -5
leaf_value=-0.067329736245876695 0.083285038282028254 -0.078887230261411437 0.076137633859602871 -0.071005118980592419
leaf_weight=153.51163556985557 25.202133376151323 2.9923470709472895 67.55627042427659 1.0127797638997424
leaf_count=11456 110 23 232 21
internal_value=0 0.0716638 0.0780813 -0.0769305
internal_weight=0 96.7635 92.7584 4.00513
internal_count=11842 386 342 44
cat_boundaries=0 1 2 3 4
cat_threshold=1 1 4 8
is_linear=0
shrinkage=0.1


Tree=18
num_leaves=35
num_cat=34
split_feature=3 7 4 7 3 4 7 2 1 6 1 4 3 6 6 3 1 6 6 1 6 1 6 6 1 6 4 2 1 6 4 4 4 6
split_gain=65.1233 21.0583 14.4188 16.7657 5.51878 5.23298 3.63095 3.59136 2.53668 1.18771 1.03509 1.62591 0.845452 1.98396 0.737759 0.660399 0.940566 1.80479 1.77275 0.668241 0.773706 0.633686 0.605574 0.520062 0.360507 0.29053 0.150774 0.0560151 0.0212391 0.0564863 0.0923988 0.0654554 0.0337955 0.00198866
threshold=0 1 2 3 4 5 6 7 8 9 10 11 12 13 14 15 16 17 18 19 20 21 22 23 24 25 26 27 28 29 30 31 32 33
decision_type=9 9 1 9 9 1 9 1 9 9 9 1 9 9 9 9 9 9 9 9 9 9 9 9 9 9 1 1 9 9 1 1 1 9
left_child=2 7 3 -1 28 6 33 10 -4 21 11 22 13 -8 -12 19 17 -17 -18 20 -5 -7 -2 -20 27 -10 -16 -14 29 31 -31 -3 -30 -6
right_child=1 4 8 15 5 9 12 -9 25 -11 14 -13 24 -15 26 16 18 -19 23 -21 -22 -23 -24 -25 -26 -27 -28 -29 32 30 -32 -33 -34 -35
leaf_value=0.046617179682158436 0.067804828631939165 0.065360267993593457 -0.12114612046864659 0.035667929632692816 -0.073323485288312562 -0.0030803690205006892 -0.10763524104723624 0.076741746239470915 -0.0793781290133308 0.024687858635761378 -0.10268130665591819 -0.11144381603922947 0.04788793728602448 0.024216994677189446 -0.18100131975761954 -0.11640952314353632 -0.16272480542919021 -0.053745208300535918 0.067546030421941725 0.068095347480409574 -0.02616982743386026 -0.055245428121859674 -0.039491548397000587 -0.068194693243866539 0.06760397314334475 -0.06333880550420222 -0.12722078504596709 0.067487180953275008 0.067485704589123549 0.067552440562984636 0.10220555469416032 0.056087257131039181 0.075260857949294033 -0.068801660299621578
leaf_weight=21.532812127843499 0.73239799402654171 32.405996218323708 13.749186456203461 3.0347255915403366 2.8208699058741331 3.0807347260415554 2.2734054978936911 1.2399708759039629 25.154911383986473 3.3204835113137934 5.40430455096066 3.8779797255992881 40.147991152480245 2.2882048785686493 1.9930657688528282 5.3668433837592602 2.5274608712643385 32.025344964116812 0.46839135885238647 1.4237416293472023 6.0612866561859846 9.540823280811308 1.8519835192710172 0.70381623134016924 13.16615113429725 20.624346107244492 0.73925545811653148 1.5244405083358277 45.461589640006423 53.982482532039285 0.78651749715208907 10.105996981263159 6.5745911896228781 3.0457931235432625
leaf_count=740 27 1529 43 80 84 16 76 16 72 21 26 11 1992 87 44 114 24 181 19 50 90 42 61 13 673 65 2 83 2558 2888 4 42 44 25
internal_value=0 0.0407997 -0.0436428 -0.0171912 0.0491865 0.020339 0.0353891 -0.0530572 -0.0834743 -0.0285165 -0.100429 -0.0705129 0.0392853 -0.0130086 -0.124166 -0.0442685 -0.0542975 -0.0627451 -0.115614 0.00227685 -0.00553543 -0.0425152 -0.00905549 -0.0139327 0.0449708 -0.0721552 -0.166554 0.0486081 0.0626139 0.0659159 0.0680538 0.0631586 0.0684709 -0.0262578
internal_weight=0 246.365 132.673 73.1444 230.526 81.2089 65.2669 15.839 59.5284 15.942 14.599 6.46236 59.4002 4.56161 8.13663 51.6116 41.0919 37.3922 3.69967 10.5198 9.09601 12.6216 2.58438 1.17221 54.8386 45.7793 2.73232 41.6724 149.317 97.281 54.769 42.512 52.0362 5.86666
internal_count=11842 10351 1491 1311 10164 3099 3020 187 180 79 171 99 2911 163 72 571 351 295 56 220 170 58 88 32 2748 137 46 2075 7065 4463 2892 1571 2602 109
cat_boundaries=0 17 24 25 28 44 45 52 53 54 55 56 57 69 70 71 79 80 81 82 83 84 85 86 87 88 89 90 91 92 93 94 95 96 97
cat_threshold=67108864 16777220 75636738 32768 32896 32768 8650768 4194304 4195329 33554432 8192 536936704 1073741824 0 33555460 1082132480 2 576 33280 16777216 336068608 0 537034752 260 1 0 134217728 4194336 167813248 100796984 50331712 4194304 65536 16778240 33685506 8388608 384 0 256 0 1 2147483648 536870912 32768 1 134217728 0 2147483648 0 0 134217728 16 1 4 4 4 1 0 0 4194304 0 0 0 0 16384 0 0 0 41943040 4 4 0 4 131072 0 0 32768 0 4194304 8 8 4 8 8 4 8 8 8 4 1 1 8 4 1 1 1 8
is_linear=0
shrinkage=0.1


Tree=19
num_leaves=19
num_cat=18
split_feature=3 7 4 6 1 4 1 6 6 1 4 1 6 6 6 2 2 6
split_gain=46.0354 7.84067 5.94944 3.77314 3.69872 1.97846 0.908096 2.49954 0.8649 0.415342 0.253262 0.228399 1.8303 0.165544 0.07354 0.0417357 0.00303145 0.0014236
threshold=0 1 2 3 4 5 6 7 8 9 10 11 12 13 14 15 16 17
decision_type=9 9 1 9 9 1 9 9 9 9 1 9 9 9 9 1 1 9
left_child=2 5 3 4 -1 6 8 -8 -2 10 14 12 -5 -13 15 -3 -16 -12
right_child=1 9 -4 11 -6 -7 7 -9 -10 -11 17 13 -14 -15 16 -17 -18 -19
leaf_value=0.06772827451823682 0.10263721269270161 -0.047890162333377832 -0.076110801665236094 -0.067032511511897125 0.20208159026494166 -0.072061042787520305 -0.066910320768105491 0.16818745101065624 0.20364982341648197 -0.067067909625000657 -0.066763367665774606 0.093966323317055928 0.27993794077329354 0.15973973736470184 -0.055368287780049111 -0.066965444666566343 -0.066683979287983614 -0.074166679896828278
leaf_weight=34.900073864497244 3.6921860026195645 41.566531639080495 2.2891997378319493 0.33093464560806751 2.1755733061581841 0.71257373224943865 0.96749120717868209 0.84585277549922444 1.103299676440656 27.607174259610474 0.5021578730084002 0.41538088023662567 0.27827638387680054 7.0058646202087385 22.148607291281223 1.1911873640492547 0.28660120023414748 4.8593921321444205
leaf_count=306 144 4946 52 21 23 22 126 65 59 3489 63 3 2 255 1945 151 34 136
internal_value=0 -0.0427044 0.0669773 0.0890905 0.0756225 0.0363954 0.103162 0.0428179 0.125952 -0.0514241 -0.0525894 0.151236 0.0918546 0.156085 -0.0508676 -0.0484247 -0.0555188 -0.0734984
internal_weight=0 105.483 47.3953 45.1061 37.0756 7.3214 6.60883 1.81334 4.79549 98.1617 70.5545 8.03046 0.609211 7.42125 65.1929 42.7577 22.4352 5.36155
internal_count=11842 11180 662 610 329 416 394 191 203 10764 7275 281 23 258 7076 5097 1979 199
cat_boundaries=0 17 24 25 26 27 28 29 30 31 32 33 34 35 36 37 38 39 40
cat_threshold=0 16777220 4194306 2048 32896 33024 8388608 16384 4194305 33554432 0 578813952 1073741824 0 4 2048 16384 2048 0 4194304 524288 0 134217728 272 1 4 8 1 8 8 4 8 1 4 8 2 8 1 1 8
is_linear=0
shrinkage=0.1


Tree=20
num_leaves=9
num_cat=8
split_feature=4 8 2 6 6 1 1 6
split_gain=94.6919 16.5808 10.7998 2.26777 0.815265 0.444476 0.0250517 0.0147731
threshold=0 1 2 3 4 5 6 7
decision_type=1 9 1 9 9 9 9 9
left_child=-1 4 3 -3 -2 -5 -6 -4
right_child=1 2 7 5 6 -7 -8 -9
leaf_value=-0.067267299975062853 0.019916172265726326 0.072838797075841247 -0.086556608608920199 0.12696077816552401 -0.023257582284374773 0.10609148218465092 -0.02996568920876086 -0.072680883764485463
leaf_weight=136.80673832353204 4.6346589624881744 20.448159784078598 1.3119650185108185 14.996845468878746 13.502931131981313 32.509485244750977 9.5574116231873667 2.2527967458590856
leaf_count=11456 13 57 5 44 64 105 72 26
internal_value=0 0.0610506 0.0805362 0.100697 -0.0134812 0.112685 -0.0260401 -0.0778333
internal_weight=0 99.2143 71.5193 67.9545 27.695 47.5063 23.0603 3.56476
internal_count=11842 386 237 206 149 149 136 31
cat_boundaries=0 1 10 11 12 13 14 15 16
cat_threshold=1 4 0 0 0 8192 0 0 0 2048 1 8 8 4 8 8
is_linear=0
shrinkage=0.1


Tree=21
num_leaves=16
num_cat=15
split_feature=3 0 1 2 3 1 2 3 2 1 5 3 3 2 2
split_gain=54.4076 23.63 5.01437 3.26776 2.90554 2.43906 1.97098 1.36416 1.04665 0.94067 0.704726 0.449757 0.546404 0.0126608 0.0107709
threshold=0 1 2 3 4 5 6 7 8 9 10 11 12 13 14
decision_type=9 9 9 1 9 9 1 9 1 9 1 9 9 1 1
left_child=2 6 -1 10 -3 7 9 14 11 -2 -4 -9 -13 -7 -6
right_child=1 4 3 -5 5 13 -8 8 -10 -11 -12 12 -14 -15 -16
leaf_value=-0.092178028220887054 -0.064685138454467023 0.061445635175313956 -0.010680145115294097 0.077619757740908735 0.072511067066218821 0.058222846572446391 0.074439139971436252 0.015327426134312436 0.069835022290849855 -0.024792713154261969 -0.046278892216008199 0.014504042115244692 -0.010603870345650546 0.068197671365743534 0.055802413237459769
leaf_weight=20.127792122773826 22.294331236742437 136.19834719784558 32.075315983965993 2.4088524254038921 0.41844060923904181 15.725286801345646 1.239922971464696 2.7781949080526829 2.1306460024788967 8.048094763420524 63.190964536741376 2.7395996982231736 33.664848263375461 1.4659521933645017 14.377033433876928
leaf_count=156 235 7045 561 44 15 763 21 84 79 159 570 167 1211 71 661
internal_value=0 0.0372358 -0.0430741 -0.0373634 0.049652 0.0229917 -0.0372587 0.0160301 0.00129762 -0.0541063 -0.0402724 -0.00210147 -0.00599557 0.0590813 0.0335869
internal_weight=0 241.081 117.803 97.6751 209.498 73.3 31.5823 56.1088 41.3133 30.3424 95.2663 39.1826 36.4044 17.1912 14.7955
internal_count=11842 10511 1331 1175 10096 3051 415 2217 1541 394 1131 1462 1378 834 676
cat_boundaries=0 17 22 23 24 40 41 42 59 60 61 62 77 95 96 97
cat_threshold=67108864 16777216 8527874 32768 32896 0 8650768 4194304 4228097 33554432 8192 536936704 1073741824 0 33555460 1082136576 16386 8405184 16778240 2147483648 2449473536 3678210 4 1 167772288 100829752 117440512 0 0 17827072 33685504 1024 384 0 16640 8388608 0 2147483648 536870912 32768 8 1 8388864 672137216 2147483728 16 66048 0 2 8421376 0 262144 132 512 32 0 0 0 16777216 1 8 4 0 0 0 256 536870912 32 0 0 67108864 536870912 0 0 4325376 0 1 536870912 0 51200 0 4096 1 65536 2 0 0 0 0 0 0 0 0 0 128 1 2
is_linear=0
shrinkage=0.1


Tree=22
num_leaves=14
num_cat=13
split_feature=8 3 3 2 6 1 6 6 1 1 2 1 2
split_gain=40.9404 31.4548 5.85983 3.49993 2.03326 6.3098 0.296947 0.293003 0.295662 0.0918904 0.0183374 0.00521998 0.00128113
threshold=0 1 2 3 4 5 6 7 8 9 10 11 12
decision_type=9 9 9 1 9 9 9 9 9 9 1 9 1
left_child=1 -1 6 4 5 -3 -2 8 10 -6 -4 12 -9
right_child=2 3 7 -5 9 -7 -8 11 -10 -11 -12 -13 -14
leaf_value=-0.042898317599384117 0.10192045329591592 -0.067048334201331203 -0.048140251699500189 -0.068604149867487016 0.12581034713230849 0.21121372612548139 0.055046166998451523 -0.063850643972402213 -0.067134850514026123 0.14325778850611964 -0.068361143861627879 -0.06694840280477786 -0.068144349716725769
leaf_weight=17.4025200875476 1.7652435824275017 0.90381457470357418 34.039396910462528 0.79799926374107499 21.383977614808828 8.2050591823644918 5.8148709861561656 30.822520816233009 11.19582464545965 3.6603422742337015 0.46423987532034416 9.0070899464189988 1.1811518426984537
leaf_count=1962 90 87 1659 43 281 392 107 4082 1440 90 42 1428 139
internal_value=0 0.0586547 -0.0438577 0.107513 0.14311 0.183595 0.0284559 -0.0524684 -0.0530048 0.128372 -0.0484163 -0.0646612 -0.0640134
internal_weight=0 52.3537 94.2903 34.9512 34.1532 9.10887 7.58011 86.7102 45.6995 25.0443 34.5036 41.0108 32.0037
internal_count=11842 2855 8987 893 850 479 197 8790 3141 371 1701 5649 4221
cat_boundaries=0 10 27 39 40 41 42 43 44 45 46 47 48 49
cat_threshold=1187920 558336 1082368 16908360 65537 301989888 67108864 2147483648 1313072 34734208 209715200 34637880 131072 0 0 0 0 0 0 545259520 0 0 0 0 1 32768 16777216 0 0 4194304 0 128 0 0 16385 4194304 0 0 8388608 1 8 4 8 4 8 8 1 8 1
is_linear=0
shrinkage=0.1


Tree=23
num_leaves=10
num_cat=9
split_feature=0 3 8 8 8 2 2 2 2
split_gain=44.5535 11.5359 7.57009 5.78793 2.45171 2.01221 1.02746 0.609932 0.00480758
threshold=0 1 2 3 4 5 6 7 8
decision_type=9 9 9 9 9 1 1 1 1
left_child=2 6 5 -4 7 -1 -2 -5 -3
right_child=1 8 3 4 -6 -7 -8 -9 -10
leaf_value=0.080839327458608265 0.054395945761270229 -0.064167032688312559 0.040519720958396184 0.024626879868237094 -0.044387950052341113 -0.077479650625859237 -0.074161906421242194 -0.077855879752822932 -0.068251509311683403
leaf_weight=47.9801129931584 14.115567798726259 114.28284009918571 13.595826362259684 11.83020069170743 14.599730955436828 0.8149633351713409 0.64863609056919713 0.6087925722822537 3.4780470291152588
leaf_count=651 355 9206 255 216 845 21 16 9 268
internal_value=0 -0.0480691 0.0394596 0.00213271 -0.0228987 0.0648934 0.0290592 0.0108657 -0.0592569
internal_weight=0 132.525 89.4296 40.6346 27.0387 48.7951 14.7642 12.439 117.761
internal_count=11842 9845 1997 1325 1070 672 371 225 9474
cat_boundaries=0 5 21 31 41 50 51 52 53 54
cat_threshold=75580992 1090536448 2155872256 2315405312 18358278 0 0 8388608 0 0 0 16 4194304 33792 8388608 0 256 1073741824 0 0 4096 6 605028361 34816 16777240 1060864 33554432 260 0 268436512 33685505 151680 3840 8 2 0 67108872 0 16793600 86081 4195330 80 524352 268435456 1048576 0 0 67108864 2281701376 4196624 1 1 1 1
is_linear=0
shrinkage=0.1


Tree=24
num_leaves=22
num_cat=21
split_feature=0 8 8 4 4 8 4 7 4 8 1 1 1 1 1 1 1 1 2 2 1
split_gain=46.1953 26.5454 18.3536 8.66518 4.4153 4.19048 3.99211 4.03031 1.37661 1.26318 1.26726 0.768629 0.465358 0.131582 0.0533836 0.0260937 0.0250479 0.0211709 0.00990987 0.00157505 0.00118288
threshold=0 1 2 3 4 5 6 7 8 9 10 11 12 13 14 15 16 17 18 19 20
decision_type=9 9 9 1 1 9 1 9 1 9 9 9 9 9 9 9 9 9 1 1 9
left_child=1 4 6 5 12 11 -2 -8 14 10 -7 -3 -1 -9 18 -6 -10 19 -4 -11 -5
right_child=2 3 8 20 15 9 7 13 16 17 -12 -13 -14 -15 -16 -17 -18 -19 -20 -21 -22
leaf_value=-0.065828938891657182 -0.11013626643426902 0.00014753900611091876 0.060415965542307708 -0.03249480984551225 -0.11088452462432388 -0.094027332084907697 0.028784518042529558 -0.062405540560377039 0.035632482277330325 0.060968542716968437 0.067458232513958064 -0.063947771463255851 -0.032037401261763604 -0.025339335072575526 0.064965129323899681 -0.11700928104549742 0.042156050337153417 0.06756036622908404 0.067491240972892191 0.067494906270773994 -0.030881754024455556
leaf_weight=26.800383633002639 6.0600002221763134 2.5730106430128217 94.510891892947257 6.530202329158783 20.075022548437119 3.0042434735223651 7.3760240506380796 14.542226387187839 19.752428211271763 32.222139434888959 0.57816039212048087 6.854944119229911 4.8131820363923934 1.0292326500639362 39.636730838567019 12.329647604376076 8.5170115604996699 6.2199772028252474 2.1731536798179141 0.55234671011567016 27.922061949968338
leaf_count=336 20 40 5738 24 57 41 449 412 86 840 27 83 157 53 2759 36 73 350 144 27 90
internal_value=0 -0.0306685 0.0412272 0.00690643 -0.07549 0.0334724 -0.028229 -0.0188916 0.0543842 0.0414406 -0.0179274 -0.022548 -0.0606865 -0.0365133 0.0618534 -0.113222 0.0376007 0.049441 0.0605764 0.0610826 -0.0311894
internal_weight=0 150.475 193.598 86.4571 64.0182 52.0048 29.0075 22.9475 164.59 42.5769 3.5824 9.42795 31.6136 15.5715 136.321 32.4047 28.2694 38.9945 96.684 32.7745 34.4523
internal_count=11842 2108 9734 1522 586 1408 934 914 8800 1285 68 123 493 465 8641 93 159 1217 5882 867 114
cat_boundaries=0 5 15 25 26 27 36 37 43 44 53 54 55 56 57 58 59 60 61 62 63 64
cat_threshold=75581120 1090536448 2155872768 2583838720 20455430 2147483650 68683017 35840 16777304 8192 33554432 260 0 1312 34734080 34349072 167936 1081353 64 268435456 268435456 2214592512 2147483648 805373968 128 1 1 1048832 0 256 5242912 65537 0 0 0 5505024 2 134217744 4 65536 0 0 524288 1 2229248 32768 4096 131072 0 0 0 0 4096 8 4 8 8 8 8 8 8 1 1 4
is_linear=0
shrinkage=0.1


Tree=25
num_leaves=13
num_cat=12
split_feature=3 8 8 6 8 6 6 6 6 6 2 2
split_gain=37.8898 12.2585 9.29478 1.51959 1.10451 1.42995 0.18722 0.0279553 0.0253509 0.00234208 0.000843599 3.22768e-05
threshold=0 1 2 3 4 5 6 7 8 9 10 11
decision_type=9 9 9 9 9 9 9 9 9 9 1 1
left_child=2 6 4 -4 8 -6 -2 -5 -1 10 -3 -11
right_child=1 9 3 7 5 -7 -8 -9 -10 11 -12 -13
leaf_value=-0.053145025065318222 0.082883106091385203 -0.063419134021879459 0.0960965421723666 0.14630455724138255 0.10693835267897266 0.0043329223326327316 0.11278177072449132 0.12517873531974258 -0.067943652687715073 -0.064693502803814307 -0.068247387849024954 -0.067161339338555601
leaf_weight=8.0676323510706425 3.9885128354653716 35.602350597269833 26.687773138284683 7.8405024232342839 1.714022746309638 6.5155885266140103 4.5033403937704843 0.79053824767470171 1.3876929134130467 42.672253890894353 0.72035805275663634 1.4786462686024595
leaf_count=90 294 3932 257 162 81 31 138 4 66 6474 74 239
internal_value=0 -0.0437378 0.0555483 0.0840982 -0.011252 0.0116144 0.0453592 0.144399 -0.0268938 -0.0571147 -0.0635186 -0.0647792
internal_weight=0 88.9655 53.0038 35.3188 17.6849 8.22961 8.49185 8.63104 9.45533 80.4736 36.3227 44.1509
internal_count=11842 11151 691 423 268 112 432 166 156 10719 4006 6713
cat_boundaries=0 17 27 35 36 37 38 39 40 41 42 43 44
cat_threshold=0 2164260868 4194306 2048 32896 33024 8388608 4210689 4194305 33554432 0 578813952 1073741824 0 4 2048 16384 64 557056 32768 20971520 0 0 67108864 0 16 1048576 1048580 0 8 48 268435456 0 256 262144 4 4 8 8 8 4 4 1 1
is_linear=0
shrinkage=0.1


Tree=26
num_leaves=7
num_cat=6
split_feature=4 8 6 6 1 1
split_gain=73.8501 11.2015 1.19675 0.528115 0.120984 0.00640828
threshold=0 1 2 3 4 5
decision_type=1 9 9 9 9 9
left_child=-1 3 -3 -2 -4 -5
right_child=1 2 4 5 -6 -7
leaf_value=-0.06720850363618984 0.01388328091274205 0.055522587837880361 0.091193229433301992 -0.022197214410281805 0.080682215123157777 -0.025758053281815487
leaf_weight=113.95448183687404 4.5502857267856598 20.737232193350792 16.190488748252392 12.851238781586289 35.074832769110799 8.5688945818692481
leaf_count=11456 13 62 54 64 121 72
internal_value=0 0.05119 0.0665599 -0.0123115 0.0840052 -0.023624
internal_weight=0 97.973 72.0026 25.9704 51.2653 21.4201
internal_count=11842 386 237 149 175 136
cat_boundaries=0 1 10 11 12 13 14
cat_threshold=1 4 0 0 0 8192 0 0 0 2048 8 8 4 8
is_linear=0
shrinkage=0.1


Tree=27
num_leaves=22
num_cat=21
split_feature=7 8 8 6 4 8 4 4 4 6 6 6 6 6 6 6 2 2 4 2 6
split_gain=39.2946 19.9386 11.5684 9.73787 9.59992 9.47895 2.6495 0.886255 0.602773 0.568913 0.50181 0.283414 0.238446 0.0716131 0.0608096 0.0443807 0.0149366 0.0131876 0.00374653 0.00304345 0.000406791
threshold=0 1 2 3 4 5 6 7 8 9 10 11 12 13 14 15 16 17 18 19 20
decision_type=9 9 9 9 1 9 1 1 1 9 9 9 9 9 9 9 1 1 1 1 9
left_child=1 8 3 18 5 14 12 16 13 -8 -7 -6 17 -1 -3 -10 -5 -4 -2 20 -14
right_child=2 4 6 7 11 10 9 -9 15 -11 -12 -13 19 -15 -16 -17 -18 -19 -20 -21 -22
leaf_value=-0.063679807478805764 -0.097510102150187836 -0.036666875566086235 0.054238611370758166 0.039578923654956161 -0.049262012105189754 0.057203747730595049 0.021787616273707421 -0.1133412109875311 -0.088115626833994265 0.061817839066126146 0.080982074594728559 -0.029464826659029802 0.063116745730170787 -0.073517956762646247 -0.051309393519993578 -0.078973344193281128 0.066655167193751572 0.067809749452853882 -0.093021829522678928 0.067281868187448579 0.06780100557683208
leaf_weight=23.427307459525764 4.1793580986559391 3.7858774969354272 52.073515704832971 10.541231491602959 13.385553777217865 18.935162896290421 27.21858486533165 0.38807631470262904 24.083671391010284 4.0820656884461668 16.760174037888646 15.759191220626235 69.261677860282362 11.01009827852249 11.63125537522137 7.1037942916154888 0.2103210333734723 0.75711706094443698 8.0120281130075437 2.3316134959459296 0.55132362712174554
leaf_count=321 138 146 3408 546 40 966 144 2 68 18 242 67 5070 270 82 24 16 47 23 184 20
internal_value=0 -0.0282519 0.0396699 -0.0229794 0.00643734 0.0333551 0.0498427 0.0347553 -0.0659164 0.0270118 0.0534104 -0.03856 0.0595485 -0.0668293 -0.0289461 -0.0860384 0.0401209 0.0544357 -0.0945762 0.0632909 0.0631557
internal_weight=0 145.882 179.607 23.331 80.2572 51.1125 156.276 11.1396 65.6249 31.3007 35.6953 29.1447 124.975 34.4374 15.4171 31.1875 10.7516 52.8306 12.1914 72.1446 69.813
internal_count=11842 2226 9616 725 1543 1436 8891 564 683 162 1208 107 8729 591 228 92 562 3455 161 5274 5090
cat_boundaries=0 7 17 26 27 28 38 39 40 41 42 43 44 45 46 47 48 49 50 51 52 53
cat_threshold=17829448 402686464 2164261920 67698688 67108864 671254592 276 2147483650 68681992 35840 16777304 8192 33554432 67109120 0 7456 34734080 34873360 170497 8 64 8192 268435456 2147483648 0 805371920 4 1 1179912 0 1052929 5373984 268500993 0 0 2147483648 5505024 128 1 1 1 4 8 8 4 4 8 4 1 1 1 1 8
is_linear=0
shrinkage=0.1


Tree=28
num_leaves=17
num_cat=16
split_feature=7 4 0 1 6 1 4 6 1 6 1 6 4 1 6 4
split_gain=19.9642 7.82988 3.80427 3.71629 3.18617 4.84318 2.98452 2.34471 1.08405 1.03552 1.38309 0.463572 0.368118 0.0400387 0.0261005 0.00178853
threshold=0 1 2 3 4 5 6 7 8 9 10 11 12 13 14 15
decision_type=9 1 9 9 9 9 1 9 9 9 9 9 1 9 9 1
left_child=1 4 9 6 8 7 11 -6 -1 10 12 -4 -2 15 -7 -11
right_child=2 -3 3 -5 5 14 -8 -9 -10 13 -12 -13 -14 -15 -16 -17
leaf_value=0.033962749279550293 -0.067397283229643584 -0.076985336151885964 0.19947615189508888 -0.06700528581393296 0.22641531287574268 0.097607385960723769 -0.06719733937055139 -0.066919201269927162 0.083622557156794994 -0.058402613930860353 -0.067094495490364767 0.12593334962772337 -0.01796270062718499 -0.067038137050364918 0.12794490051530791 -0.066625839766202108
leaf_weight=35.208579582162201 1.6269752336665988 4.9890241962857536 1.4891328029334545 1.4255986339412619 0.31045261025428772 0.32701548933982849 0.71280003245919932 2.1302023353055124 5.0225738477893165 33.434758228249848 9.7013186607509869 2.0648282892070711 20.076128208078448 6.6891077882610253 10.099895705003288 0.36773404432460566
leaf_count=262 104 76 78 206 1 1 53 356 218 4688 1642 247 2084 1288 483 55
internal_value=0 0.0364877 -0.0357737 0.0263814 0.0540233 0.097335 0.119401 -0.0294521 0.0401663 -0.0433157 -0.0357088 0.156843 -0.0216744 -0.0599104 0.127012 -0.058496
internal_weight=0 58.0877 77.5884 5.69236 53.0987 12.8676 4.26676 2.44065 40.2312 71.896 31.4044 3.55396 21.7031 40.4916 10.4269 33.8025
internal_count=11842 1397 10445 584 1321 841 378 357 480 9861 3830 325 2188 6031 484 4743
cat_boundaries=0 7 8 13 14 15 16 17 18 19 20 21 22 23 24 25 26
cat_threshold=3072 0 2151678976 589824 0 134348864 276 1 306200577 92554276 8194 3363858500 4198570 8 4 4 1 2 8 4 8 4 2 8 2 1
is_linear=0
shrinkage=0.1


Tree=29
num_leaves=5
num_cat=4
split_feature=4 8 6 6
split_gain=62.9912 8.94446 0.790946 0.455466
threshold=0 1 2 3
decision_type=1 9 9 9
left_child=-1 3 -3 -2
right_child=1 2 -4 -5
leaf_value=-0.067165401908765604 0.012196665487651611 0.050149630723823495 0.073486011886923872 -0.022817203793471165
leaf_weight=102.29065428581089 4.5203942060470581 20.208914265036583 51.820998282171786 20.825104666873816
leaf_count=11456 13 62 175 136
internal_value=0 0.0452033 0.05878 -0.0118837
internal_weight=0 97.3754 72.0299 25.3455
internal_count=11842 386 237 149
cat_boundaries=0 1 10 11 12
cat_threshold=1 4 0 0 0 8192 0 0 0 2048 8 8
is_linear=0
shrinkage=0.1


Tree=30
num_leaves=31
num_cat=30
split_feature=3 0 2 7 1 3 6 7 6 3 1 6 1 3 1 6 6 6 6 2 1 6 6 1 1 1 6 2 6 2
split_gain=35.6945 15.2361 3.63413 3.24074 2.45532 2.01416 1.85026 1.8489 1.62275 0.961923 2.10251 0.931089 1.28016 0.675589 0.926978 1.04491 0.763677 0.397643 0.359589 0.223536 0.211945 0.205071 0.15245 0.121624 0.0817425 0.0123457 0.015157 0.00842715 0.00159542 0.000154788
threshold=0 1 2 3 4 5 6 7 8 9 10 11 12 13 14 15 16 17 18 19 20 21 22 23 24 25 26 27 28 29
decision_type=9 9 1 9 9 9 9 9 9 9 9 9 9 9 9 9 9 9 9 1 9 9 9 9 9 9 9 1 9 1
left_child=2 3 4 13 17 8 -5 9 -6 20 -11 24 19 25 15 -15 -16 -1 -7 21 -3 -13 -8 -24 27 26 -2 -9 -4 -14
right_child=1 7 28 6 5 18 22 11 -10 10 -12 12 29 14 16 -17 -18 -19 -20 -21 -22 -23 23 -25 -26 -27 -28 -29 -30 -31
leaf_value=-0.030319112832802933 0.078037664722825348 0.067384275385148767 0.082831656949645296 -0.081176198582866496 -0.022985737681494926 -0.071474440932839972 0.069708176553143084 0.05890481210342037 0.022896293508123309 -0.041953463792189644 -0.18949984991269586 0.03490435021280501 0.06267054812340811 -0.067408183283456574 0.05053954738479001 0.00081647404930540479 -0.012369941839883353 -0.083565205943610707 -0.050883422458417565 0.071764500416224883 0.024276039397990445 -0.029109082784223209 -0.042927494564283075 0.012015273197231039 0.067171889624779851 0.067672720719119672 0.091318828721475162 0.067167055259406389 0.076040009201888761 0.0674712809967805
leaf_weight=1.5542116165161133 2.2049988657236099 2.1338057583197951 1.2930954238399863 16.076820706948638 23.986935298889875 10.730543673038483 0.35604093596339226 62.394072506576777 11.356317756697534 2.9407623270526528 1.4372558295726756 46.41517046559602 26.285484455525875 3.9191494602710009 3.8078618552535772 5.2512298375368118 3.9087393619120165 14.660467495210469 40.754616620019078 1.6407443191856135 2.4552264232188463 0.50449027121066947 0.51919250562787056 1.7731931656599078 15.713252541609107 0.61337544117122877 1.6315936446189883 1.3640191638842214 1.1898690648376933 0.41329206526279705
leaf_count=37 79 127 29 122 484 139 7 4459 169 41 38 1894 1693 81 262 25 49 98 195 42 42 7 11 79 1446 24 6 120 11 26
internal_value=0 0.0327226 -0.0364139 -0.0206556 -0.0427457 -0.0360735 -0.0446024 0.0462232 -0.00642493 -0.0101548 -0.027552 0.0499087 0.0451598 0.00788781 -0.00430866 -0.0283491 0.0186787 -0.0784658 -0.0462038 0.0354865 0.0139518 0.0342149 0.00902282 -0.000455049 0.0606845 0.0251212 0.0837304 0.0590837 0.0796408 0.0627499
internal_weight=0 203.76 105.526 40.0622 103.043 86.8284 18.7252 163.698 35.3433 8.96705 4.37802 154.731 75.2592 21.3369 16.887 9.17038 7.7166 16.2147 51.4852 48.5604 4.58903 46.9197 2.64843 2.29239 79.4713 4.44997 3.83659 63.7581 2.48296 26.6988
internal_count=11842 10680 1162 745 1122 987 219 9935 653 248 79 9687 3662 526 417 106 311 135 334 1943 169 1901 97 90 6025 109 85 4579 40 1719
cat_boundaries=0 17 22 23 30 31 46 47 54 55 65 66 67 68 84 85 86 87 88 89 90 91 92 93 94 95 96 97 98 99 100
cat_threshold=67108864 0 8527874 32768 32896 32768 8650768 4194305 4228097 0 8192 570491136 1073741824 0 33555460 1082132480 16386 75497664 1090520064 2147484160 2583691264 2629634 1 0 0 2147484672 268435456 0 2560 16 4 0 0 131074 0 0 32768 0 0 0 0 0 0 0 0 4 4 536870912 1073774592 16777216 67108864 0 135266816 64 8 128 8 0 0 0 0 0 0 0 8388608 4 8 8 8192 0 0 0 0 0 0 16777216 128 0 0 8388608 0 0 536870912 1024 8 8 8 8 8 1 8 4 2 4 8 8 8 1 8 1
is_linear=0
shrinkage=0.1


Tree=31
num_leaves=17
num_cat=16
split_feature=8 0 4 8 2 0 1 1 1 4 1 1 4 2 2 4
split_gain=29.1507 12.7108 5.53776 2.37825 1.49204 1.38719 0.76481 0.211737 0.102639 0.126778 0.0681417 0.0432007 0.0156521 0.0090764 0.00592155 0.00442067
threshold=0 1 2 3 4 5 6 7 8 9 10 11 12 13 14 15
decision_type=9 9 1 9 1 9 9 9 9 1 9 9 1 1 1 1
left_child=1 10 4 5 6 7 -3 -2 9 13 12 15 14 -5 -1 -7
right_child=3 2 -4 8 -6 11 -8 -9 -10 -11 -12 -13 -14 -15 -16 -17
leaf_value=-0.04791936161736559 0.015358664198179439 0.11006225947483417 -0.076898086585941147 -0.055108456303673892 -0.068171685086408529 -0.045651937696048861 0.067705138520758976 0.051540478895267243 -0.066992858673077249 -0.072817075378406593 -0.067198951492407399 -0.066873688002674445 -0.067143781634126418 -0.066821868181114519 -0.066714870680912697 -0.066011231475826035
leaf_weight=9.8894325955770928 2.0712225940078497 32.773394923657179 1.8056563986465324 43.674914564471692 0.50562138669192691 4.6130330164451161 4.9142917417921117 7.4148411036003363 12.926000365288926 4.5794842573814085 2.6268342509865734 1.3006935832090665 0.4724026913754632 0.7157040978781869 0.18217701814137122 0.11797931883484025
leaf_count=844 19 1112 48 5047 34 501 466 157 2526 169 465 243 38 142 18 13
internal_value=0 0.048626 0.0753302 -0.0405674 0.102253 0.00424723 0.104543 0.0212494 -0.0508305 -0.0569413 -0.0299828 -0.0190674 -0.0491306 -0.0553003 -0.0482725 -0.0461873
internal_weight=0 53.1698 39.999 77.4139 38.1933 15.5178 37.6877 9.48606 61.8961 48.9701 13.1708 6.03171 10.544 44.3906 10.0716 4.73101
internal_count=11842 3025 1660 8817 1612 933 1578 176 7884 5358 1365 757 900 5189 862 514
cat_boundaries=0 10 15 16 25 26 31 32 33 34 35 36 37 38 39 40 41
cat_threshold=8280 558336 1082368 16908376 65537 301989888 67108864 2147483648 5245232 34734208 0 25183232 8194 2147493888 4194474 1 1179904 1048576 6409 4194336 268435456 0 0 0 266240 1 512 1073741824 2 0 3145728 8 4 8 1 8 8 1 1 1 1
is_linear=0
shrinkage=0.1


Tree=32
num_leaves=4
num_cat=3
split_feature=4 1 6
split_gain=54.0345 0.049911 0.161709
threshold=0 1 2
decision_type=1 9 9
left_child=-1 -2 -3
right_child=1 2 -4
leaf_value=-0.0671285232653131 0.043843545042034485 0.041982916304915463 0.031762227430249645
leaf_weight=91.934345018584281 25.551568465307355 47.845681503415108 22.944219582248479
leaf_count=11456 120 172 94
internal_value=0 0.0400439 0.0386712
internal_weight=0 96.3415 70.7899
internal_count=11842 386 266
cat_boundaries=0 1 2 3
cat_threshold=1 4 4
is_linear=0
shrinkage=0.1


Tree=33
num_leaves=27
num_cat=26
split_feature=7 8 8 8 7 8 4 4 4 1 4 1 1 4 4 2 1 1 4 4 1 1 4 1 4 2
split_gain=30.0508 23.6862 8.09572 7.83215 4.55903 4.78903 4.29363 2.99136 2.93179 1.5462 1.41026 1.21145 1.06697 2.02304 0.747897 0.53586 0.459353 0.401386 0.451451 0.38409 0.320393 0.277686 0.0808894 0.0745369 0.0449102 0.00704072
threshold=0 1 2 3 4 5 6 7 8 9 10 11 12 13 14 15 16 17 18 19 20 21 22 23 24 25
decision_type=9 9 9 9 9 9 1 1 1 9 1 9 9 1 1 1 9 9 1 1 9 9 1 9 1 1
left_child=3 7 6 12 9 8 20 16 23 -4 -11 14 15 -14 -7 -1 -2 18 25 -13 -3 -9 -17 -6 -19 -5
right_child=1 2 4 17 5 11 -8 21 -10 10 -12 19 13 -15 -16 22 -18 24 -20 -21 -22 -23 -24 -25 -26 -27
leaf_value=0.069004308637326539 -0.051019060147770502 -0.0095688923459452697 -0.11488914780021441 0.059146896509239079 0.025421684123255801 0.039913459646647068 -0.081526452887770648 -0.093070070220168818 -0.054798279551999445 -0.053957468899206454 0.067200621142482472 0.071278194046791907 0.067166043261085454 -0.099586002417056521 -0.074587318827154997 -0.036105797101685939 -0.021551936137275886 0.067190967387209408 0.038571412664773159 0.092376570914260991 0.023873225346594893 -0.07409075888090555 -0.054857159537438374 0.06700604274263576 0.076579548879616766 0.067118099823166549
leaf_weight=0.3892470458522439 35.548156896606088 11.722311206161976 2.96025718934834 59.797545852139592 8.2038740366697311 3.4190169461071491 11.753061602823436 22.395856197923422 8.6040803492069244 3.9294407106935978 1.2695494396612028 27.638834725134075 2.4019458210095737 1.0413428470492365 0.68271642550826062 3.1311022639274597 6.2199591835960737 26.303482701070607 12.693691257387398 12.600109126418827 3.7891847146674982 11.849478755146263 8.8596785487607104 0.45391277223825355 6.484140856191515 1.242158131673931
leaf_count=15 799 370 23 4826 230 256 39 71 27 16 99 1120 224 4 8 9 256 2634 55 59 110 38 342 34 53 125
internal_value=0 -0.018412 0.0143917 0.0442752 0.0315976 0.0417203 -0.0262978 -0.0570884 -0.00852566 -0.0257148 -0.0243572 0.05925 -0.0199297 0.0167072 0.0208282 -0.0462163 -0.0466322 0.0547046 0.0557419 0.077889 -0.00139755 -0.0865076 -0.0499675 0.0276169 0.0690522 0.0593113
internal_weight=0 173.04 97.0263 122.344 69.7618 61.6025 27.2646 76.0135 17.2619 8.15925 5.19899 44.3407 15.8233 3.44329 4.10173 12.38 41.7681 106.521 73.7334 40.2389 15.5115 34.2453 11.9908 8.65779 32.7876 61.0397
internal_count=11842 3555 2391 8287 1872 1734 519 1164 291 138 115 1443 594 228 264 366 1055 7693 5006 1179 480 109 351 264 2687 4951
cat_boundaries=0 7 17 27 36 43 53 54 55 56 57 58 59 60 61 62 63 64 65 66 67 68 69 70 71 72 73
cat_threshold=2550661137 2148540420 4194320 20 328833 6899584 168 2147483714 68813064 35840 16777288 73728 33554432 67109124 0 7456 34734208 34734208 536903680 1048832 5373968 4096 67108872 0 2164277248 273940545 1027 33824784 34305 8 80 8192 268435456 0 0 268501008 34603584 512 0 67108864 0 133120 256 545040 6208 4105 2 269484033 0 2147483648 0 536870928 4194304 1 1 1 8 2 4 8 1 1 2 8 8 1 1 8 8 2 8 1 1
is_linear=0
shrinkage=0.1


Tree=34
num_leaves=15
num_cat=14
split_feature=3 8 8 7 6 1 6 1 1 6 6 1 6 1
split_gain=26.0955 12.8447 4.18972 4.01842 1.08411 2.02716 0.89331 1.1301 0.486037 0.193945 0.144719 0.0652241 0.0134859 0.00550498
threshold=0 1 2 3 4 5 6 7 8 9 10 11 12 13
decision_type=9 9 9 9 9 9 9 9 9 9 9 9 9 9
left_child=2 3 8 9 -5 10 -4 -8 -1 11 -6 -2 13 -3
right_child=1 12 6 4 5 -7 7 -9 -10 -11 -12 -13 -14 -15
leaf_value=0.0071300919343041088 -0.066656719770211523 -0.063336921254750794 0.10517514585019379 0.19833301861850855 0.16602116692870697 -0.066915997690970938 0.14071361536725618 0.065868923506943497 -0.045856246415750784 -0.068186749141007377 0.089667063503116956 -0.02728747824169226 -0.067035484750570348 -0.066831789343465453
leaf_weight=2.278890929184854 0.50597821292467415 26.664503907319158 11.245448996312916 4.4584147022105753 2.1332630217075348 0.48417881736531887 2.1896356921643019 25.670291768386964 7.1945428894832713 3.6961398285347951 0.28975215554237399 2.5019258866086607 30.116334394318983 6.4239349116105577
leaf_count=18 95 4855 240 52 141 55 17 253 91 244 1 256 3901 1623
internal_value=0 -0.0373412 0.0489684 0.036492 0.0709812 0.119664 0.0648039 0.071761 -0.0161097 -0.0212109 0.156972 -0.0339499 -0.056517 -0.0640194
internal_weight=0 77.2744 48.5788 14.0697 7.36561 2.90719 39.1054 27.8599 9.47343 6.70404 2.42302 3.0079 63.2048 33.0884
internal_count=11842 11223 619 844 249 197 510 270 109 595 142 351 10379 6478
cat_boundaries=0 17 27 28 34 35 36 37 38 39 40 41 42 43 44
cat_threshold=0 2164260864 4194306 2048 32896 33024 8388608 4210689 4194305 33554432 0 578813952 1073741824 0 4 2048 16384 131392 557056 32768 20971528 268500992 0 67108864 0 5242896 1048576 1048580 134217729 134217732 65536 0 0 2621440 4 8 8 4 4 8 8 4 8 8
is_linear=0
shrinkage=0.1


Tree=35
num_leaves=7
num_cat=6
split_feature=4 8 2 6 6 6
split_gain=47.5841 7.05793 6.79544 0.360486 0.278006 0.0123519
threshold=0 1 2 3 4 5
decision_type=1 9 1 9 9 9
left_child=-1 3 4 -2 -3 -4
right_child=1 2 5 -5 -6 -7
leaf_value=-0.067099124494340079 0.0076508315530342003 0.052043275455692366 -0.086123717921679291 -0.023877365740006592 0.066606102732228667 -0.073329337825363647
leaf_weight=83.08273136196658 4.4103794693946838 17.936402320861816 1.2803784012794495 20.381041949614886 49.203224178403616 2.3401026157662264
leaf_count=11456 13 57 5 136 149 26
internal_value=0 0.0363756 0.048646 -0.0130178 0.0627173 -0.0778991
internal_weight=0 95.5515 70.7601 24.7914 67.1396 3.62048
internal_count=11842 386 237 149 206 31
cat_boundaries=0 1 10 11 12 13 14
cat_threshold=1 4 0 0 0 8192 0 0 0 2048 1 8 8 8
is_linear=0
shrinkage=0.1


Tree=36
num_leaves=23
num_cat=22
split_feature=7 8 4 8 8 4 0 0 1 4 0 1 1 8 1 4 7 1 1 1 4 1
split_gain=25.437 21.7041 7.80948 7.47762 4.20868 2.30454 8.98325 2.16003 1.27202 1.00525 0.498979 0.243875 0.24105 0.122362 0.128618 0.108473 0.0678031 0.687994 0.0807858 0.0459094 0.0382853 0.0213357
threshold=0 1 2 3 4 5 6 7 8 9 10 11 12 13 14 15 16 17 18 19 20 21
decision_type=9 9 1 9 9 1 9 9 9 1 9 9 9 9 9 1 9 9 9 9 1 9
left_child=3 5 4 7 10 6 16 15 -4 -9 13 -7 -5 14 -3 -1 17 -2 -18 -8 -14 -12
right_child=1 2 8 12 -6 11 19 9 -10 -11 21 -13 20 -15 -16 -17 18 -19 -20 -21 -22 -23
leaf_value=0.067247002362357353 -0.1716786383805663 -0.051672300195821641 -0.057633603384378167 0.057960620225363912 0.053094647197338168 -0.086218450728019522 -0.09166065720693943 -0.10407455398085078 -0.0087752665254871697 -0.041250145475907371 -0.02620741040068944 -0.068164284671296066 0.06713984308158448 0.016597107983090133 -0.010239154419782929 0.031742493314986825 0.048694718638416248 -0.024846793056750052 0.067740301285372936 -0.078536099049135014 0.076238242646560914 -0.041779209988988215
leaf_weight=4.3162251659668982 0.37417040765285492 1.1488718753680587 6.3559035696089268 63.299119635485113 37.700702969450504 21.798485204577446 24.296001421287656 3.425349859520793 32.922913640737534 9.9381389054469782 0.98981993226334453 11.480697926133869 22.270587856415659 3.1997450282797217 2.1505619455128908 1.0816277861595152 9.8333495371043682 2.1108179651200776 2.9030550969764564 3.1112048290669945 6.0197737058624652 8.9852867405861616
leaf_count=411 2 24 29 4725 1933 71 266 13 128 416 55 38 2541 172 11 3 442 105 172 97 53 135
internal_value=0 -0.0165129 0.0155963 0.0430525 0.0418791 -0.0532575 -0.0448745 -0.015365 -0.0166838 -0.0328147 -0.00996638 -0.0799946 0.0553535 0.00833893 -0.00612781 0.0210901 0.0221478 -0.00937593 0.0297171 -0.0660712 0.0690811 -0.0200967
internal_weight=0 169.362 93.4538 110.351 54.175 75.9078 42.6286 18.7613 39.2788 13.3635 16.4743 33.2792 91.5895 6.49918 3.29943 5.39785 15.2214 2.48499 12.7364 27.4072 28.2904 9.97511
internal_count=11842 3680 2487 8162 2330 1193 1084 843 157 429 397 109 7319 207 35 414 721 107 614 363 2594 190
cat_boundaries=0 7 17 18 27 36 37 42 47 48 49 52 53 54 59 60 61 67 68 69 70 71 72
cat_threshold=403177489 2148540420 4194320 20 263305 6899584 168 2147483714 68681992 35840 16908360 73728 33554432 67109124 0 268442912 34734208 1 33824784 2147517953 134217736 80 8192 268435456 256 0 16 1188104 32768 1052929 5242912 268435457 0 0 2147483648 5505024 1 16384 16793600 2 2151694336 4096 4194304 0 2 0 168 4 2 0 1073758208 2 8 8 1048576 0 1 0 268435456 8 1 1024 0 0 0 0 134217728 4 8 8 1 4
is_linear=0
shrinkage=0.1


Tree=37
num_leaves=16
num_cat=15
split_feature=3 8 6 8 1 1 6 1 1 6 1 1 6 2 2
split_gain=25.6252 9.04809 3.50333 4.13983 0.716809 0.40218 0.294746 0.82086 0.745417 0.190571 0.182139 0.07437 0.00956804 0.00395352 0.00309853
threshold=0 1 2 3 4 5 6 7 8 9 10 11 12 13 14
decision_type=9 9 9 9 9 9 9 9 9 9 9 9 9 1 1
left_child=2 6 -1 5 -5 -4 8 -8 -2 10 -3 12 13 -11 -14
right_child=1 9 3 4 -6 -7 7 -9 -10 11 -12 -13 14 -15 -16
leaf_value=0.10729149720142922 0.070638546015074855 0.03328029575604867 0.0073800497697254878 0.071663112411201949 0.13086969094556333 -0.039695401738844442 0.074568360960244967 0.18484142072687082 -0.066612561825121749 -0.056832656519409636 -0.066827126418611979 -0.066915408680792418 -0.067204426616935736 -0.068335948880707445 -0.059790374468901175
leaf_weight=11.608472539577633 2.8794839754700661 0.42344084708020091 2.281128229573369 23.054734786041081 2.2459292616695192 8.8649629699066264 5.1772205769084394 0.77593193645588865 0.45707428897731039 20.301861460786313 0.31535361148416996 14.575926134828476 0.71123556816019118 0.35200042719953017 26.610247891396288
leaf_count=244 203 12 17 242 14 88 84 64 96 2141 30 3500 153 45 4909
internal_value=0 -0.0374995 0.0492114 0.0442093 0.0551376 -0.0158467 0.0364386 0.0889986 0.0518079 -0.0518438 -0.0095155 -0.0606314 -0.0587194 -0.0570353 -0.0599883
internal_weight=0 72.5798 48.0552 36.4468 25.3007 11.1461 9.28971 5.95315 3.33656 63.2901 0.738794 62.5513 47.9753 20.6539 27.3215
internal_count=11842 11237 605 361 256 105 447 148 299 10790 42 10748 7248 2186 5062
cat_boundaries=0 17 27 28 35 36 37 38 39 40 41 42 43 44 45 46
cat_threshold=0 2164260864 4194306 2048 32896 33024 8388608 16385 4194305 33554432 4096 578813952 1073741824 0 4 2048 16385 131392 524288 32768 20971520 268500992 0 67108864 0 4194304 1048576 8 1048580 0 0 32 0 0 256 8 4 8 8 8 2 8 8 4 1 2
is_linear=0
shrinkage=0.1


Tree=38
num_leaves=7
num_cat=6
split_feature=4 8 6 6 1 1
split_gain=41.3591 5.75283 0.58035 0.448453 0.130137 0.00293103
threshold=0 1 2 3 4 5
decision_type=1 9 9 9 9 9
left_child=-1 2 -2 -3 -5 -4
right_child=1 3 5 4 -6 -7
leaf_value=-0.067070205098671315 0.01536912189148666 0.037317299070654071 -0.021951311702911834 0.063749259249928636 0.052496455644835939 -0.024421676995175182
leaf_weight=74.952359798830003 4.8858983218669891 17.848117023706436 12.141269109211862 14.616063572466373 35.172093955799937 8.4277526522055304
leaf_count=11456 15 60 67 52 116 76
internal_value=0 0.032733 -0.0112053 0.0443663 0.0558023 -0.0229658
internal_weight=0 93.0912 25.4549 67.6363 49.7882 20.569
internal_count=11842 386 158 228 168 143
cat_boundaries=0 1 10 11 12 13 14
cat_threshold=1 4 0 0 0 0 33554432 0 0 2048 8 8 4 8
is_linear=0
shrinkage=0.1


Tree=39
num_leaves=24
num_cat=23
split_feature=3 8 0 4 8 6 0 7 4 6 4 7 6 4 6 4 6 4 6 4 6 4 6
split_gain=25.819 16.9708 9.27358 19.6413 9.17116 6.43532 4.73075 3.68498 1.74168 3.22131 1.442 0.48524 0.427078 0.245235 0.0657738 0.138788 0.0441125 0.0344692 0.0223122 0.0186558 0.0091285 0.00292691 0.000517635
threshold=0 1 2 3 4 5 6 7 8 9 10 11 12 13 14 15 16 17 18 19 20 21 22
decision_type=9 9 9 1 9 9 9 9 1 9 1 9 9 1 9 1 9 1 9 1 9 1 9
left_child=7 6 10 4 5 -4 8 13 9 -2 12 -7 -3 -1 19 -16 21 -18 -6 -9 -13 -8 -5
right_child=1 2 3 22 18 11 16 14 -10 -11 -12 20 -14 -15 15 -17 17 -19 -20 -21 -22 -23 -24
leaf_value=-0.034790908858280567 -0.13668786878981379 -0.10381676853089349 -0.12384675358303968 -0.065394877918618644 0.063639239132479403 0.013902560693491717 0.052884200278992037 0.064151063077431458 -0.084802997832969046 -0.48931273527082608 -0.052494093625650731 -0.059397700558255162 -0.078397151155407629 -0.091241874546825627 0.067215790362606248 0.098578114600185562 0.064664588621648436 0.057030947495845419 0.068964056044140132 0.059544042097685747 -0.045578587431012368 0.056116789048046171 -0.066694904410809538
leaf_weight=0.96701937913894653 0.96025197813287377 9.3825323721393943 6.473039030097425 13.571454584598541 23.302845885511488 6.1794990664347988 5.4084457457065582 27.608868458773941 2.0537504255771637 0.35413151234388351 21.792284078896046 2.2764971074648201 22.613050815183669 3.8329876959323883 34.644285765010864 1.4793095812201489 16.449603382032365 9.5582227762788552 12.582880752161143 13.703815020620821 0.65711289085447822 8.9901329232379776 21.012740693986416
leaf_count=43 49 267 126 49 1712 265 16 2833 6 6 73 102 157 11 3879 7 468 61 614 88 14 921 75
internal_value=0 -0.0136977 -0.0305102 -0.00708458 0.0312524 -0.0290106 0.0356973 0.0507224 -0.03591 -0.232294 -0.0610018 0.00653699 -0.0858573 -0.0259171 0.0578942 0.0685055 0.0476072 0.0618637 0.0512339 0.0626258 -0.0127848 0.0549101 -0.0661886
internal_weight=0 183.618 139.844 86.0561 51.4719 15.5861 43.7745 82.2363 3.36813 1.31438 53.7879 9.11311 31.9956 4.80001 77.4363 36.1236 40.4064 26.0078 35.8857 41.3127 2.93361 14.3986 34.5842
internal_count=11842 4981 3454 2957 2833 507 1527 6861 61 55 497 381 424 54 6807 3886 1466 529 2326 2921 116 937 124
cat_boundaries=0 16 26 31 32 42 43 48 55 56 57 58 64 65 66 67 68 69 70 71 72 73 74 75
cat_threshold=167813248 202541624 50331648 0 2048 17826816 131074 16777216 384 0 33554688 0 0 2147483648 536870912 33792 8918021 1210132480 285216768 32 268435456 262144 4227072 402915328 8192 321600 16896 1073741824 8389122 268435456 18878468 1 8216 32768 1049608 88 0 268435456 0 2147483648 2064 128 4 1024 0 0 134217728 3145730 0 32768 16777216 67108864 0 536903680 4 1 8 1 1 134217728 16 0 262144 2097152 8 1 4 1 8 1 8 1 8 2 8
is_linear=0
shrinkage=0.1


Tree=40
num_leaves=20
num_cat=19
split_feature=8 7 4 8 7 1 6 6 6 6 6 1 1 4 6 6 1 4 1
split_gain=19.6096 7.93113 3.72086 1.80685 1.59532 0.376371 3.32133 0.483664 0.335825 0.205403 0.170133 0.20043 0.127145 0.133492 0.205215 0.114452 0.0762642 0.0673229 0.0655484
threshold=0 1 2 3 4 5 6 7 8 9 10 11 12 13 14 15 16 17 18
decision_type=9 9 1 9 9 9 9 9 9 9 9 9 9 1 9 9 9 1 9
left_child=1 10 5 4 9 7 -7 -3 -8 -2 -1 -12 13 14 -5 16 -6 -18 -11
right_child=3 2 -4 12 15 6 8 -9 -10 18 11 -13 -14 -15 -16 -17 17 -19 -20
leaf_value=-0.06796372773647312 0.064719567065615602 0.10015298016157222 -0.076130278918317279 -0.045235659486720176 -0.066813327994210178 -0.066965927763169175 0.045342800102785054 0.075625035650762465 0.12413258649972486 0.015169586119375272 -0.0198689068871882 -0.067586275902900686 -0.066970784101641159 -0.071768097919775439 -0.060583587016792645 -0.067299511052783118 -0.015033138349633072 -0.069597724445313966 0.035646301059796916
leaf_weight=6.3149128677323461 2.2477933324407786 13.14768387330696 1.5592831904068578 20.110345850931481 0.65622498956508934 1.5336574476677924 0.67087708692997694 20.84473144961521 2.8604623437859114 2.0568152368068695 2.0260123074986041 1.5578997025731935 9.0720258892979455 3.7549198488704851 15.438452962785957 4.1529132914729443 1.1642017799895259 0.27919114497490216 6.5719428223092091
leaf_count=721 185 553 47 1490 149 305 14 714 153 9 66 313 2482 167 3550 743 68 16 97
internal_value=0 0.041023 0.0604056 -0.0353887 0.00186023 0.0813252 0.0558513 0.0851174 0.109198 0.0196936 -0.0288954 -0.0406374 -0.0466369 -0.0538054 -0.0519041 -0.022191 -0.0385799 -0.0256691 0.03077
internal_weight=0 50.5155 40.6167 65.5048 17.1291 39.0574 5.065 33.9924 3.53134 10.8766 9.89882 3.58391 48.3757 39.3037 35.5488 6.25253 2.09962 1.44339 8.62876
internal_count=11842 2886 1786 8956 1267 1739 472 1267 167 291 1100 379 7689 5207 5040 976 233 84 106
cat_boundaries=0 10 16 17 26 33 34 35 36 37 38 39 40 41 42 43 44 45 46 47
cat_threshold=8280 558336 1082368 16908360 65537 301989888 67108864 2147483648 1313072 34734208 80 402653188 48 67108868 327680 6815744 1 5374208 1048576 2147490057 5242928 2048 0 0 0 4198400 1025 0 1024 0 0 0 256 8 8 8 2 8 8 8 8 1 4 4 4 1 4
is_linear=0
shrinkage=0.1


Tree=41
num_leaves=5
num_cat=4
split_feature=4 8 1 1
split_gain=36.0074 4.5497 0.243796 0.222447
threshold=0 1 2 3
decision_type=1 9 9 9
left_child=-1 3 -3 -2
right_child=1 2 -4 -5
leaf_value=-0.067037784019002303 -0.0024071001054127073 0.057128721453022217 0.042375323797449863 -0.022025241398781422
leaf_weight=67.365056112874299 9.2822099849581718 14.268806703388691 52.47484340518713 15.318083410151303
leaf_count=11456 68 52 176 90
internal_value=0 0.0293305 0.0395983 -0.0103975
internal_weight=0 91.3439 66.7437 24.6003
internal_count=11842 386 228 158
cat_boundaries=0 1 10 11 12
cat_threshold=1 4 0 0 0 0 33554432 0 0 2048 4 4
is_linear=0
shrinkage=0.1


Tree=42
num_leaves=18
num_cat=17
split_feature=3 7 4 3 7 0 0 6 6 6 6 6 6 6 4 4 6
split_gain=22.5739 13.0581 4.75525 11.5904 1.22705 1.07988 0.526728 1.59302 0.505691 0.458399 0.362456 0.268327 0.0988932 0.0776019 0.132767 0.0276862 0.00248741
threshold=0 1 2 3 4 5 6 7 8 9 10 11 12 13 14 15 16
decision_type=9 9 1 9 9 9 9 9 9 9 9 9 9 9 1 1 9
left_child=4 16 3 9 -1 11 7 -7 -8 -3 -11 -5 -4 15 -15 -6 -2
right_child=1 2 12 5 13 6 8 -9 -10 10 -12 -13 -14 14 -16 -17 -18
leaf_value=-0.019941841012093741 0.067292545120842914 -0.082596097353175219 -0.048222012954888704 0.022162894397049826 0.063752422102601597 0.0080023312853208291 -0.11894332209414166 -0.034214094082013841 -0.081390810949677705 0.0674024285506854 0.043305408525971513 0.069919283210634064 -0.039665517110265662 0.067283516416043548 0.10378735248698445 0.057942103491993448 0.057306483766327736
leaf_weight=3.0661040223203599 0.31724126730114222 0.23958687484264374 46.243472307920456 3.2174080768600106 23.597273302264512 12.569012308493257 8.5894282814115286 30.936205761041492 6.1976519790478024 13.097095934674144 11.961693065240983 1.8555313437245784 19.192698646336794 30.111987511627376 1.035982441157105 13.103864274919031 27.435341512318704
leaf_count=32 15 1 162 50 2461 660 262 456 97 1048 540 50 88 3754 5 88 2073
internal_value=0 -0.0119869 -0.0237264 -0.0101746 0.0511287 -0.0311199 -0.036378 -0.0179027 -0.061579 0.0391228 0.0559042 0.0133486 -0.0457136 0.0564898 0.0685042 0.0616812 0.0422153
internal_weight=0 181.852 154.1 88.6636 70.9152 63.3652 58.2923 43.5052 14.7871 25.2984 25.0588 5.07294 65.4362 67.8491 31.148 36.7011 27.7526
internal_count=11842 5502 3414 3164 6340 1575 1475 1116 359 1589 1588 100 250 6308 3759 2549 2088
cat_boundaries=0 17 24 25 41 48 53 58 59 60 61 62 63 64 65 66 67 68
cat_threshold=167813120 201361464 50331648 0 2048 17826816 131074 16777216 384 536870912 0 0 0 2147483648 536870913 33792 16777216 285736960 1048576 4194320 268435476 2147746953 543704832 168 1 128 131588 75628544 4194304 65536 0 262144 1082368 0 8388608 16768 512 33 0 0 8392704 536870912 32768 1048576 67108864 0 536870912 4 0 16793600 2 2147483648 2 4211201 1073741824 8388608 0 524288 8 8 2 8 4 4 4 1 1 2
is_linear=0
shrinkage=0.1


Tree=43
num_leaves=14
num_cat=13
split_feature=3 8 8 4 4 1 8 1 1 1 4 4 2
split_gain=19.3395 7.29033 4.31597 3.82075 1.64614 0.558841 0.410736 0.321604 0.0812043 0.0683485 0.0668888 0.0577723 0.00656487
threshold=0 1 2 3 4 5 6 7 8 9 10 11 12
decision_type=9 9 9 1 1 9 9 9 9 9 1 1 1
left_child=2 4 6 9 5 -2 -1 -8 11 -4 -9 12 -3
right_child=1 8 3 -5 -6 -7 7 10 -10 -11 -12 -13 -14
leaf_value=0.0083570034730948775 0.036524941358669342 -0.056140783795707139 0.085891884340100144 -0.074932568376204087 -0.067633219993597699 0.099527813459887066 -0.0033783328920334471 -0.041015304415995296 -0.066901390345019893 0.10362186720047706 -0.071468087378211795 -0.071528425298332671 -0.06673819414162542
leaf_weight=5.6918558375909925 1.845090548042208 39.501646903576329 29.387717545963824 1.5208887625485648 0.77865965827368189 5.9833402871154231 2.5749886510893703 6.7438738490454835 11.133352464297785 2.4025317188352373 0.81093302113004018 2.6920397130306801 0.64960684580728312
leaf_count=119 351 6794 323 36 66 356 56 89 3268 20 36 151 177
internal_value=0 -0.035662 0.0413809 0.0613991 0.0327998 0.0846917 -0.00822251 -0.017062 -0.0499999 0.0872383 -0.0443022 -0.0572747 -0.0563156
internal_weight=0 62.5837 49.1328 33.3111 8.60709 7.82843 15.8217 10.1298 53.9766 31.7902 7.55481 42.8433 40.1513
internal_count=11842 11163 679 379 773 707 300 181 10390 343 125 7122 6971
cat_boundaries=0 17 26 34 35 36 37 41 42 43 44 45 46 47
cat_threshold=0 2164260864 4194306 2048 32896 33024 8388608 16385 4194561 33554432 4096 578813952 1073741824 0 4 2048 16385 131396 524288 0 20971520 268500992 0 67108864 0 4194304 1048580 256 8 48 0 0 0 262144 1 1 4 0 256 8 48 4 8 8 1 1 1
is_linear=0
shrinkage=0.1


Tree=44
num_leaves=6
num_cat=5
split_feature=4 2 1 6 6
split_gain=31.3092 4.75732 0.0682549 0.0180314 0.016594
threshold=0 1 2 3 4
decision_type=1 1 9 9 9
left_child=-1 2 -2 -4 -3
right_child=1 4 3 -5 -6
leaf_value=-0.067008607910002738 0.03620899109498673 -0.087961902377636902 0.030823284676757812 0.027129736696991331 -0.07380409268721122
leaf_weight=60.293778949184343 21.769377138465643 1.2862775921821594 44.193185664713383 19.119171524420381 2.8653347324579945
leaf_count=11456 110 5 157 75 39
internal_value=0 0.0262718 0.0313728 0.0297088 -0.0782308
internal_weight=0 89.2333 85.0817 63.3124 4.15161
internal_count=11842 386 342 232 44
cat_boundaries=0 1 2 3 4 5
cat_threshold=1 1 4 4 8
is_linear=0
shrinkage=0.1


Tree=45
num_leaves=31
num_cat=30
split_feature=3 8 0 8 7 4 8 6 4 4 7 6 3 4 8 4 6 4 4 4 6 6 6 6 4 6 4 6 6 6
split_gain=20.6749 15.7281 10.3525 2.94447 2.77999 2.63841 2.42397 2.52209 2.04361 1.1825 0.893662 0.377052 1.22754 0.318218 0.263878 0.100436 0.0742098 0.452029 0.0586931 0.0573519 0.0508653 0.0488803 0.0454117 0.0340089 0.112263 0.0058586 0.00287541 0.00238745 0.000592256 8.05877e-05
threshold=0 1 2 3 4 5 6 7 8 9 10 11 12 13 14 15 16 17 18 19 20 21 22 23 24 25 26 27 28 29
decision_type=9 9 9 9 9 1 9 9 1 1 9 9 9 1 9 1 9 1 1 1 9 9 9 9 1 9 1 9 9 9
left_child=10 4 3 13 5 29 7 -4 14 -9 -1 12 -6 20 25 -13 18 -18 -8 -14 -3 -15 -10 26 -25 -5 -12 -19 -16 -2
right_child=1 2 6 8 11 -7 16 9 22 -11 23 15 19 21 28 -17 17 27 -20 -21 -22 -23 -24 24 -26 -27 -28 -29 -30 -31
leaf_value=-0.017214753900704174 0.070382139309637853 -0.10102037558756255 0.04516108053145379 -0.086812906690732494 0.017924507323528065 -0.029900631129424166 0.057110232742341921 -0.066954906654943677 -0.023447158936742193 0.04923761625818722 0.06280097535645783 -0.071951933830453105 -0.10425757064013011 -0.09000526258996229 0.067424054575428743 -0.06256120067158874 0.10077611797009732 0.056384943845625535 0.046690846702222344 -0.078353112750463222 -0.12553255515687697 -0.075129083001808497 -0.013445059862498216 0.067215785038471004 0.10130685648608087 -0.073818051210493937 0.064958870760266602 0.067107105219319826 0.070287871746921457 0.067476797676586403
leaf_weight=3.4529509684070945 1.7553142020478845 1.4389728419482708 4.1782572059892118 0.62287039123475552 3.3943716380745173 5.341228723526001 23.17321296222508 6.5945868319831771 8.2168045938014984 1.0085095139220355 20.048243691213429 20.399547622073442 0.93995100259780884 4.047633096575737 4.1404708349145949 26.30197811126709 2.6782812317833304 16.777417502831668 7.1431626528501537 12.086099768988788 2.3360489229671639 5.1586597785353643 10.169172503054142 26.965157808735967 1.008509043604138 1.2720322264358399 13.076418980956076 0.26551144756377354 3.4202544917352515 3.8230933486483973
leaf_count=19 39 33 314 23 186 22 1133 111 29 8 2522 264 3 15 362 87 15 1731 38 388 75 28 37 3792 5 12 89 13 124 325
internal_value=0 -0.0115581 0.0136626 -0.0226106 -0.043986 0.0106121 0.037429 -0.00932519 0.00111227 -0.0515337 0.0508643 -0.0535907 -0.0490319 -0.0518321 0.0392859 -0.066666 0.0481569 0.0625743 0.0546585 -0.0453945 -0.116247 -0.0816877 -0.0179171 0.0565922 0.068452 -0.0124649 0.0636567 0.0565598 0.0295993 0.0684159
internal_weight=0 176.683 102.642 40.8229 74.0416 10.9196 61.8189 11.7814 27.8416 7.6031 64.5513 63.1219 16.4204 12.9813 9.45563 46.7015 50.0376 19.7212 30.3164 13.0261 3.77502 9.20629 18.386 61.0983 27.9737 1.8949 33.1247 17.0429 7.56073 5.57841
internal_count=11842 5415 4101 738 1314 386 3363 433 587 119 6427 928 577 151 521 351 2930 1759 1171 391 108 43 66 6408 3797 35 2611 1744 486 364
cat_boundaries=0 17 27 32 42 48 49 58 59 60 61 68 69 85 86 96 97 98 99 100 101 102 103 104 105 106 107 108 109 110 111
cat_threshold=167813120 234916408 50331648 0 2048 17826816 131072 16777216 67109248 536870912 0 0 0 2147483648 536870913 33792 16785408 2147491920 68845576 36096 16908352 73728 33554432 67109124 0 268438832 34603008 8406080 16794624 2 2554464256 3670022 33554438 536871937 0 40 0 8 0 0 0 131074 0 134217728 0 0 0 6815808 1 393480 256 1052672 1048592 1048577 268435456 0 0 5509120 8 1 1 0 0 0 67633152 0 536870912 4 8 0 0 0 0 0 0 0 4194304 0 0 0 536870912 0 0 0 4096 1 0 0 1 4194304 268435456 0 0 0 4198400 128 1 4 2 1 2 4 8 8 4 1 8 1 8 8 4
is_linear=0
shrinkage=0.1


Tree=46
num_leaves=13
num_cat=12
split_feature=3 7 4 6 4 6 4 4 6 2 2 6
split_gain=15.7515 6.13708 3.45207 0.833469 0.52924 0.125643 0.0978822 0.0870867 0.0664809 0.00767734 0.0065059 0.00566874
threshold=0 1 2 3 4 5 6 7 8 9 10 11
decision_type=9 9 1 9 1 9 1 1 9 1 1 9
left_child=2 4 3 -1 11 7 8 -3 9 -7 -10 -2
right_child=1 5 -4 -5 -6 6 -8 -9 10 -11 -12 -13
leaf_value=0.070615186663965254 0.13856179764553922 0.016003010437004535 -0.072622305179307969 0.041552449681238612 -0.066030351324214018 -0.055850201117531778 -0.070173602714785135 -0.067248478176448426 -0.04856068028098464 -0.066701067346809126 -0.066644634747340392 0.1287957835693736
leaf_weight=14.044732878915966 2.810806714463979 0.43171587702818215 2.4035112771671256 33.233318747021258 0.13361892942339171 26.265798958716914 3.4887299980036905 0.17493934230878949 22.11897915462032 0.72307134792208927 0.21354603464715438 1.4965106092859057
leaf_count=238 203 22 114 327 19 6557 237 16 3659 234 52 164
internal_value=0 -0.0336005 0.0368314 0.0501886 0.0397284 -0.0450011 -0.0539451 -0.00814606 -0.0527944 -0.0561458 -0.0487396 0.13523
internal_weight=0 57.8577 49.6816 47.2781 4.44094 53.4168 52.8101 0.606655 49.3214 26.9889 22.3325 4.30732
internal_count=11842 11163 679 565 386 10777 10739 38 10502 6791 3711 367
cat_boundaries=0 17 24 25 26 27 28 29 30 31 32 33 34
cat_threshold=0 2164260864 4194306 2048 32896 33024 8388608 16385 4194561 33554432 4096 578813952 1073741824 0 4 2048 16385 2056 32768 4194304 524288 0 134217728 256 1 8 1 2 1 1 8 1 1 4
is_linear=0
shrinkage=0.1


Tree=47
num_leaves=5
num_cat=4
split_feature=4 2 1 1
split_gain=27.3559 4.31696 0.0600143 0.00070387
threshold=0 1 2 3
decision_type=1 1 9 9
left_child=-1 2 -2 -3
right_child=1 3 -4 -5
leaf_value=-0.066978192520468993 0.032938394945869733 -0.079100328727426034 0.026787620461514634 -0.074327547812641739
leaf_weight=53.966614553472027 21.345119399949908 2.8277467498555779 62.399883598089218 1.1908342135138799
leaf_count=11456 110 23 232 21
internal_value=0 0.0234972 0.0283561 -0.0777237
internal_weight=0 87.7636 83.745 4.01858
internal_count=11842 386 342 44
cat_boundaries=0 1 2 3 4
cat_threshold=1 1 4 8
is_linear=0
shrinkage=0.1


Tree=48
num_leaves=28
num_cat=27
split_feature=8 3 3 4 8 3 4 8 2 4 3 2 1 4 4 1 4 4 4 1 1 1 1 1 2 1 2
split_gain=17.0567 13.7486 9.72197 9.37659 3.18725 2.27125 2.26684 2.04803 1.22046 1.66949 0.592617 0.431602 0.349282 0.553043 0.348202 0.393925 0.255419 0.169788 0.0757268 0.0708692 0.0306988 0.0235944 0.0147156 0.0075368 0.00433557 0.000360533 0.000165141
threshold=0 1 2 3 4 5 6 7 8 9 10 11 12 13 14 15 16 17 18 19 20 21 22 23 24 25 26
decision_type=9 9 9 1 9 9 1 9 1 1 9 1 9 1 1 9 1 1 1 9 9 9 9 9 1 9 1
left_child=2 4 3 -1 14 7 22 18 -9 10 -10 21 17 -14 15 -2 19 -7 -6 -4 -5 -8 24 -16 -3 -18 -24
right_child=1 6 16 20 5 12 11 8 9 -11 -12 -13 13 -15 23 -17 25 -19 -20 -21 -22 -23 26 -25 -26 -27 -28
leaf_value=0.066931157569323205 -0.095658469582380376 0.059044104975976223 -0.088562602546957414 -0.050347827492319058 0.058457426850441564 -0.064886970194717508 0.024394724063852471 0.084575121159652003 -0.011506020225959675 -0.046966954355445366 0.018701134509485202 0.072829196093570969 0.0065444309351769363 -0.069857723259165547 -0.055601390382159811 -0.049655957384467687 -0.06818213951331778 -0.026450672966274416 0.075040542334248991 -0.06999903177162263 -0.0618565478222938 0.030346274177999767 0.062470162853799388 -0.047164860846788073 0.06696365128436356 -0.070407466673888988 0.066923296371778754
leaf_weight=15.849543509073555 4.2116415649652481 46.677703162655234 20.325315001886338 7.2205254882574081 4.1167875286191702 5.8797207488678396 24.201105227693915 1.3153716744855046 4.6531675551086664 8.8114720433950442 5.7907601627521235 2.0941008925437918 2.6348571693524701 1.477117614354938 1.2482303055003285 3.3497650027275085 3.4958188235759735 1.4332570470869539 8.6367175420746189 2.3400704236701158 3.5077753812074661 9.2616308033466321 17.889241954311728 11.102456198073924 0.81500667752697964 11.867568768560885 0.48955561779439705
leaf_count=1601 15 5323 417 26 17 218 100 17 33 32 392 24 31 15 16 13 13 5 110 64 13 68 2869 157 134 40 79
internal_value=0 0.0228882 -0.0342877 0.013128 -0.0127937 0.00379062 0.0447422 0.0164617 -0.00575038 -0.0149149 0.012131 0.028803 -0.0236003 -0.0209216 -0.03887 -0.0752975 -0.063259 -0.0573632 0.0390687 -0.0866524 -0.0541216 0.0260437 0.060137 -0.0480264 0.0591828 -0.0699101 0.062596
internal_weight=0 166.09 64.6066 26.5778 64.6613 44.7492 101.428 33.3243 20.5708 19.2554 10.4439 35.5568 11.425 4.11197 19.9121 7.56141 38.0288 7.31298 12.7535 22.6654 10.7283 33.4627 65.8715 12.3507 47.4927 15.3634 18.3788
internal_count=11842 9668 2174 1640 1071 870 8597 601 474 457 425 192 269 46 201 28 534 223 127 481 39 168 8405 173 5457 53 2948
cat_boundaries=0 10 27 44 45 55 68 69 79 80 81 94 95 96 97 98 99 100 101 102 103 104 105 106 107 108 109 110
cat_threshold=2181046352 68849672 35840 16908360 73728 0 67109124 0 268440848 1048704 67108928 16777220 4341762 35072 32896 256 16 16385 32769 33554432 0 8388608 1073741824 0 1024 8390656 16386 134225920 1050652 139328 0 2048 256 33554432 0 0 536870912 16384 0 4194305 0 1 1073778688 2 1 524288 257 256 0 1048576 33554432 0 0 2080 33685504 0 4 131074 0 0 0 0 16384 0 0 0 0 1073741824 1 4 1024 268439552 32 268435456 0 0 0 0 2048 2 1 0 4 0 0 0 0 0 0 0 0 0 0 1073741824 1 8 1 2 8 1 1 2 8 8 8 8 4 1 4 1
is_linear=0
shrinkage=0.1


Tree=49
num_leaves=23
num_cat=22
split_feature=8 3 4 4 6 1 8 6 8 4 1 6 1 1 1 6 1 4 1 4 1 1
split_gain=15.4478 6.54951 1.65865 1.26175 0.859572 1.81942 0.475959 0.366418 2.0851 0.547041 0.232361 0.216308 0.418802 0.343986 0.113355 0.103149 0.0450298 0.0302269 0.0286166 0.00206293 8.23656e-05 3.74016e-05
threshold=0 1 2 3 4 5 6 7 8 9 10 11 12 13 14 15 16 17 18 19 20 21
decision_type=9 9 1 1 9 9 9 9 9 1 9 9 9 9 9 9 9 1 9 1 9 9
left_child=2 3 4 6 21 -6 14 16 9 10 -9 13 -13 -8 -2 -12 19 18 -10 -3 -19 -1
right_child=1 7 -4 -5 5 -7 11 8 17 -11 15 12 -14 -15 -16 -17 -18 20 -20 -21 -22 -23
leaf_value=0.13184760847793087 -0.023423675745598383 -0.05465123588894364 -0.073127239275379341 -0.070401271991991185 0.098212873545372587 -0.069338267748822027 0.024971535306478443 0.067858309057166499 -0.066975373762530793 -0.068869530365314818 0.027130560567620612 0.0925185229153071 0.035140807657093924 -0.06741743235251349 0.0031155858420731288 -0.066235921484043545 -0.066760166365920678 -0.071723487041794862 -0.057937622928366773 -0.066170058810971391 -0.067166555400343247 0.12628029576859046
leaf_weight=6.403717911336571 5.2361502032727003 18.841872423188757 0.53119294485077517 1.5490383943542827 9.1146779437549412 0.69630878162570375 8.0826413135509938 4.2830244966316968 4.6460739419562742 0.36360837495885778 0.88333239883650094 1.3904129341244698 14.852559227496386 0.42224545171484251 2.322555928491056 0.13464748952537753 3.8185742984060225 2.3981206442695111 15.799578223610299 0.2008664719760479 0.66482838895172536 1.3517988885287193
leaf_count=111 98 4822 23 101 374 155 191 150 1580 30 136 7 208 37 16 11 1594 95 1889 57 75 82
internal_value=0 -0.0194182 0.064894 0.0136683 0.106013 0.0863097 0.021934 -0.0396784 -0.0398688 0.0179084 0.0576547 0.0237155 0.0400632 0.0203699 -0.00657459 0.0146754 -0.0567865 -0.0430833 -0.0599977 -0.0547797 -0.0707789 0.13091
internal_weight=0 85.8901 18.0977 33.8556 17.5665 9.81099 32.3066 52.0345 29.1732 5.66461 5.301 24.7479 16.243 8.50489 7.55871 1.01798 22.8613 23.5086 20.4457 19.0427 3.06295 7.75552
internal_count=11842 11097 745 658 722 529 557 10439 3966 327 297 443 215 228 114 147 6473 3639 3469 4879 170 193
cat_boundaries=0 10 26 27 28 29 30 31 32 41 42 43 44 45 46 47 48 49 50 51 52 53 54
cat_threshold=8272 557056 1024 16908352 65536 268435456 67108864 0 272 34603136 0 16777216 4194306 2048 32896 256 65538 4210689 33024 33554432 0 8388608 1073741824 0 0 2049 1 1 4 8 1048580 8 131336 0 2048 4194312 268435456 0 256 0 5246976 1 8 8 4 8 8 4 8 1 4 1 8 8
is_linear=0
shrinkage=0.1


Tree=50
num_leaves=6
num_cat=5
split_feature=4 7 6 6 1
split_gain=24.0741 0.92415 0.322352 0.234735 0.27357
threshold=0 1 2 3 4
decision_type=1 9 9 9 9
left_child=-1 2 -2 -3 -5
right_child=1 3 -4 4 -6
leaf_value=-0.066958623778748713 0.059009408333136615 -0.0078455613986433918 0.036809766891494754 0.016042251719371837 -0.00041299498120959022
leaf_weight=48.533043970121071 12.772312596440315 6.8822561949491501 13.44123612716794 39.089515258558095 13.624303274787961
leaf_count=11456 45 23 54 161 103
internal_value=0 0.0211641 0.0344782 0.00815364 0.0117894
internal_weight=0 85.8096 26.2135 59.5961 52.7138
internal_count=11842 386 99 287 264
cat_boundaries=0 1 5 6 7 8
cat_threshold=1 0 134217728 32 67108864 4 8 8
is_linear=0
shrinkage=0.1


Tree=51
num_leaves=30
num_cat=29
split_feature=3 8 0 8 4 2 0 2 8 4 8 4 1 1 1 1 3 3 4 4 1 4 0 4 4 4 4 4 4
split_gain=14.2804 12.181 11.0336 5.19138 4.29064 3.32935 2.83386 2.50087 2.42232 1.71452 1.33005 2.20681 1.01744 0.427361 0.422873 0.337336 0.322387 0.367499 0.675683 0.464852 0.263116 0.967023 0.204172 0.202137 0.0951851 0.0778333 0.0690359 0.0522488 0.000624732
threshold=0 1 2 3 4 5 6 7 8 9 10 11 12 13 14 15 16 17 18 19 20 21 22 23 24 25 26 27 28
decision_type=9 9 9 9 1 1 9 1 9 1 9 1 9 9 9 9 9 9 1 1 9 1 9 1 1 1 1 1 1
left_child=3 6 5 4 14 10 9 13 16 -2 26 15 -13 25 22 -12 -4 19 -19 -18 21 -10 -1 -22 -15 -8 -3 -5 -9
right_child=1 2 8 27 -6 -7 7 28 20 -11 11 12 -14 24 -16 -17 17 18 -20 -21 23 -23 -24 -25 -26 -27 -28 -29 -30
leaf_value=0.0094865166744607238 0.034569866093869195 0.035986404375201501 -0.016013699689638585 0.067419574696042678 -0.10617946861097578 0.079103701396420589 -0.08576559083650187 0.070345060867655448 0.067148702642544536 -0.025075408439736414 -0.09968131117755677 0.040505061206355275 -0.035197224756486095 -0.04582548411269953 0.066841000130980419 -0.068615425417433124 -0.016249084420986906 0.12876857472278486 0.021280769981606142 -0.10483223798803759 0.064031740771858733 -0.02548304803251876 -0.0091451935042314511 0.084504692206733623 -0.066233396816846452 -0.073672205603982729 0.067516485144527835 0.060882682216779144 0.078175045368726312
leaf_weight=3.3188585513271396 8.3105036844499409 4.5366250574588776 3.1996144913136959 35.329977204557508 4.9058747738599777 2.4652691488154224 23.158674186095595 0.60222363518550881 4.7404183002654463 11.466570258140564 4.6255665495991707 2.2148686684668064 8.916307429783048 3.4983626212924701 1.4331841850653271 14.487601704895498 3.9610705878585577 0.63116723764687777 7.6833096356131154 0.69481647014617909 28.312764820409939 1.4770945534110067 1.3622850114479654 5.8423167583532623 6.724695011973381 7.0670750215649631 0.82254819571971882 19.164529070258141 0.52250344306230545
leaf_count=314 432 14 13 5589 17 40 523 32 804 42 17 166 403 161 277 53 75 8 511 2 1966 12 110 40 26 23 55 114 3
internal_value=0 -0.0109142 0.0116474 0.0416627 -0.0191581 -0.0263243 -0.0424628 -0.0587413 0.0373269 -7.28512e-06 -0.0410217 -0.0417329 -0.0201295 -0.0769607 0.019353 -0.0761433 -0.00396494 0.00468547 0.0133804 -0.00937687 0.0513686 0.0451411 0.00479164 0.0675384 -0.0592601 -0.0829431 0.0142567 0.0550259 0.0741149
internal_weight=0 155.962 94.6114 65.5147 11.0202 38.0688 61.3506 41.5735 56.5426 19.7771 35.6035 30.2443 11.1312 40.4488 6.11433 19.1132 16.17 12.9704 8.31448 4.65589 40.3726 6.21751 4.68114 34.1551 10.2231 30.2257 5.35917 54.4945 1.12473
internal_count=11842 5421 4179 6421 718 748 1242 768 3431 474 708 639 569 733 701 70 609 596 519 77 2822 816 424 2006 187 546 69 5703 35
cat_boundaries=0 17 27 32 42 43 44 49 50 60 61 71 72 73 74 75 76 89 96 97 98 99 100 105 106 107 108 109 110 111
cat_threshold=134258688 201361464 117440512 0 2048 17826816 2 16777216 67109248 545259520 0 0 0 2147483648 536870913 33792 16785408 2181046352 68845576 3328 16908352 1122304 33554432 67109120 0 268438832 34603136 8406080 16794624 34 2550286336 3670022 0 1048576 34816 16777240 8192 0 260 0 64 4194304 1 1 2097152 25183232 2 4194304 130 1 1967368 2304 1052680 1048592 257 268435456 32768 0 39063552 2 1 655360 256 268435456 0 0 0 0 134217728 0 2112 2 4 8 8 4 0 0 0 0 0 0 0 0 4194304 0 0 0 1073741824 0 4 4325376 2048 0 0 16 2 1 4 1 1 0 2 0 4096 1 1 1 2 1 1
is_linear=0
shrinkage=0.1


Tree=52
num_leaves=23
num_cat=22
split_feature=8 4 8 8 6 2 6 1 6 4 1 1 4 1 1 6 1 2 1 2 2 6
split_gain=11.8778 1.83838 1.24998 0.895678 2.23598 1.08565 0.873878 1.28732 0.834141 0.427915 0.296159 0.221087 0.174176 0.171218 0.102031 0.0748677 0.0615262 0.0404 0.0265187 0.0205151 0.019679 0.019249
threshold=0 1 2 3 4 5 6 7 8 9 10 11 12 13 14 15 16 17 18 19 20 21
decision_type=9 1 9 9 9 1 9 9 9 1 9 9 1 9 9 9 9 1 9 1 1 9
left_child=1 3 8 4 14 6 18 -8 9 10 -2 12 20 17 19 -6 -17 -10 -5 -1 21 -4
right_child=2 -3 11 5 15 -7 7 -9 13 -11 -12 -13 -14 -15 -16 16 -18 -19 -20 -21 -22 -23
leaf_value=-0.027585638562484627 0.035012765920640031 -0.071743635534196479 -0.040167767848103691 0.12667083597728043 0.065370714931817175 -0.070620826087395852 -0.069984286102040258 0.086554079113125404 -0.016443464939491587 -0.072351733609774288 -0.0043711436289689621 -0.06692553815484574 -0.070367255978132537 -0.066856146533196381 -0.06684418824653611 0.034847600936723976 0.018317876869098592 -0.066665956360785081 0.1105642258035362 -0.066667897496565973 -0.066654944342958558 -0.045531836374926221
leaf_weight=6.5668638270581141 7.1472053226316348 1.3419693585019548 10.843352846801281 5.8054357571527362 0.70348969288170338 0.39419689180795359 0.55420098430477083 9.6312512948643416 8.2671667211689073 0.47671360615640779 2.6045498378807679 6.0461271316744378 2.7071734459605059 0.76259260415099461 0.76933067373465736 13.247654994949698 2.7217548086773631 0.1615852435352253 1.4162134528160093 0.13621581869665522 0.37855310726445424 18.385001181159168
