tree
version=v3
num_class=3
num_tree_per_iteration=3
label_index=0
max_feature_idx=8
objective=multiclass num_class:3
feature_names=service priority status group type_query criticality impact system place
feature_infos=-1:0:131:65:22:55:46:133:140:9:135:62:126:77:14:69:73:107:56:118:109:50:37:102:123:25:98:87:110:149:128:17:150:42:138:7:58:100:28:34:129:139:145:146:19:24:130:8:113:119:127:26:47:148:40:141:134:104:114:10:78:95:3:116:121:27:29:51:151:21:122:23:30:67:152:6:16:32:86:124:147:79:81:99:111:112:125 -1:3:2:1 -1:0:1 -1:36:27:495:81:43:35:7:90:492:25:37:414:193:57:89:234:170:184:375:58:384:175:264:34:41:209:477:328:217:247:49:118:311:334:306:239:100:180:238:45:61:13:389:86:208:447:507:30:144:23:52:137:361:450:17:47:107:228:70:8:103:503:160:29:104:165:246:26:75:112:168:256:551:225:516:68:178:210:278:430:21:338:56:59:65:79:87:95:135:141:322:521:525:537:108:244:303:360:465:83:106:140:143:271:40:78:115:327:519:547:28:117:162:401:418:15:55:114:157:223:252:267:273:330:457:6:18:174:214:215:230:260:348:473:497:53:76:116:186:274:313:368:408:513:54:101:120:124:139:146:182:203:250:257:263:284:291:329:365:396:405:406:412:432:484:38:248:265:321:381:404:409:490:510:528:530:88:111:125:156:195:259:279:293:297:336:337:395:480:512:2:12:16:74:77:80:126:130:142:161:172:183:289:307:317:320:324:355:380:425:446:448:460:467:491:517:11:96:98:129:136:163:185:211:212:231:240:254:261:266:282:333:350:376:397:423:429:445:475:526:536:14:39:46:63:102:105:109:158:169:181:192:194:196:224:235:241:249:255:275:295:296:299:318:332:345:356:358:374:377:378:410:411:458:468:478:481:509:511:524:540:552 -1:0:1 -1:3:0:1:2 -1:3:2:1 -1:0:179:27:80:68:59:34:4:10:181:74:174:98:86:95:187:144:166:182:146:63:69:52:122:138:171:19:128:195:112:88:196:176:197:25:31:60:11:175:131:28:199:78:6:193:186:39:54:115:177:167:12:92:154:200:32:41:42:65:29:30:56:180:62:159:107:124:170:5:84:93:185:44:71:169:20:37:38:3:24:33:45:47:90:114:189:9:35:36:91:108:113:135:164:168:188:192:194:40:100:120:198 -1:185:2:200:1:267:32:148:292:59:248:99:52:261:48:259:116:194:270:100:72:251:40:3:265:74:79:45:62:298:301:67:61:264:294:88:266:306:260:281:288:163:10:101:19:92:140:47:53:75:64:278:302:305:20:276:96:170:42:269:277:285:289:207:214:274:106:120:6:7:295:18:125:268:303:4:135:58:35:238:8:233:313:27:97:296:43:118:121:186:263:290:310:275:84:228:256:297:25:262:31:38:71:66:76:253:17:21:13:51:80:284:308:5:91:287:69:117:139:141:102:128:22:12:63:111:167:280:304:14:156:178:252:291:144:168:9:57:257:279:68:103:119:218:258:272:56:73:95:113:115:241:0:16:50:98:110:169:242:26:34:41:49:112:81:86:165:286:77:105:132:216:30:109:127:155:183:255:78:176:24:36:87:104:122:150:157:187:188:219:254:283:123:124:126:131:152:192:224:273:293:37:44:60:107:136:138:151:190:191:229:299:311:23:28:39:54:82:85:90:108:133:147:153:158:175:180:193:195:197:199:203:204:208:209:220:223:227:282:309
tree_sizes=943 729 459 971 686 1068 895 778 461 728 763 462 843 835 462 1041 882 655 1241 689 656 1048 877 457 878 762 947 1267 815 657 1208 739 463 1483 1033 1032 1376 931 1048 1409 993 462 1336 1040 463 1400 942 656 1214 1311 653 1160 893 657 1503 1295 657 1255 1208 463 1232 1006 656 1612 879 1071 1127 1092 655 1135 704 1150 1564 1300 461 1604 1201 462 1796 1258 655 1486 1264 655 1692 884 462 1716 999 654 1560 1284 655 1423 1019 1445 1297 718 462 1744 1231 462 1627 806 463 1539 1309 461 1385 1077 464 1414 1209 1428 1596 1418 1080 1720 1220 658 1246 1062 656 1816 1036 658 1494 1182 367 1297 1252 462 1597 1063 1433 1753 1166 1604 1283 1013 657 1189 1425 1423 1793 1062 464 1037 1102 465 1778 1270 464 1680 1282 658 1475 1504 464 1840 1068 656 1337 1173 1232 1498 940 1184 1528 952 460 1475 1084 656 1651 1232 1223 1825 1344 658 1331 849 554 1562 1175 658 1621 1242 1176 1735 1390 1549 1410 1020 655 1550 1148 1192 1510 1140 1280 1202 1305 464 1694 894 1635 1283 906 1567 1525 947 463 1744 1116 657 1249 1256 464 1269 1263 1256 1500 1046 465 1621 990 464 1479 1407 461 1424 1191 656 1429 1312 465 1366 1314 657 1359 1036 652 1870 1254 659 1923 1279 1406 1448 1282 1178 1545 1061 1178 1571 777 465 1823 1160 463 1699 1166 660 1727 1071 1433 1321 1157 1048 1545 1493 845

Tree=0
num_leaves=7
num_cat=6
split_feature=4 3 8 6 1 1
split_gain=1765.51 200.834 13.6219 0.150388 0.0922517 0.0440168
threshold=0 1 2 3 4 5
decision_type=1 9 9 9 9 9
left_child=1 -1 -3 5 -5 -4
right_child=-2 2 3 4 -6 -7
leaf_value=-0.15659894253672071 -0.64375254905407109 -0.043675955493264418 0.0079665978142119988 0.0047882358154032016 0.007692939209992828 0.0097105494647359882
leaf_weight=10.99449025839567 11.171250551939009 11.383362904191015 143.35259806364775 60.94694921374321 49.563586309552193 48.396968372166157
leaf_count=311 316 322 4055 1724 1402 1369
internal_value=-0.0244478 -0.00445908 0.00417488 0.00653505 0.00609099 0.00840677
internal_weight=0 324.638 313.643 302.26 110.511 191.75
internal_count=9499 9183 8872 8550 3126 5424
cat_boundaries=0 1 16 26 27 28 29
cat_threshold=1 0 16777220 0 0 128 33024 8388608 4194304 4194305 0 0 0 1073741824 0 4 16 557056 32768 32 0 0 0 0 0 34734080 8 8 8
is_linear=0
shrinkage=1


Tree=1
num_leaves=5
num_cat=4
split_feature=7 8 0 6
split_gain=205.753 12.9629 4.41185 0.0286867
threshold=0 1 2 3
decision_type=9 9 9 9
left_child=-1 2 -2 -3
right_child=1 3 -4 -5
leaf_value=-4.5193629805880695 -4.6719527361068005 -4.6921143069273326 -4.6268298764897011 -4.6938007656224876
leaf_weight=12.183618446812032 7.0965712983161211 40.879061201587319 7.5181497912853938 65.808402752503753
leaf_count=867 505 2909 535 4683
internal_value=-4.66091 -4.684 -4.64433 -4.69039
internal_weight=0 121.302 14.6147 106.687
internal_count=9499 8632 1040 7592
cat_boundaries=0 7 17 22 23
cat_threshold=1024 0 2147484672 589824 0 134348800 272 8212 33792 32776 24 0 0 0 0 16 128 33554432 16384 34 0 4232 4
is_linear=0
shrinkage=1


Tree=2
num_leaves=3
num_cat=2
split_feature=4 6
split_gain=3002.88 1.42109e-14
threshold=0 1
decision_type=1 9
left_child=1 -1
right_child=-2 -3
leaf_value=-4.2541829341509825 -3.1904098944085577 -4.2541829341509825
leaf_weight=74.269912987947464 6.8623662292957297 125.15131828933954
leaf_count=3420 316 5763
internal_value=-4.22035 -4.25418
internal_weight=0 199.421
internal_count=9499 9183
cat_boundaries=0 1 2
cat_threshold=1 4
is_linear=0
shrinkage=1


Tree=3
num_leaves=6
num_cat=5
split_feature=3 7 8 3 6
split_gain=304.116 72.2472 17.6295 6.62846 0.658048
threshold=0 1 2 3 4
decision_type=9 9 9 9 9
left_child=-1 -2 -3 -4 -5
right_child=1 2 3 4 -6
leaf_value=-0.12141627119649123 -0.065152021455975123 -0.018206509915618136 -0.011165899059975334 0.027515460582532705 0.032571562935073871
leaf_weight=34.738251447677612 15.457932807505129 19.349299501627684 10.714032609015701 108.78625713288784 157.55308647826314
leaf_count=720 328 520 285 2957 4649
internal_value=0 0.017712 0.0240188 0.0274993 0.0294025
internal_weight=0 311.861 296.403 277.053 266.339
internal_count=9459 8739 8411 7891 7606
cat_boundaries=0 16 23 33 51 52
cat_threshold=0 4 131072 0 0 0 0 0 4194305 0 0 256 1073741824 0 33554436 1073741824 1048576 512 2147483680 67633152 0 164352 272 1056784 35840 2048 24 8192 0 0 0 0 34603008 0 25165824 32784 2097152 128 256 262144 71319552 0 8388608 0 8388608 0 4 0 8388608 0 8 4
is_linear=0
shrinkage=0.05


Tree=4
num_leaves=4
num_cat=3
split_feature=3 8 1
split_gain=223.379 38.4504 0.108937
threshold=0 1 2
decision_type=9 9 9
left_child=-1 -2 -3
right_child=1 2 -4
leaf_value=0.16842562980795092 0.052898301522375936 -0.030417475039438698 -0.033653750514210656
leaf_weight=7.7455011550337076 7.7514408947899938 77.302851137705147 39.183672887273133
leaf_count=467 535 5620 2837
internal_value=0 -0.0203446 -0.0290152
internal_weight=0 124.238 116.487
internal_count=9459 8992 8457
cat_boundaries=0 15 25 26
cat_threshold=0 16777220 4194304 2048 32896 33024 0 4194304 4194305 0 0 8388608 1073741824 0 4 1048592 557056 32768 20971552 0 0 67108864 0 16 34734080 8
is_linear=0
shrinkage=0.05


Tree=5
num_leaves=8
num_cat=7
split_feature=3 6 0 0 6 1 1
split_gain=192.298 27.9562 21.083 6.75145 0.291462 0.217578 0.00373824
threshold=0 1 2 3 4 5 6
decision_type=9 9 9 9 9 9 9
left_child=1 -1 -2 -3 5 -4 -6
right_child=2 3 4 -5 6 -7 -8
leaf_value=0.14950197775512458 0.034776902658822814 0.072512595065041568 -0.026793899926082162 -0.0051177219702197461 -0.033169142127442174 -0.032416530246625351 -0.03387331588258298
leaf_weight=18.704296488314867 7.2413791343569756 11.897081922739744 41.001010350883007 10.380231784656644 75.205531548708677 29.647174902260303 25.150105332955718
leaf_count=506 250 394 1755 437 3632 1285 1200
internal_value=0 0.0839488 -0.0255329 0.066593 -0.0298671 -0.0291534 -0.0333456
internal_weight=0 40.9816 178.245 22.2773 171.004 70.6482 100.356
internal_count=9459 1337 8122 831 7872 3040 4832
cat_boundaries=0 17 18 23 25 26 27 28
cat_threshold=67108864 33554436 67239938 0 32768 0 262144 4194304 32768 8388608 0 65792 1073741824 0 33554436 1082134528 2 4 16448 16777216 0 2315403264 8196 0 16384 4 8 8
is_linear=0
shrinkage=0.05


Tree=6
num_leaves=7
num_cat=6
split_feature=4 7 7 1 6 6
split_gain=365.934 152.213 2.73516 0.40935 0.728143 0.0145253
threshold=0 1 2 3 4 5
decision_type=1 9 9 9 9 9
left_child=1 -1 -3 4 -4 -5
right_child=-2 2 3 5 -6 -7
leaf_value=-0.09744079987559319 -0.14189195070138397 -0.0018710867730476755 0.024623500301968464 0.034086650243813292 0.031374061913797983 0.03276593464434531
leaf_weight=16.892343141138554 40.272215649485588 14.7602581679821 57.92091666162014 45.610103629529476 128.72243105247617 38.300057720392942
leaf_count=422 312 437 1738 1413 3967 1207
internal_value=0 0.0185557 0.0278621 0.0294931 0.0292792 0.0334838
internal_weight=0 302.206 285.314 270.554 186.643 83.9102
internal_count=9496 9184 8762 8325 5705 2620
cat_boundaries=0 1 8 14 15 16 17
cat_threshold=1 1024 0 2147483648 0 0 131072 272 1610614784 16777217 1024 589824 0 134217728 8 4 4
is_linear=0
shrinkage=0.05


Tree=7
num_leaves=5
num_cat=4
split_feature=3 8 6 4
split_gain=225.998 37.0256 0.0748272 0.0255673
threshold=0 1 2 3
decision_type=9 9 9 1
left_child=-1 -2 3 -3
right_child=1 2 -4 -5
leaf_value=0.16856319270401532 0.050318572139522601 -0.029878034399225192 -0.032907767383141669 -0.033890584048399175
leaf_weight=7.9755788398906589 8.2948401151224953 39.995314312167466 68.989997449330986 4.4074290562421075
leaf_count=374 547 3089 5303 183
internal_value=0 -0.0204582 -0.0292939 -0.0302763
internal_weight=0 121.688 113.393 44.4027
internal_count=9496 9122 8575 3272
cat_boundaries=0 15 25 26 27
cat_threshold=0 16777220 4194304 2048 32768 256 0 4210688 4194305 33554432 0 0 1073741824 0 4 8272 557056 32768 20971552 0 0 67108864 0 16 34734080 4 1
is_linear=0
shrinkage=0.05


Tree=8
num_leaves=3
num_cat=2
split_feature=4 1
split_gain=509.652 3.46037e-06
threshold=0 1
decision_type=1 9
left_child=1 -1
right_child=-2 -3
leaf_value=-0.033799721547969806 0.17791656910823558 -0.033784892659226261
leaf_weight=126.77193539217114 33.626828841865063 57.043164445087314
leaf_count=6287 312 2897
internal_value=0 -0.0337951
internal_weight=0 183.815
internal_count=9496 9184
cat_boundaries=0 1 2
cat_threshold=1 8
is_linear=0
shrinkage=0.05


Tree=9
num_leaves=5
num_cat=4
split_feature=4 3 8 1
split_gain=238.589 172.54 17.8878 0.160348
threshold=0 1 2 3
decision_type=1 9 9 9
left_child=1 -1 -3 -4
right_child=-2 2 3 -5
leaf_value=-0.12690982367717915 -0.10092576702754748 -0.018263187984229871 0.030733846294185654 0.033415203575190587
leaf_weight=9.7830111999064666 49.278305694460869 17.498489271849394 180.28554541058838 80.720859298482537
leaf_count=179 305 499 5804 2676
internal_value=0 0.0181253 0.026814 0.0303984
internal_weight=0 288.288 278.505 261.006
internal_count=9463 9158 8979 8480
cat_boundaries=0 1 14 24 25
cat_threshold=1 0 4 2 0 32768 0 0 0 4194305 0 0 0 1073741824 1056848 558080 32768 20971520 0 0 0 0 0 34734080 8
is_linear=0
shrinkage=0.05


Tree=10
num_leaves=5
num_cat=4
split_feature=3 8 1 4
split_gain=190.1 31.5592 0.107702 0.0247404
threshold=0 1 2 3
decision_type=9 9 9 1
left_child=-1 -2 3 -3
right_child=1 2 -4 -5
leaf_value=0.15013845402508705 0.042220610366027402 -0.029994714224817684 -0.033630097350637669 -0.033957232784987156
leaf_weight=8.9538501119241101 10.245238128118215 69.006403934210539 33.896781121380627 4.1776423752307883
leaf_count=348 671 5573 2715 156
internal_value=0 -0.0196101 -0.0286267 -0.0302209
internal_weight=0 117.326 107.081 73.184
internal_count=9463 9115 8444 5729
cat_boundaries=0 13 23 24 25
cat_threshold=0 16777220 2 2048 32768 33024 0 4194304 4194305 0 0 0 1073741824 1048656 557056 33792 20971552 0 0 67108864 0 16 34734080 8 1
is_linear=0
shrinkage=0.05


Tree=11
num_leaves=3
num_cat=2
split_feature=4 1
split_gain=339.779 6.14265e-06
threshold=0 1
decision_type=1 9
left_child=1 -1
right_child=-2 -3
leaf_value=-0.033778107674077608 0.12396366709741553 -0.033757692422124411
leaf_weight=120.71932463534176 42.490093231201172 53.031993178650737
leaf_count=6295 305 2863
internal_value=0 -0.0337719
internal_weight=0 173.751
internal_count=9463 9158
cat_boundaries=0 1 2
cat_threshold=1 8
is_linear=0
shrinkage=0.05


Tree=12
num_leaves=6
num_cat=5
split_feature=7 6 4 8 6
split_gain=204.037 135.351 28.7962 6.5288 0.469353
threshold=0 1 2 3 4
decision_type=9 9 1 9 9
left_child=1 -1 4 -3 -2
right_child=2 3 -4 -5 -6
leaf_value=-0.15291318429793319 0.032095972468177046 -0.035841940626069019 -0.022517730429889624 0.00065788128252090936 0.027424034962401107
leaf_weight=31.499414680525661 131.62169370427728 17.152213590219617 29.332172080874443 31.040993120521307 90.874131802469492
leaf_count=383 4633 279 163 840 3096
internal_value=0 -0.0642513 0.0231303 -0.0196332 0.0301878
internal_weight=0 79.6926 251.828 48.1932 222.496
internal_count=9394 1502 7892 1119 7729
cat_boundaries=0 7 8 9 19 20
cat_threshold=17827400 402653696 2147484704 67698688 67108864 537037312 272 4 1 4 536871168 268468224 0 4096 8 256 0 2048 33685506 8
is_linear=0
shrinkage=0.05


Tree=13
num_leaves=6
num_cat=5
split_feature=7 3 7 4 6
split_gain=150.935 14.319 1.57539 0.0163003 0.0123286
threshold=0 1 2 3 4
decision_type=9 9 9 1 9
left_child=-1 -2 -3 4 -4
right_child=1 2 3 -5 -6
leaf_value=0.12649343705615787 0.029341745143452183 0.0077461565932121128 -0.030729730685112006 -0.034079187986388891 -0.031916170725827114
leaf_weight=10.18674620054662 6.434508902952075 5.3700693463906646 34.710587132722139 6.4357408937066785 59.308175513520837
leaf_count=433 330 366 2946 214 5105
internal_value=0 -0.021083 -0.0264176 -0.0287798 -0.0314782
internal_weight=0 112.259 105.825 100.455 94.0188
internal_count=9394 8961 8631 8265 8051
cat_boundaries=0 7 22 28 29 30
cat_threshold=1024 0 2147483648 0 0 0 272 0 0 4194306 0 32896 256 2 0 257 0 0 8388608 0 0 4 2048 0 1024 0 0 134348800 1 4
is_linear=0
shrinkage=0.05


Tree=14
num_leaves=3
num_cat=2
split_feature=4 6
split_gain=286.231 5.61449e-06
threshold=0 1
decision_type=1 9
left_child=1 -1
right_child=-2 -3
leaf_value=-0.033742558594674246 0.10143157146378497 -0.033761688359263756
leaf_weight=101.10031498782337 51.549447625875473 61.802822958678007
leaf_count=5697 311 3386
internal_value=0 -0.0337498
internal_weight=0 162.903
internal_count=9394 9083
cat_boundaries=0 1 2
cat_threshold=1 8
is_linear=0
shrinkage=0.05


Tree=15
num_leaves=7
num_cat=6
split_feature=3 6 0 3 4 1
split_gain=166.228 47.4449 31.8799 7.69663 2.97871 0.227391
threshold=0 1 2 3 4 5
decision_type=9 9 9 9 1 9
left_child=1 -1 -2 -4 5 -5
right_child=2 -3 3 4 -6 -7
leaf_value=-0.112436573831242 -0.02935791990619871 -0.029839657740030414 -0.015207084935903732 0.029695807315804068 0.011389959048253129 0.033222438571995201
leaf_weight=34.809490893036127 22.795847203582525 34.734905013814569 8.9106582645326835 140.55397874489427 21.732512950897217 67.735635684803128
leaf_count=405 439 669 241 5182 117 2512
internal_value=0 -0.0622336 0.0199513 0.0256461 0.0277964 0.0308427
internal_weight=0 69.5444 261.729 238.933 230.022 208.29
internal_count=9565 1074 8491 8052 7811 7694
cat_boundaries=0 17 18 23 40 41 42
cat_threshold=67108864 16777220 67248128 0 32896 0 0 4194304 4194305 0 0 65792 1073741824 0 33554436 1082130432 2 4 67125248 16777216 2155872768 2181185536 3153926 0 0 12582914 524288 0 256 8388608 16448 32768 41943040 16384 0 0 0 0 0 8192 1 8
is_linear=0
shrinkage=0.05


Tree=16
num_leaves=6
num_cat=5
split_feature=3 8 6 1 1
split_gain=150.861 21.2272 0.0621248 0.0823818 2.10228e-06
threshold=0 1 2 3 4
decision_type=9 9 9 9 9
left_child=-1 -2 3 -3 -4
right_child=1 2 4 -5 -6
leaf_value=0.1147647591847383 0.031879480842258147 -0.028947635176472308 -0.033583918206333864 -0.033631836311128836 -0.03360580855843847
leaf_weight=14.448500817641614 9.6204893626272661 21.278963154181838 14.505297109484673 16.794845646247268 44.975420103408396
leaf_count=492 603 1742 1334 1440 3954
internal_value=0 -0.0217957 -0.0295608 -0.0310139 -0.0336005
internal_weight=0 107.175 97.5545 38.0738 59.4807
internal_count=9565 9073 8470 3182 5288
cat_boundaries=0 15 25 26 27 28
cat_threshold=0 16777220 2 2048 32896 33024 8388608 4210688 4194305 33554432 0 8388608 1073741824 0 4 64 557056 32768 20971568 0 0 67108864 0 16 34734080 4 8 4
is_linear=0
shrinkage=0.05


Tree=17
num_leaves=5
num_cat=4
split_feature=4 6 1 1
split_gain=218.884 1.37599e-05 1.75646e-05 3.75579e-06
threshold=0 1 2 3
decision_type=1 9 9 9
left_child=1 3 -3 -1
right_child=-2 2 -4 -5
leaf_value=-0.033727262073478592 0.0802987730406126 -0.033774529377648119 -0.033719630570402434 -0.033704342788895392
leaf_weight=74.117858598008752 57.362757667899132 35.676609655842185 24.626948600634933 23.555485410615802
leaf_count=4368 309 1971 1470 1447
internal_value=0 -0.0337333 -0.0337521 -0.0337217
internal_weight=0 157.977 60.3036 97.6733
internal_count=9565 9256 3441 5815
cat_boundaries=0 1 2 3 4
cat_threshold=1 8 8 8
is_linear=0
shrinkage=0.05


Tree=18
num_leaves=9
num_cat=8
split_feature=7 6 4 3 8 8 4 6
split_gain=171.139 66.2036 65.8394 23.375 8.65791 2.3931 1.14938 0.0134276
threshold=0 1 2 3 4 5 6 7
decision_type=9 9 1 9 9 9 1 9
left_child=1 -1 5 -2 -5 -3 7 -6
right_child=3 2 -4 4 6 -7 -8 -9
leaf_value=-0.10807379570820308 -0.025267926473540755 0.020449583892577897 -0.11548915013851482 -0.01638178045659491 0.032569140407864634 -0.0025383709258353462 0.02165080652999005 0.033446844497538764
leaf_weight=40.382271679118276 17.530216637998819 14.682344853878019 14.075288489460943 8.5163207221776229 73.085678024217486 23.822910180315375 24.978559285402298 107.92047102190554
leaf_count=418 316 395 63 274 2829 699 126 4327
internal_value=0 -0.0541061 -0.0229487 0.0228556 0.0277389 0.0108787 0.0302371 0.0330924
internal_weight=0 92.9628 52.5805 232.031 214.501 38.5053 205.985 181.006
internal_count=9447 1575 1157 7872 7556 1094 7282 7156
cat_boundaries=0 7 8 9 25 34 44 45 46
cat_threshold=17827400 402686464 2164261920 336134144 67108864 537037312 276 4 1 0 0 4194306 0 128 256 0 4210688 32769 0 16384 8388864 1073741824 0 4 8388608 38019120 35328 0 41943040 0 0 67108864 131072 562036736 12 671154177 65544 0 0 0 256 134217728 2080 8192 1 4
is_linear=0
shrinkage=0.05


Tree=19
num_leaves=4
num_cat=3
split_feature=3 8 6
split_gain=139.473 22.2966 0.0913564
threshold=0 1 2
decision_type=9 9 9
left_child=-1 -2 -3
right_child=1 2 -4
leaf_value=0.10649651067587801 0.035269593761098686 -0.029504420560807206 -0.032714323583154924
leaf_weight=16.924698480404913 8.6547495787963253 36.307957967743278 56.911533869802952
leaf_count=475 526 3160 5286
internal_value=0 -0.0203364 -0.0284158
internal_weight=0 101.874 93.2195
internal_count=9447 8972 8446
cat_boundaries=0 15 25 26
cat_threshold=0 16777220 4194306 2048 32896 33024 8388608 0 4194305 33554432 0 8388608 1073741824 0 4 80 557056 32776 20971552 0 0 67108864 0 0 34734080 4
is_linear=0
shrinkage=0.05


Tree=20
num_leaves=5
num_cat=4
split_feature=4 6 1 1
split_gain=193.331 2.79549e-05 3.25249e-05 4.54346e-06
threshold=0 1 2 3
decision_type=1 9 9 9
left_child=1 3 -3 -1
right_child=-2 2 -4 -5
leaf_value=-0.033710769209720368 0.070549174613035115 -0.033779778030396349 -0.033703027425821347 -0.033684595170508022
leaf_weight=69.721747986041009 63.363334119319916 34.464472206309438 23.025884283706546 21.752921311184764
leaf_count=4312 315 1958 1450 1412
internal_value=0 -0.0337217 -0.033749 -0.0337045
internal_weight=0 148.965 57.4904 91.4747
internal_count=9447 9132 3408 5724
cat_boundaries=0 1 2 3 4
cat_threshold=1 8 8 8
is_linear=0
shrinkage=0.05


Tree=21
num_leaves=8
num_cat=7
split_feature=7 6 3 4 1 6 6
split_gain=143.446 47.0355 19.4214 3.76915 0.330413 0.69289 6.88711e-07
threshold=0 1 2 3 4 5 6
decision_type=9 9 9 1 9 9 9
left_child=1 -1 -2 4 5 -4 -6
right_child=2 -3 3 -5 6 -7 -8
leaf_value=-0.093545597724216181 -0.021410670829179981 -0.02133119201948774 0.023990591947229689 0.011027245441997806 0.033878636034381335 0.032021123746231499 0.033889367102074963
leaf_weight=41.466702429577708 18.276567831635475 49.424120904877782 40.276263326406479 27.639110326766968 28.226795384660363 80.64032438211143 31.791874550282955
leaf_count=400 295 1111 1614 135 1196 3411 1330
internal_value=0 -0.0488974 0.0222988 0.0269333 0.0308516 0.0293462 0.0338843
internal_weight=0 90.8908 226.851 208.574 180.935 120.917 60.0187
internal_count=9492 1511 7981 7686 7551 5025 2526
cat_boundaries=0 7 8 24 25 26 27 28
cat_threshold=17828936 402653696 2164261920 67698688 0 537035264 272 4 0 0 12713986 0 32896 256 0 4194304 32769 0 0 8388608 1073741824 0 4 8388608 1 8 4 8
is_linear=0
shrinkage=0.05


Tree=22
num_leaves=6
num_cat=5
split_feature=3 8 6 1 1
split_gain=114.937 30.4484 0.179571 0.314208 0.00574808
threshold=0 1 2 3 4
decision_type=9 9 9 9 9
left_child=-1 -2 3 -3 -4
right_child=1 2 4 -5 -6
leaf_value=0.096856143910036885 0.04545641113399361 -0.02423894924406186 -0.032403411962096305 -0.033623293498125498 -0.033581492394539218
leaf_weight=16.96185206156224 8.1477141594514233 21.205022236332297 42.030557437799871 15.395771393552421 13.73856008145958
leaf_count=384 492 1785 4022 1438 1371
internal_value=0 -0.0183682 -0.0278885 -0.0281864 -0.0326936
internal_weight=0 100.518 92.3699 36.6008 55.7691
internal_count=9492 9108 8616 3223 5393
cat_boundaries=0 16 26 27 28 29
cat_threshold=0 16777220 2 2048 32896 256 8388608 0 4194305 33554432 0 8388608 1073741824 0 0 2048 8272 557056 32768 20971552 0 0 67108864 0 16 34603008 4 8 8
is_linear=0
shrinkage=0.05


Tree=23
num_leaves=3
num_cat=2
split_feature=4 6
split_gain=157 5.07259e-05
threshold=0 1
decision_type=1 9
left_child=1 -1
right_child=-2 -3
leaf_value=-0.03374578203154583 0.06049595189821564 -0.033684507107252452
leaf_weight=54.931097724474967 64.107297167181969 87.700508327223361
leaf_count=3385 295 5812
internal_value=0 -0.0337081
internal_weight=0 142.632
internal_count=9492 9197
cat_boundaries=0 1 2
cat_threshold=1 4
is_linear=0
shrinkage=0.05


Tree=24
num_leaves=7
num_cat=6
split_feature=7 6 4 1 6 6
split_gain=127.261 46.1177 18.108 0.836916 1.1112 2.20482e-06
threshold=0 1 2 3 4 5
decision_type=9 9 1 9 9 9
left_child=1 -1 3 4 -2 -5
right_child=2 -3 -4 5 -6 -7
leaf_value=-0.016879024834417427 0.020227147535162165 -0.087578678183146338 -0.0078575057376852539 0.03386044887113298 0.030138190549719775 0.03387980295039026
leaf_weight=48.64826244674623 43.658364934846759 43.863392505794764 40.775571435689926 27.173666739836335 80.292345682159066 32.096332566812634
leaf_count=1087 1734 376 183 1211 3524 1401
internal_value=0 -0.0454839 0.0213255 0.0289841 0.0266473 0.0338709
internal_weight=0 92.5117 223.996 183.221 123.951 59.27
internal_count=9516 1463 8053 7870 5258 2612
cat_boundaries=0 7 8 9 10 11 12
cat_threshold=16778312 134218240 2147484704 67698688 0 537036800 276 8 1 8 4 8
is_linear=0
shrinkage=0.05


Tree=25
num_leaves=5
num_cat=4
split_feature=3 7 6 4
split_gain=108.94 8.55053 0.183995 0.178517
threshold=0 1 2 3
decision_type=9 9 9 1
left_child=-1 -2 3 -3
right_child=1 2 -4 -5
leaf_value=0.088473659024011109 0.02107278909281815 -0.023876771787245493 -0.029909518562929269 -0.03402467115559598
leaf_weight=19.173889460042119 6.1866865875199437 30.902205495163798 54.432730421423912 5.0407053064554921
leaf_count=402 415 3057 5461 181
internal_value=0 -0.0206106 -0.0252791 -0.0252999
internal_weight=0 96.5623 90.3756 35.9429
internal_count=9516 9114 8699 3238
cat_boundaries=0 16 23 24 25
cat_threshold=0 16777220 0 0 32768 256 8388608 4210688 4194305 33554432 0 8388608 1073741824 0 4 2048 8 0 2151677952 0 0 134348800 272 4 1
is_linear=0
shrinkage=0.05


Tree=26
num_leaves=7
num_cat=6
split_feature=0 3 6 1 6 6
split_gain=88.9803 18.1078 6.82479 0.20706 0.262585 0.0167524
threshold=0 1 2 3 4 5
decision_type=9 9 9 9 9 9
left_child=2 -2 -1 4 -3 -5
right_child=1 3 -4 5 -6 -7
leaf_value=0.069820290870415955 0.01934407951063731 -0.027513330003524756 0.035228540176451405 -0.033634260799652191 -0.033059562055553285 -0.035705428985392133
leaf_weight=29.604196158237755 17.58672852255404 35.688587419688702 27.508068388327956 14.583667537197471 53.084028289653361 29.535767328925431
leaf_count=327 476 1680 901 1101 3616 1415
internal_value=0 -0.023357 0.0452383 -0.0299663 -0.0308299 -0.0350208
internal_weight=0 150.479 57.1123 132.892 88.7726 44.1194
internal_count=9516 8288 1228 7812 5296 2516
cat_boundaries=0 5 21 22 23 24 25
cat_threshold=67191808 1090536448 8388608 2315403264 17309702 0 0 131072 0 0 0 2 4194304 4195328 8388608 8192 256 1073741824 0 4 4096 4 8 4 8
is_linear=0
shrinkage=0.05


Tree=27
num_leaves=9
num_cat=8
split_feature=3 8 6 3 7 1 4 4
split_gain=126.734 37.818 21.7611 13.4621 10.5629 0.269831 0.193508 0.186998
threshold=0 1 2 3 4 5 6 7
decision_type=9 9 9 9 9 9 1 1
left_child=2 3 -1 -2 -3 7 -7 -6
right_child=1 4 -4 -5 5 6 -8 -9
leaf_value=-0.086159639135825042 0.014856370802065864 -0.01614441895427297 -0.031224955819302555 -0.052876041677448804 0.030918603370294798 0.032891115312663498 0.039971424970791813 0.024986444087794851
leaf_weight=37.593965442851186 10.355987353250383 11.180713981389998 34.635950041934848 16.701100952923301 114.98848456144333 52.502807684242725 11.823281019926069 15.019975304603575
leaf_count=311 419 172 680 364 4903 2438 58 67
internal_value=0 0.0192877 -0.0525428 -0.0299385 0.026857 0.0300001 0.0341925 0.0302333
internal_weight=0 232.572 72.2299 27.0571 205.515 194.335 64.3261 130.008
internal_count=9412 8421 991 783 7638 7466 2496 4970
cat_boundaries=0 17 27 28 44 51 52 53 54
cat_threshold=67108864 0 8527874 32768 32896 0 262144 4194304 4227073 33554432 0 256 1073741824 0 33554436 1082134528 2 33956240 558088 0 20971560 268443648 0 67108864 0 268435520 38928384 4 142606336 2064 0 0 0 0 0 0 0 0 0 0 0 0 0 32768 16777792 129 16777216 67633152 0 536906240 256 8 1 1
is_linear=0
shrinkage=0.05


Tree=28
num_leaves=6
num_cat=5
split_feature=7 8 6 1 1
split_gain=105.894 17.0912 0.793915 0.537542 0.00712856
threshold=0 1 2 3 4
decision_type=9 9 9 9 9
left_child=-1 -2 3 -3 -4
right_child=1 2 4 -5 -6
leaf_value=0.090005192425486547 0.031207252417629755 -0.017910387618556383 -0.032219846077711299 -0.03025669349431034 -0.033590145247193753
leaf_weight=19.203405567444861 8.2694397578015906 22.025307055562735 35.983911659568548 14.700274706818162 12.891090939752756
leaf_count=569 563 1723 3753 1435 1369
internal_value=0 -0.0179218 -0.0254358 -0.0228523 -0.0325813
internal_weight=0 93.87 85.6006 36.7256 48.875
internal_count=9412 8843 8280 3158 5122
cat_boundaries=0 7 17 18 19 20
cat_threshold=1024 0 2147483648 0 0 134348800 272 1056784 33792 8 131144 0 0 0 0 16 1048704 4 8 8
is_linear=0
shrinkage=0.05


Tree=29
num_leaves=5
num_cat=4
split_feature=4 6 1 1
split_gain=121.789 0.000137685 8.84268e-05 5.13938e-06
threshold=0 1 2 3
decision_type=1 9 9 9
left_child=1 2 -1 -3
right_child=-2 3 -4 -5
leaf_value=-0.033818422593507508 0.049007956727930735 -0.033668422044844139 -0.033684078168207399 -0.033638725551925999
leaf_weight=31.474142248742282 67.332391038537025 60.582206952385604 20.052052227780223 19.182537343353033
leaf_count=1912 288 4326 1440 1446
internal_value=0 -0.0337024 -0.0337661 -0.0336613
internal_weight=0 131.291 51.5262 79.7647
internal_count=9412 9124 3352 5772
cat_boundaries=0 1 2 3 4
cat_threshold=1 4 8 8
is_linear=0
shrinkage=0.05


Tree=30
num_leaves=9
num_cat=8
split_feature=7 8 8 6 4 6 4 6
split_gain=94.519 31.3177 23.8721 25.9456 13.2683 13.9707 0.778286 0.00144494
threshold=0 1 2 3 4 5 6 7
decision_type=9 9 9 9 1 9 1 9
left_child=1 -1 3 -2 5 -3 7 -4
right_child=2 4 6 -5 -6 -7 -8 -9
leaf_value=-0.065197405873940711 -0.071229880291198228 0.02466094918350081 0.031895579673327956 0.019656550586946712 -0.040335552836242655 -0.037168015677637688 0.022821705119914014 0.032221697316643226
leaf_weight=44.068725926801562 14.351763378828764 30.956303877756 78.323233406990767 17.33982914686203 23.19412325322628 12.961879478767512 27.461406335234642 59.974210072308779
leaf_count=484 256 894 3906 763 82 179 126 2738
internal_value=0 -0.034486 0.0210938 -0.0163446 -0.00847988 0.00641294 0.0287744 0.032037
internal_weight=0 111.181 197.45 31.6916 67.1123 43.9182 165.759 138.297
internal_count=9428 1639 7789 1019 1155 1073 6770 6644
cat_boundaries=0 7 17 27 28 29 30 31 32
cat_threshold=17829448 134218240 2147484704 336134144 67108864 537036864 276 2147483650 1048840 35840 48 1048576 33554440 67109120 2147483648 4197632 33685505 34873360 169473 32768 64 8192 0 2214592772 0 805371920 33554432 4 1 8 1 8
is_linear=0
shrinkage=0.05


Tree=31
num_leaves=5
num_cat=4
split_feature=7 3 1 4
split_gain=82.8053 13.961 0.363132 0.121661
threshold=0 1 2 3
decision_type=9 9 9 1
left_child=-1 -2 3 -3
right_child=1 2 -4 -5
leaf_value=0.075284198007441405 0.0256620038355246 -0.025903467593480764 -0.033614328556441857 -0.034356014506160472
leaf_weight=20.304179863072932 9.0859534554183465 51.978730658069253 27.323229616973549 4.6369089130312195
leaf_count=477 374 5515 2921 141
internal_value=0 -0.0187761 -0.025806 -0.0265957
internal_weight=0 93.0248 83.9389 56.6156
internal_count=9428 8951 8577 5656
cat_boundaries=0 7 22 23 24
cat_threshold=3072 0 2147483648 0 0 131072 272 0 0 4194306 0 32768 33024 2 4210688 257 33554432 0 536870912 0 0 4 8 1
is_linear=0
shrinkage=0.05


Tree=32
num_leaves=3
num_cat=2
split_feature=4 6
split_gain=126.355 0.000178801
threshold=0 1
decision_type=1 9
left_child=1 -1
right_child=-2 -3
leaf_value=-0.033770815113512216 0.047438028366302759 -0.033648637892502962
leaf_weight=49.347454937174916 77.688930377364159 76.163651425391436
leaf_count=3328 318 5782
internal_value=0 -0.0336967
internal_weight=0 125.511
internal_count=9428 9110
cat_boundaries=0 1 2
cat_threshold=1 4
is_linear=0
shrinkage=0.05


Tree=33
num_leaves=11
num_cat=10
split_feature=3 8 8 6 6 7 7 1 6 6
split_gain=97.155 30.0058 24.0382 17.4303 15.2322 5.40348 3.72129 0.269717 0.0224528 0.00319893
threshold=0 1 2 3 4 5 6 7 8 9
decision_type=9 9 9 9 9 9 9 9 9 9
left_child=1 -1 4 -3 -2 -4 -6 9 -9 -7
right_child=2 3 5 -5 6 7 -8 8 -10 -11
leaf_value=0.01216226665020197 -0.064853567801300069 -0.032659133767465376 -0.011824749940419918 -0.082555842540084412 0.017657443353236376 0.030441187993107612 -0.014441416755960912 0.033787287564700653 0.035881380366471684 0.030997308614244379
leaf_weight=23.422974387183785 12.812409915030003 30.012979611754417 8.0276552420109493 41.989188367500901 10.723857268691061 42.476097164675593 7.2579555772244957 20.558642972260714 33.918727457523346 66.098058355972171
leaf_count=376 227 540 126 343 491 1512 254 1071 1257 3255
internal_value=0 -0.0383225 0.0204186 -0.054226 -0.0175081 0.0278352 0.00648995 0.0303583 0.0350911 0.0307797
internal_weight=0 95.4251 201.873 72.0022 30.7942 171.079 17.9818 163.052 54.4774 108.574
internal_count=9452 1259 8193 883 972 7221 745 7095 2328 4767
cat_boundaries=0 17 27 37 38 39 46 52 53 54 55
cat_threshold=67108864 16777220 75636738 33024 32896 33024 262144 4194304 4227073 33554432 8192 8454400 1073741824 0 33554436 8388608 2 4 1073741824 0 48 1048576 0 0 0 0 16384 33816656 557064 32768 20971568 8192 0 67109120 0 536870912 34734081 8 4 64 0 16777216 67633152 0 34816 4 134217729 0 65552 0 0 524288 8 8 4
is_linear=0
shrinkage=0.05


Tree=34
num_leaves=7
num_cat=6
split_feature=3 8 3 1 6 6
split_gain=76.5614 19.0217 0.232365 0.0239054 0.00896317 1.79873e-05
threshold=0 1 2 3 4 5
decision_type=9 9 9 9 9 9
left_child=-1 2 -2 4 -3 -5
right_child=1 3 -4 5 -6 -7
leaf_value=0.066095372434330682 -0.010372802110555529 -0.030704134172167635 0.050661605158816826 -0.033520491215042768 -0.032110079763871792 -0.033608338983556425
leaf_weight=26.458376018330455 4.4458456011489034 16.931635099463165 4.6569703947752696 10.518221685662866 34.302390275057405 13.064748904667795
leaf_count=513 322 1642 295 1334 3914 1432
internal_value=0 -0.0193812 0.0310269 -0.0284493 -0.0316454 -0.0335692
internal_weight=0 83.9198 9.10282 74.817 51.234 23.583
internal_count=9452 8939 617 8322 5556 2766
cat_boundaries=0 16 26 42 43 44 45
cat_threshold=0 16777220 4194304 2048 32896 33024 0 4210688 4194305 33554432 0 8388608 1073741824 0 4 2048 80 557056 32768 20971560 0 0 67108864 0 16 34603008 134217728 1048592 131072 0 0 0 0 0 0 0 0 0 0 0 0 32768 8 4 8
is_linear=0
shrinkage=0.05


Tree=35
num_leaves=8
num_cat=7
split_feature=0 8 6 6 6 1 1
split_gain=67.7279 17.1557 17.6472 2.54434 0.0559299 0.218763 0.0645238
threshold=0 1 2 3 4 5 6
decision_type=9 9 9 9 9 9 9
left_child=3 2 -2 -1 5 -3 -6
right_child=1 4 -4 -5 6 -7 -8
leaf_value=0.052929433152546029 -0.027948593717260991 -0.033798923667148574 0.070740619301246588 0.031982756187922415 -0.032850751375690733 -0.026392876597852607 -0.036077436602724597
leaf_weight=31.735244244337082 8.1133711263537407 40.095155224204063 10.255584685131907 26.689359636045992 38.616038279607892 13.27147287968546 25.874783521518111
leaf_count=277 620 3303 238 789 1757 1116 1352
internal_value=0 -0.0233116 0.0175801 0.0370236 -0.0305614 -0.0319572 -0.0341454
internal_weight=0 136.226 18.369 58.4246 117.857 53.3666 64.4908
internal_count=9452 8386 858 1066 7528 4419 3109
cat_boundaries=0 5 15 16 17 18 19 20
cat_threshold=75711488 16794624 2147483648 2315405312 18358274 34865152 67244032 33024 0 0 0 2147483908 0 536871936 33554432 8 4 8 8 8
is_linear=0
shrinkage=0.05


Tree=36
num_leaves=11
num_cat=10
split_feature=0 3 4 3 6 1 6 4 4 6
split_gain=106.121 28.0201 23.6956 40.1486 24.7338 0.461741 0.893271 0.128403 0.00814609 4.51082e-07
threshold=0 1 2 3 4 5 6 7 8 9
decision_type=9 9 1 9 9 9 9 1 1 9
left_child=2 -2 3 -1 -5 6 7 -3 9 -7
right_child=1 5 -4 4 -6 8 -8 -9 -10 -11
leaf_value=0.024146876398565619 -0.0318759462762742 0.024925125524390301 -0.063251674362260715 -0.016222737366224926 -0.10015047705622565 0.033770781547516691 0.032365376666707579 0.019116403170889411 0.035277398053501205 0.033780837899336329
leaf_weight=28.780315440148115 14.887392751872538 33.526219306513667 55.289887174963951 16.702593583613634 18.50342127121985 19.771902352571487 63.997178565710783 13.283244624733923 11.290593445301054 25.574713733047247
leaf_count=823 197 1618 175 459 180 1106 3422 59 57 1379
internal_value=0 0.0223443 -0.036239 -0.0185612 -0.0469869 0.0286897 0.028526 0.0232768 0.0340757 0.0337765
internal_weight=0 182.331 119.276 63.9863 35.206 167.444 110.807 46.8095 56.6372 45.3466
internal_count=9475 7838 1637 1462 639 7641 5099 1677 2542 2485
cat_boundaries=0 5 20 21 36 37 38 39 40 41 42
cat_threshold=75515584 1090536448 2155872768 2583691264 20455430 0 0 8421376 0 128 0 16 4194304 4228097 8388608 262144 536871168 1073741824 0 4 1 134217728 16 67239936 0 0 0 0 0 0 0 0 0 0 0 536870912 8 8 4 1 1 8
is_linear=0
shrinkage=0.05


Tree=37
num_leaves=7
num_cat=6
split_feature=7 8 1 6 1 1
split_gain=87.7148 17.3679 9.20397 0.0139333 0.0149339 3.63448e-07
threshold=0 1 2 3 4 5
decision_type=9 9 9 9 9 9
left_child=-1 2 -2 4 -3 -5
right_child=1 3 -4 5 -6 -7
leaf_value=0.075160611577802711 0.063574604904739526 -0.031351433178979406 -0.016053492864741715 -0.033566590428186209 -0.033630586995003674 -0.033577704611340457
leaf_weight=23.826261980459094 10.243954474572092 20.050122515764087 5.6198045178316507 9.6797574148513377 11.203364629764112 30.637548034545034
leaf_count=495 588 1720 443 1239 1305 3685
internal_value=0 -0.0184533 0.021692 -0.02892 -0.0321684 -0.033575
internal_weight=0 87.4346 15.8638 71.5708 31.2535 40.3173
internal_count=9475 8980 1031 7949 3025 4924
cat_boundaries=0 7 17 18 19 20 21
cat_threshold=3072 0 2147483648 524288 0 131072 276 1056852 33792 32768 131136 0 268435456 67108864 0 48 1048704 8 4 8 4
is_linear=0
shrinkage=0.05


Tree=38
num_leaves=8
num_cat=7
split_feature=0 3 1 1 6 6 6
split_gain=70.7562 15.6245 1.12389 0.0678987 0.0808462 0.0329805 0.0155213
threshold=0 1 2 3 4 5 6
decision_type=9 9 9 9 9 9 9
left_child=2 -2 5 4 -3 -1 -5
right_child=1 3 -4 6 -6 -7 -8
leaf_value=0.047452478159100864 0.014918771638948293 -0.030553495036507502 0.032511743669792301 -0.033570594733298369 -0.033893190993001886 0.044758151890571883 -0.035798673228714883
leaf_weight=21.045511960051954 20.046111295931041 31.884879130870104 23.32991136610508 11.422169937752187 41.979236460290849 24.67395634483546 24.760414193384349
leaf_count=189 492 1647 491 1094 3625 549 1388
internal_value=0 -0.0229747 0.0361991 -0.0305451 -0.0324515 0.0459984 -0.0350953
internal_weight=0 130.093 69.0494 110.047 73.8641 45.7195 36.1826
internal_count=9475 8246 1229 7754 5272 738 2482
cat_boundaries=0 5 21 22 23 24 25 26
cat_threshold=75514944 1090536448 2155872256 2315272192 18358278 0 0 8519680 0 0 0 18 4194304 4228096 8388608 8192 256 1073741824 0 4 4096 8 8 4 4 8
is_linear=0
shrinkage=0.05


Tree=39
num_leaves=11
num_cat=10
split_feature=7 8 8 4 6 8 4 1 6 6
split_gain=81.604 29.2042 19.9583 20.2649 17.0671 6.01887 1.93948 0.24326 0.357556 7.13651e-07
threshold=0 1 2 3 4 5 6 7 8 9
decision_type=9 9 9 1 9 9 1 9 9 9
left_child=1 -1 3 5 -3 -2 7 8 -4 -9
right_child=2 4 6 -5 -6 -7 -8 9 -10 -11
leaf_value=0.015386884316730612 -0.019397710383014188 -0.025967588970720986 0.024977312431391188 -0.074172617362744345 -0.069095856382543536 0.020354956960714585 0.015790669017878827 0.033739878498127172 0.0316890001190673 0.033753489280364868
leaf_weight=23.548237726092339 6.6511596357449889 39.731798080727458 33.556638257578015 11.166805058717726 54.274132564663887 15.141958061605694 27.555614799261093 17.590916035696864 48.558543613180518 21.282649896107614
leaf_count=291 245 879 1633 39 354 816 130 1035 2861 1241
internal_value=0 -0.0334419 0.018195 -0.014886 -0.0459768 0.00866187 0.0260112 0.0304888 0.0289462 0.0337473
internal_weight=0 117.554 181.504 32.9599 94.0059 21.7931 148.544 120.989 82.1152 38.8736
internal_count=9524 1524 8000 1100 1233 1061 6900 6770 4494 2276
cat_boundaries=0 7 16 26 27 28 37 38 39 40 41
cat_threshold=17828936 402686464 2147484704 67698688 67108864 537034752 276 524308 134283265 268435464 0 0 0 0 134217728 65536 35389456 171521 8 64 8192 268435456 67109124 0 805371920 33554432 1 8 16 33792 8 64 0 268435456 67108864 0 16 1 8 4 8
is_linear=0
shrinkage=0.05


Tree=40
num_leaves=8
num_cat=7
split_feature=7 6 1 0 6 4 6
split_gain=82.7099 29.2781 1.66472 2.50597 1.35563 0.000397187 1.42909e-06
threshold=0 1 2 3 4 5 6
decision_type=9 9 9 9 9 1 9
left_child=1 -1 3 4 -2 6 -4
right_child=2 -3 5 -5 -6 -7 -8
leaf_value=0.031026557808509832 -0.012400283473795575 0.12734300986650424 -0.033516551061472465 0.010726425568844754 -0.028836129256934375 -0.034187809927049728 -0.033544213633303892
leaf_weight=13.728543514385819 20.904549250844866 18.552742140367627 8.614090702496469 5.443415841087698 31.375689285807312 2.6276600211858776 10.194300232920796
leaf_count=575 1742 308 1239 452 3733 97 1378
internal_value=0 0.0659514 -0.0192781 -0.0172949 -0.0186893 -0.033612 -0.0335315
internal_weight=0 32.2813 79.1597 57.7237 52.2802 21.4361 18.8084
internal_count=9524 883 8641 5927 5475 2714 2617
cat_boundaries=0 7 8 9 14 15 16 17
cat_threshold=3080 0 2147484672 589824 0 134348800 276 8 8 268435457 25183264 2 10304 4258 4 1 8
is_linear=0
shrinkage=0.05


Tree=41
num_leaves=3
num_cat=2
split_feature=4 6
split_gain=111.348 0.000408204
threshold=0 1
decision_type=1 9
left_child=1 -1
right_child=-2 -3
leaf_value=-0.033622754163254637 0.042359196889020456 -0.033815523954144076
leaf_weight=66.976596691645682 83.51349250972271 46.548975318670273
leaf_count=5810 318 3396
internal_value=0 -0.0337018
internal_weight=0 113.526
internal_count=9524 9206
cat_boundaries=0 1 2
cat_threshold=1 8
is_linear=0
shrinkage=0.05


Tree=42
num_leaves=10
num_cat=9
split_feature=3 8 4 3 4 6 1 6 6
split_gain=78.1301 22.3868 20.5128 32.1867 3.7048 0.952805 0.192984 0.0110374 4.19408e-06
threshold=0 1 2 3 4 5 6 7 8
decision_type=9 9 1 9 1 9 9 9 9
left_child=2 -2 3 -1 6 -5 7 -3 -8
right_child=1 4 -4 5 -6 -7 8 -9 -10
leaf_value=-0.050209428475530532 -0.023733813154296218 0.02883543987874046 -0.059737026437218149 0.029203951049849099 0.012028646393504767 0.011945096146230023 0.033780035789728907 0.030007035209543554 0.033747874554006171
leaf_weight=21.786724884063005 20.504155389033258 29.463249422609806 48.358983591198921 20.506315195001662 32.327508091926575 13.109009318053721 21.572104294784367 63.273663028143346 19.123414372093976
leaf_count=184 625 1570 145 739 141 271 1284 3434 1124
internal_value=0 0.0192964 -0.0327824 -0.0151716 0.0256667 0.0173208 0.0308945 0.0296348 0.0337649
internal_weight=0 186.264 103.761 55.402 165.76 33.6153 133.432 92.7369 40.6955
internal_count=9517 8178 1339 1194 7553 1010 7412 5004 2408
cat_boundaries=0 17 27 28 43 44 45 46 47 48
cat_threshold=67108864 16777216 75636738 35072 32896 32768 262160 4194304 4195329 33554432 8192 65792 1073741824 0 33555460 1082134528 2 131536 559104 32768 16777232 268435456 0 0 0 5242880 34603009 1 0 0 0 0 0 32768 0 0 4194305 0 0 0 1073741824 0 4 1 8 8 4 4
is_linear=0
shrinkage=0.05


Tree=43
num_leaves=7
num_cat=6
split_feature=8 3 3 4 6 6
split_gain=63.7047 39.3717 2.9874 0.18045 0.114723 7.76812e-08
threshold=0 1 2 3 4 5
decision_type=9 9 9 1 9 9
left_child=1 5 -2 4 -4 -1
right_child=2 -3 3 -5 -6 -7
leaf_value=-0.033598351367994266 0.013918966363847993 0.089737835515407829 -0.024404779924279536 -0.034830533630795031 -0.028738795424347055 -0.033590686735840564
leaf_weight=6.828281506896019 3.193441859446466 20.641051820479333 24.84613185795024 8.4710359387099725 39.61262184381485 6.408148108981548
leaf_count=772 78 763 2378 242 4522 762
internal_value=0 0.0525324 -0.0215528 -0.0245971 -0.0270682 -0.0191369
internal_weight=0 33.8775 76.1232 72.9298 64.4588 13.2364
internal_count=9517 2297 7220 7142 6900 1534
cat_boundaries=0 10 26 43 44 45 46
cat_threshold=139600 1605888 1083392 16908360 268435457 33554432 67108864 2147483648 5511456 34603136 134217728 33556536 131072 0 0 0 33554432 0 0 8388608 16384 0 0 0 0 32768 0 0 0 0 128 0 0 16384 4194304 33554432 0 0 0 0 0 0 8192 1 4 8
is_linear=0
shrinkage=0.05


Tree=44
num_leaves=3
num_cat=2
split_feature=4 1
split_gain=97.2893 7.73833e-05
threshold=0 1
decision_type=1 9
left_child=1 -1
right_child=-2 -3
leaf_value=-0.033723153680943065 0.038708509069721106 -0.033629400060000335
leaf_weight=77.551851568743587 81.174251064658165 30.731186725199223
leaf_count=6360 304 2853
internal_value=0 -0.0336965
internal_weight=0 108.283
internal_count=9517 9213
cat_boundaries=0 1 2
cat_threshold=1 8
is_linear=0
shrinkage=0.05


Tree=45
num_leaves=10
num_cat=9
split_feature=3 8 8 3 6 0 6 1 1
split_gain=71.669 31.8748 11.0153 9.27723 8.70132 5.22927 0.146003 0.00779678 0.00350276
threshold=0 1 2 3 4 5 6 7 8
decision_type=9 9 9 9 9 9 9 9 9
left_child=2 3 -1 -2 -4 -3 8 -8 -7
right_child=1 5 4 -5 -6 6 7 -9 -10
leaf_value=0.0047629282601862732 0.013020147205802532 -0.013538672468892683 -0.02341771530602323 -0.052315266089177297 -0.055435840836866979 0.030921446558623125 0.033453076757236688 0.034589211778282052 0.030210855203252604
leaf_weight=22.569445266388357 8.5648639472201449 6.4109972128644586 35.164519495330751 12.514467506669464 53.507623627781868 39.238586890511215 56.820246869698167 20.566386280581355 31.07827153801918
leaf_count=350 437 100 767 327 389 1507 3177 1115 1324
internal_value=0 0.019472 -0.0299781 -0.0301208 -0.0384071 0.0276771 0.0302111 0.033755 0.0306074
internal_weight=0 175.194 111.242 21.0793 88.6721 154.114 147.703 77.3866 70.3169
internal_count=9493 7987 1506 764 1156 7223 7123 4292 2831
cat_boundaries=0 17 27 36 52 53 58 59 60 61
cat_threshold=0 0 79831106 35072 32768 33024 0 4210688 4228097 8388608 8192 8454400 1073741824 0 33555460 1082134528 2 464 557056 33792 4194336 268509184 0 67109120 0 5242880 34603008 1703940 525312 268435456 32 0 0 67108868 134217728 4194304 8192 2064 0 0 0 0 0 0 0 0 0 0 0 0 0 32768 8 8389888 0 32 2181169152 534530 4 8 8
is_linear=0
shrinkage=0.05


Tree=46
num_leaves=6
num_cat=5
split_feature=8 3 3 1 1
split_gain=58.2289 37.0099 3.67598 0.220887 1.87831e-05
threshold=0 1 2 3 4
decision_type=9 9 9 9 9
left_child=1 4 -2 -4 -1
right_child=2 -3 3 -5 -6
leaf_value=-0.033527306938957627 0.014130508663790176 0.08070688156231344 -0.02712947898751164 -0.033661591791360627 -0.033660028019963074
leaf_weight=3.6223615016788244 4.1871180161833763 24.634137023705989 48.64091357588768 17.633988615125418 10.095074048265813
leaf_count=517 130 933 4612 2243 1058
internal_value=0 0.0482707 -0.0212861 -0.0250828 -0.0194477
internal_weight=0 38.3516 70.462 66.2749 13.7174
internal_count=9493 2508 6985 6855 1575
cat_boundaries=0 10 26 42 43 44
cat_threshold=8528 1605888 1084416 4325496 268500993 33554432 67108864 2147483648 5507360 1048704 134217728 16779320 131072 0 0 256 33554432 0 0 8388608 0 0 0 0 0 32768 0 0 0 0 0 256 0 16384 4194304 0 0 8388608 0 0 0 2048 8 4
is_linear=0
shrinkage=0.05


Tree=47
num_leaves=5
num_cat=4
split_feature=4 6 1 1
split_gain=84.0325 0.000438595 0.000211751 6.74636e-06
threshold=0 1 2 3
decision_type=1 9 9 9
left_child=1 3 -3 -1
right_child=-2 2 -4 -5
leaf_value=-0.033606788051350117 0.033489119976952857 -0.033891483933997248 -0.033660051915109963 -0.033567032104608083
leaf_weight=45.813372359611094 85.341983124613762 27.189135039225221 15.528554301708935 13.911261552013455
leaf_count=4344 314 1947 1471 1417
internal_value=0 -0.033685 -0.0338074 -0.0335975
internal_weight=0 102.442 42.7177 59.7246
internal_count=9493 9179 3418 5761
cat_boundaries=0 1 2 3 4
cat_threshold=1 8 8 8
is_linear=0
shrinkage=0.05


Tree=48
num_leaves=9
num_cat=8
split_feature=3 0 4 3 3 1 6 4
split_gain=72.1353 23.4114 6.29721 31.9852 1.58049 1.20703 1.2265 0.00353567
threshold=0 1 2 3 4 5 6 7
decision_type=9 9 1 9 9 9 9 1
left_child=2 -2 3 -1 -3 6 -6 -7
right_child=1 4 -4 -5 5 7 -8 -9
leaf_value=0.021700184574005452 -0.023744876376484859 -0.0062125718989090011 -0.051638020832317048 -0.049089246797763976 0.028650392178375967 0.033712319698825932 0.017685506290721544 0.034790909818430187
leaf_weight=21.159658499062061 24.010078491643071 6.8642270173877478 44.75073915719986 32.369945853948593 63.430704019963741 36.429173611104488 42.652680221013725 9.6003336161375028
leaf_count=626 387 190 129 368 3625 2446 1677 49
internal_value=0 0.0166925 -0.0343052 -0.0262236 0.0238434 0.0254993 0.0242418 0.0339373
internal_weight=0 182.987 98.2803 53.5296 158.977 152.113 106.083 46.0295
internal_count=9497 8374 1123 994 7987 7797 5302 2495
cat_boundaries=0 17 22 23 26 42 43 44 45
cat_threshold=67108864 0 75636738 2048 32768 32768 8650752 4194304 4195329 33554432 8192 65792 1073741824 0 33555460 1082132480 2 8405056 16794625 32 2583707648 3678214 1 0 0 67239936 0 0 0 0 0 0 0 0 0 0 0 536870912 0 0 0 4096 8 8 1
is_linear=0
shrinkage=0.05


Tree=49
num_leaves=10
num_cat=9
split_feature=8 7 0 8 6 7 6 4 6
split_gain=67.3583 28.069 5.38926 3.57148 2.06206 0.514653 0.266599 0.302219 0.105739
threshold=0 1 2 3 4 5 6 7 8
decision_type=9 9 9 9 9 9 9 1 9
left_child=1 -1 8 5 -4 -2 7 -5 -3
right_child=3 2 4 6 -6 -7 -8 -9 -10
leaf_value=0.10089119697923588 0.018836510835708555 -0.023755620357242425 0.010986335540060205 -0.02180442662980317 0.054055590907482909 -0.005909403988304091 -0.030875456978784684 -0.034657404416208529 -0.033639150963633506
leaf_weight=15.266682410612702 3.8781311721540987 4.7795638795942068 4.4610168929211795 23.106592700816691 7.3712636348791438 3.9108701832592487 34.238241109531373 5.7022230513393906 6.2381189335137588
leaf_count=149 245 323 381 2232 664 373 4194 172 764
internal_value=0 0.0555581 0.00377723 -0.0195378 0.0204957 0.0100742 -0.0240745 -0.0243485 -0.0153864
internal_weight=0 38.1166 22.85 70.8361 11.8323 7.789 63.0471 28.8088 11.0177
internal_count=9497 2281 2132 7216 1045 618 6598 2404 1087
cat_boundaries=0 10 17 22 32 33 39 40 41 42
cat_threshold=1187920 1605888 37889 16908392 65537 301989888 67108864 2147483648 1317120 1179776 1024 0 2147484672 65536 0 0 272 4210688 16793600 8194 0 168 8 1024 2304 5242880 0 0 0 0 4194320 33554432 8 134218753 0 1024 0 0 2228224 4 1 4
is_linear=0
shrinkage=0.05


Tree=50
num_leaves=5
num_cat=4
split_feature=4 6 1 1
split_gain=78.7365 0.000491754 0.000213918 8.01722e-06
threshold=0 1 2 3
decision_type=1 9 9 9
left_child=1 3 -3 -1
right_child=-2 2 -4 -5
leaf_value=-0.033597445765346824 0.032213752198674478 -0.03389898940547037 -0.033660800561587718 -0.033552796475279846
leaf_weight=44.20275548659265 84.128983587026596 26.428412129171193 14.652627557981758 13.013916141819207
leaf_count=4386 306 1942 1448 1415
internal_value=0 -0.0336821 -0.033814 -0.0335873
internal_weight=0 98.2977 41.081 57.2167
internal_count=9497 9191 3390 5801
cat_boundaries=0 1 2 3 4
cat_threshold=1 8 8 8
is_linear=0
shrinkage=0.05


Tree=51
num_leaves=8
num_cat=7
split_feature=0 8 8 4 8 4 1
split_gain=61.8231 23.7749 16.0559 9.26379 3.70213 0.66327 0.137052
threshold=0 1 2 3 4 5 6
decision_type=9 9 9 1 9 1 9
left_child=1 -1 -2 4 -3 6 -4
right_child=2 3 5 -5 -6 -7 -8
leaf_value=-0.050414124218656792 -0.018769663578163429 0.019264263535736671 0.029711613306836273 -0.026882692674072603 -0.0057116796519787478 0.022655768394339696 0.03368564447877808
leaf_weight=47.839725190773606 17.797519446350634 20.993848478421569 73.673476217314601 30.643944084644318 25.199684669263661 32.017583951354027 30.750323119573295
leaf_count=403 640 489 4846 90 684 140 2273
internal_value=0 -0.0248276 0.0208747 -0.00492607 0.00857316 0.0269745 0.0308819
internal_weight=0 124.677 154.239 76.8375 46.1935 136.441 104.424
internal_count=9565 1666 7899 1263 1173 7259 7119
cat_boundaries=0 5 15 25 26 36 37 38
cat_threshold=8472064 1090536448 2155872768 2583838720 20455430 0 1573129 34824 16777296 8192 33554432 256 0 1053984 131072 34611200 167936 1082368 0 268435456 268435456 0 2147483648 805308432 128 1 131102 671154176 285212672 0 1048576 8 0 134217728 2048 33562626 1 8
is_linear=0
shrinkage=0.05


Tree=52
num_leaves=6
num_cat=5
split_feature=3 8 1 4 4
split_gain=57.751 14.9203 0.00552604 0.00557281 0.000175945
threshold=0 1 2 3 4
decision_type=9 9 9 1 1
left_child=-1 -2 3 -3 -4
right_child=1 2 4 -5 -6
leaf_value=0.050057972702502243 0.029997335595094182 -0.032365017476475945 -0.033504404409009203 -0.034176755804432281 -0.033965731221710288
leaf_weight=35.755929917097092 6.2452886989340186 41.046962972730398 16.976073211524636 4.7339899009093633 2.3533117296174195
leaf_count=513 360 5625 2798 164 105
internal_value=0 -0.0203018 -0.0284779 -0.0325524 -0.0335606
internal_weight=0 71.3556 65.1103 45.781 19.3294
internal_count=9565 9052 8692 5789 2903
cat_boundaries=0 16 26 27 28 29
cat_threshold=0 2164260868 4194304 2048 32896 33024 8388608 16385 4194305 33554432 0 8388608 1073741824 0 4 2048 64 557056 32768 20971520 0 0 67108864 0 16 1048576 8 1 1
is_linear=0
shrinkage=0.05


Tree=53
num_leaves=5
num_cat=4
split_feature=4 6 1 1
split_gain=68.4931 0.000446891 0.000221914 7.62724e-06
threshold=0 1 2 3
decision_type=1 9 9 9
left_child=1 3 -3 -1
right_child=-2 2 -4 -5
leaf_value=-0.033586442092969668 0.027676564977769519 -0.033884449485960977 -0.033637587584021543 -0.033542076049854756
leaf_weight=41.604444709140807 88.197432324290276 25.640116091817617 14.115397298242895 12.627645957283674
leaf_count=4353 313 1960 1491 1448
internal_value=0 -0.0336695 -0.0337968 -0.0335761
internal_weight=0 93.9876 39.7555 54.2321
internal_count=9565 9252 3451 5801
cat_boundaries=0 1 2 3 4
cat_threshold=1 8 8 8
is_linear=0
shrinkage=0.05


Tree=54
num_leaves=11
num_cat=10
split_feature=7 8 8 4 4 8 8 2 4 1
split_gain=60.3243 21.5004 16.0935 10.519 8.9113 6.89176 2.85034 0.396943 0.741925 0.223516
threshold=0 1 2 3 4 5 6 7 8 9
decision_type=9 9 9 1 1 9 9 1 1 9
left_child=1 -1 3 6 5 -3 -2 8 9 -4
right_child=2 4 7 -5 -6 -7 -8 -9 -10 -11
leaf_value=-0.049227400906207863 0.015074458164244195 0.022489840536336233 0.028326063495088562 -0.058352125403515677 -0.029671929452837309 -0.010732533596952764 -0.013968928480612517 0.039420292800094625 0.020384461114928185 0.033658817420993171
leaf_weight=52.493999782949686 10.686970502138136 20.856650806032121 64.211116633377969 10.485910296440126 25.723862960934639 24.370018188841641 5.4037569854408529 7.9281099317595354 25.903461501002312 28.313501962460577
leaf_count=487 642 525 4422 33 75 638 249 201 112 2229
internal_value=0 -0.0263376 0.0190091 -0.0140856 -0.00541309 0.00718788 0.00600786 0.0264924 0.027864 0.0299579
internal_weight=0 123.445 152.933 26.5766 70.9505 45.2267 16.0907 126.356 118.428 92.5246
internal_count=9613 1725 7888 924 1238 1163 891 6964 6763 6651
cat_boundaries=0 7 17 27 28 29 39 49 50 51 52
cat_threshold=34606152 402686464 2164261920 67698688 67108864 671254528 276 2147483650 538444040 35840 16777232 8192 33554432 67109120 0 4201760 33685504 34873360 138753 32776 64 8192 268435456 2147483904 0 536870928 33554560 1 1 28 134284289 285278216 0 1052672 8 4 134217728 0 8194 34865152 1 32768 0 8192 0 256 0 536870912 33554432 1 1 8
is_linear=0
shrinkage=0.05


Tree=55
num_leaves=10
num_cat=9
split_feature=8 0 8 6 0 6 1 1 6
split_gain=48.97 22.3578 4.96351 5.77899 1.75545 0.405906 0.403142 0.00572992 0.000298115
threshold=0 1 2 3 4 5 6 7 8
decision_type=9 9 9 9 9 9 9 9 9
left_child=1 -1 3 -2 8 6 -4 -7 -3
right_child=2 4 5 -5 -6 7 -8 -9 -10
leaf_value=0.075439563538889753 0.056690278296798839 -0.033776812926860945 -0.019829895374824196 -0.012467645738469346 0.0084809813012287107 -0.03174752867670199 -0.033624933871047605 -0.033516951405350083 -0.034326742270398697
leaf_weight=23.191283806227148 5.3002347550354898 5.588434427510947 19.541548724286258 7.0235632355324906 6.1461130641400841 23.4768260223791 7.2649680944159654 5.6828947379253831 4.408433036413042
leaf_count=802 177 638 1340 630 566 3053 1078 977 352
internal_value=0 0.0466366 -0.0173035 0.00953711 -0.0077708 -0.0237636 -0.0235686 -0.0320924 -0.017007
internal_weight=0 39.3343 68.29 12.3238 16.143 55.9662 26.8065 29.1597 9.99687
internal_count=9613 2358 7255 807 1556 6448 2418 4030 990
cat_boundaries=0 10 15 24 25 30 31 32 33 34
cat_threshold=139600 1572864 1082368 16908392 65536 301989888 67108864 2147483648 5511456 34734208 513 1073741824 8389120 268435456 3149828 1048576 34048 6408 1048592 268435456 0 0 0 16 4 0 25182208 8194 0 136 4 8 8 8
is_linear=0
shrinkage=0.05


Tree=56
num_leaves=5
num_cat=4
split_feature=4 6 1 1
split_gain=68.0804 0.000431021 0.000234045 6.89269e-06
threshold=0 1 2 3
decision_type=1 9 9 9
left_child=1 3 -3 -1
right_child=-2 2 -4 -5
leaf_value=-0.033578398561402267 0.027865180284168581 -0.033880609918470632 -0.033619384978208121 -0.033535131865921657
leaf_weight=40.238499153871089 89.800333559513092 24.748540169093758 13.120256850495933 11.935248987749217
leaf_count=4407 315 1970 1489 1432
internal_value=0 -0.0336617 -0.0337901 -0.0335685
internal_weight=0 90.0425 37.8688 52.1737
internal_count=9613 9298 3459 5839
cat_boundaries=0 1 2 3 4
cat_threshold=1 8 8 8
is_linear=0
shrinkage=0.05


Tree=57
num_leaves=9
num_cat=8
split_feature=3 7 4 7 3 1 6 4
split_gain=55.9099 14.598 7.25422 26.6942 5.149 0.658084 0.651711 0.00962812
threshold=0 1 2 3 4 5 6 7
decision_type=9 9 1 9 9 9 9 1
left_child=2 -2 3 -1 -3 6 -6 -7
right_child=1 4 -4 -5 5 7 -8 -9
leaf_value=0.02378248048441229 -0.019915813048535777 -0.014959786811912996 -0.042374461153045273 -0.036453700380809632 0.02087964020881947 0.033671025781880345 0.03009082811843565 0.035411451704318794
leaf_weight=22.113553489558399 16.338361208327115 5.6499736644327641 52.70734141767025 40.486642667092383 31.532717581838369 33.812609725631773 49.10925755277276 10.387628510594366
leaf_count=651 280 172 148 634 1460 2615 3464 52
internal_value=0 0.018388 -0.026416 -0.0171994 0.0242601 0.0270129 0.0264891 0.03408
internal_weight=0 146.831 115.308 62.6002 130.492 124.842 80.642 44.2002
internal_count=9476 8043 1433 1285 7763 7591 4924 2667
cat_boundaries=0 17 24 25 29 45 46 47 48
cat_threshold=0 16777220 79831042 35072 32896 32768 8388624 4194304 4195329 0 0 8454400 1073741824 0 33554436 1073747968 2 1049152 32768 20971520 67174400 0 671219712 276 1 268435456 134217728 4259888 67108864 0 2147483648 0 0 0 256 0 1024 0 41943040 0 536870912 0 0 0 8388608 8 4 1
is_linear=0
shrinkage=0.05


Tree=58
num_leaves=9
num_cat=8
split_feature=8 7 8 0 1 4 4 1
split_gain=48.3657 19.1664 3.51488 0.37741 0.181929 0.13052 0.000176777 0.000167642
threshold=0 1 2 3 4 5 6 7
decision_type=9 9 9 9 9 1 1 9
left_child=1 7 3 -2 5 -4 -6 -1
right_child=2 -3 4 -5 6 -7 -8 -9
leaf_value=-0.034104596546359521 0.014125451220401826 0.065930277066401435 -0.025730085465864045 -0.0034395755392347669 -0.034040305623324676 -0.034774775411330207 -0.0335172420921966 -0.033664545067224459
leaf_weight=6.8700592997483909 5.0563083156011981 30.059201080352068 35.099782347679138 5.9929980877786875 1.8930174494162202 4.5000481409952036 11.01106424303725 3.1596928630024177
leaf_count=625 208 1239 4200 525 90 131 1989 469
internal_value=0 0.0459272 -0.0181561 0.00749041 -0.0238882 -0.0267579 -0.033594 -0.0170082
internal_weight=0 40.089 63.5532 11.0493 52.5039 39.5998 12.9041 10.0298
internal_count=9476 2333 7143 733 6410 4331 2079 1094
cat_boundaries=0 10 16 26 31 32 33 34 35
cat_threshold=139600 1605888 1082369 4325448 268500993 301989888 67108864 0 1313056 1179776 134217744 134217732 65568 67108868 262144 6815744 1048584 1024 2304 1048624 0 0 0 0 16 33554432 513 1073741824 0 0 4 8 1 2 8
is_linear=0
shrinkage=0.05


Tree=59
num_leaves=3
num_cat=2
split_feature=4 6
split_gain=62.9342 0.000407339
threshold=0 1
decision_type=1 9
left_child=1 -1
right_child=-2 -3
leaf_value=-0.033559231694119521 0.027316503878433131 -0.033781266841822123
leaf_weight=48.954374807421118 84.613531216979027 35.734439578838646
leaf_count=5772 293 3411
internal_value=0 -0.0336529
internal_weight=0 84.6888
internal_count=9476 9183
cat_boundaries=0 1 2
cat_threshold=1 8
is_linear=0
shrinkage=0.05


Tree=60
num_leaves=9
num_cat=8
split_feature=7 8 3 4 8 1 4 4
split_gain=53.2159 20.3984 16.2888 5.30054 3.87031 0.137532 0.181696 0.0155335
threshold=0 1 2 3 4 5 6 7
decision_type=9 9 9 1 9 9 1 1
left_child=1 -1 -2 -3 -4 6 -6 -7
right_child=2 3 4 -5 5 7 -8 -9
leaf_value=0.015469789217855565 -0.019195944180033897 -0.029419977075516565 -0.0075658245046803206 -0.0538267382427857 0.031910740436753793 0.033619884769683771 0.025980816659567231 0.035840262581871229
leaf_weight=22.258634257130325 18.731984713114798 54.560164668597281 9.8992880862206203 37.559063524007797 57.159805508330464 27.343087141402066 16.689510822296143 11.064252957701681
leaf_count=329 281 1186 384 103 4610 2401 69 55
internal_value=0 -0.0251476 0.0190296 -0.0355157 0.0259003 0.029229 0.0305706 0.0342595
internal_weight=0 114.378 140.888 92.1192 122.156 112.257 73.8493 38.4073
internal_count=9418 1618 7800 1289 7519 7135 4679 2456
cat_boundaries=0 7 17 33 34 43 44 45 46
cat_threshold=1052232 402653696 2147484704 67698688 67108864 671254528 276 524316 134283264 268435464 0 1048576 0 0 0 65536 64 0 0 8388608 0 128 256 16 16384 33793 8388608 0 545259776 1073741824 0 4 8388608 1 8208 37376 34816 0 0 0 4 0 536870928 8 1 1
is_linear=0
shrinkage=0.05


Tree=61
num_leaves=7
num_cat=6
split_feature=3 0 3 1 6 6
split_gain=48.3922 8.65353 0.878484 0.061051 0.0818187 2.85802e-06
threshold=0 1 2 3 4 5
decision_type=9 9 9 9 9 9
left_child=-1 -2 -3 4 -4 -5
right_child=1 2 3 5 -6 -7
leaf_value=0.048498213357530517 0.020894771014557108 0.010088278685682656 -0.027010388279281591 -0.033595145032144176 -0.031679405906636857 -0.033636912113699985
leaf_weight=35.301006673835218 7.1091575538739562 2.2126569421961904 14.55099811591208 7.4139797713141888 26.418712923303246 9.1514034797437507
leaf_count=440 570 77 1495 1290 4089 1457
internal_value=0 -0.0169947 -0.0238524 -0.0264582 -0.0300211 -0.0336182
internal_weight=0 66.8569 59.7478 57.5351 40.9697 16.5654
internal_count=9418 8978 8408 8331 5584 2747
cat_boundaries=0 17 22 34 35 36 37
cat_threshold=0 16777220 0 0 32896 33024 8388608 16385 4194305 33554432 0 545259520 1073741824 0 0 2048 16384 128 0 544 268435456 18878464 0 2147483648 0 0 0 0 0 4194304 256 0 0 33554432 8 4 8
is_linear=0
shrinkage=0.05


Tree=62
num_leaves=5
num_cat=4
split_feature=4 6 1 1
split_gain=55.4008 0.000367151 0.000175692 6.60309e-06
threshold=0 1 2 3
decision_type=1 9 9 9
left_child=1 3 -3 -1
right_child=-2 2 -4 -5
leaf_value=-0.033559554848866385 0.024474173017895659 -0.033848805973390905 -0.033609433631540446 -0.033514023436451088
leaf_weight=35.893081624992192 84.096005395054817 22.204824897460639 11.707044147420673 10.232925732154397
leaf_count=4347 290 1931 1466 1384
internal_value=0 -0.0336413 -0.0337662 -0.0335495
internal_weight=0 80.0379 33.9119 46.126
internal_count=9418 9128 3397 5731
cat_boundaries=0 1 2 3 4
cat_threshold=1 8 8 8
is_linear=0
shrinkage=0.05


Tree=63
num_leaves=13
num_cat=12
split_feature=0 8 8 6 8 4 6 1 6 4 4 6
split_gain=50.222 15.9084 13.8845 11.8554 8.99072 4.23556 5.37591 0.17175 0.209114 0.100803 0.0182396 5.54088e-07
threshold=0 1 2 3 4 5 6 7 8 9 10 11
decision_type=9 9 9 9 9 1 9 9 9 1 1 9
left_child=1 -1 3 -2 -3 6 -6 8 10 11 -4 -9
right_child=2 4 7 -5 5 -7 -8 9 -10 -11 -12 -13
leaf_value=-0.045157746981186006 -0.057342803729506842 -0.028480623825257945 0.024308963445488607 0.01841423840538968 0.031950281791110917 -0.010790437620736556 -0.010893047277253419 0.033641723662457962 0.030318934743826909 0.027861983767788603 0.0264876155731784 0.033657094749661269
leaf_weight=45.559901761822402 11.115247372537851 20.641033516265452 25.399977792985737 9.6458419011905789 21.527119988575578 22.583087876439095 11.095963720232247 13.489826298318803 37.085735512897372 10.994862928986548 15.450589701533316 10.36964616831392
leaf_count=421 204 232 1628 627 809 66 131 1260 2998 54 61 980
internal_value=0 -0.0232741 0.0195087 -0.0149461 -0.00640007 0.00495731 0.0173781 0.0265514 0.0276007 0.0318231 0.025133 0.0336484
internal_weight=0 121.407 133.552 20.7611 75.8472 55.2062 32.6231 112.791 77.9363 34.8543 40.8506 23.8595
internal_count=9471 1659 7812 831 1238 1006 940 6981 4687 2294 1689 2240
cat_boundaries=0 5 15 24 25 35 36 37 38 39 40 41 42
cat_threshold=75515456 1090536449 2155872768 2550284288 20455430 1048578 1574153 35840 64 8192 33554432 256 0 1049888 33554432 34873360 163840 1084424 0 268435456 0 2214592768 2147483648 16 4 2147614720 603979776 0 17825840 1048576 8 4 0 6144 1048579 1 8 8 4 1 1 4
is_linear=0
shrinkage=0.05


Tree=64
num_leaves=6
num_cat=5
split_feature=3 7 1 6 6
split_gain=47.7891 9.32489 0.0602668 0.068075 4.99358e-06
threshold=0 1 2 3 4
decision_type=9 9 9 9 9
left_child=-1 -2 3 -3 -4
right_child=1 2 4 -5 -6
leaf_value=0.045353311391803881 0.02120585570624935 -0.027404644320680363 -0.033575691114572398 -0.03161516969181604 -0.033630988247749315
leaf_weight=37.530374613590539 6.9666998176835477 15.456792552489787 7.5525207668542862 25.333133313572034 8.8865182523150015
leaf_count=523 415 1676 1357 4034 1466
internal_value=0 -0.0191002 -0.0264312 -0.0300196 -0.0336056
internal_weight=0 64.1957 57.229 40.7899 16.439
internal_count=9471 8948 8533 5710 2823
cat_boundaries=0 17 24 25 26 27
cat_threshold=0 2164260868 4194306 0 128 33024 8388608 16385 4194561 33554432 4096 545259520 1073741824 0 0 0 16384 0 32768 2151677952 0 0 134217728 272 8 4 8
is_linear=0
shrinkage=0.05


Tree=65
num_leaves=8
num_cat=7
split_feature=0 8 6 8 6 2 6
split_gain=32.8337 16.7214 9.87207 2.68172 0.731053 0.135665 0.0215252
threshold=0 1 2 3 4 5 6
decision_type=9 9 9 9 9 1 9
left_child=3 2 -2 -1 -5 6 -3
right_child=1 5 -4 4 -6 -7 -8
leaf_value=0.036631354496874997 -0.026933613080256227 -0.03234072962165923 0.046954514818538948 0.0021040104336372332 0.016213646459702476 -0.040832771989699541 -0.0340958160830237
leaf_weight=27.309801644645631 6.5653143241070211 29.147572724614292 14.515371813438835 17.465571484528482 19.35234541958198 6.6904869917780152 43.605051067657769
leaf_count=260 806 4106 288 160 608 213 3030
internal_value=0 -0.0198859 0.0162395 0.0231658 0.00748687 -0.0302158 -0.0333927
internal_weight=0 100.524 21.0807 64.1277 36.8179 79.4431 72.7526
internal_count=9471 8443 1094 1028 768 7349 7136
cat_boundaries=0 5 15 16 26 27 28 29
cat_threshold=75711552 16794624 2155872256 2315403264 18358278 2182873088 68288512 32800 0 0 0 2147483908 0 1056 33554432 8 6 1048585 2048 16 8192 33554440 256 0 0 33685507 4 1 8
is_linear=0
shrinkage=0.05


Tree=66
num_leaves=8
num_cat=7
split_feature=3 0 4 3 1 4 4
split_gain=49.2302 16.6049 6.77453 1.05707 0.981755 0.348946 0.0070731
threshold=0 1 2 3 4 5 6
decision_type=9 9 1 9 9 1 1
left_child=2 -2 -1 -3 5 -5 -6
right_child=1 3 -4 4 6 -7 -8
leaf_value=-0.01958957535020214 -0.013885455911899431 -0.0069186626244157117 -0.046663086771225395 0.02275679756478895 0.033629992115359664 0.031105038628653332 0.035166868383858588
leaf_weight=52.705400320701301 33.427009391598403 4.8847899595275521 41.143959820270538 66.267738047987223 28.026676294393837 15.432221785187719 10.214969947934149
leaf_count=1113 398 180 115 4991 2599 67 53
internal_value=0 0.0153568 -0.0284295 0.0236366 0.0253177 0.0243337 0.0340405
internal_weight=0 158.253 93.8494 124.826 119.942 81.7 38.2416
internal_count=9516 8288 1228 7890 7710 5058 2652
cat_boundaries=0 17 22 23 38 39 40 41
cat_threshold=0 16777216 8527874 2304 32896 32768 8650768 16384 4228097 41943040 8192 545259776 1073741824 0 33555456 8394752 2 8471616 16778240 2147483648 2583707648 1581062 1 0 2147483648 32768 1024 0 4 2 0 0 0 262144 0 1 16384 4 8 1 1
is_linear=0
shrinkage=0.05


Tree=67
num_leaves=9
num_cat=8
split_feature=7 8 6 6 6 1 4 1
split_gain=36.057 11.6637 4.72518 2.26765 0.0256118 0.00751868 0.00161271 0.000360308
threshold=0 1 2 3 4 5 6 7
decision_type=9 9 9 9 9 9 1 9
left_child=2 3 -1 -2 5 -3 7 -6
right_child=1 4 -4 -5 6 -7 -8 -9
leaf_value=0.024637612699955447 0.067358207427174174 -0.031373517846600675 0.06070994671936867 0.018912876061541736 -0.033945254808122917 -0.033561217278129975 -0.034864730973528851 -0.033474988340521566
leaf_weight=14.200757432263345 4.926351624308154 21.820443071890622 25.168219079263508 4.7393893906846625 14.571729030460119 4.7894535481464144 4.45452459342778 5.6533409766852865
leaf_count=655 300 3740 332 411 1640 1060 117 1261
internal_value=0 -0.0178007 0.0380367 0.0214315 -0.0274846 -0.0317673 -0.0340035 -0.0338138
internal_weight=0 60.9552 39.369 9.66574 51.2895 26.6099 24.6796 20.2251
internal_count=9516 8529 987 711 7818 4800 3018 2901
cat_boundaries=0 7 16 17 18 19 20 21 22
cat_threshold=1032 0 2151678976 0 67108864 134348800 276 8212 33792 8 0 0 268435456 0 0 48 8 4 8 8 1 8
is_linear=0
shrinkage=0.05


Tree=68
num_leaves=5
num_cat=4
split_feature=4 6 1 1
split_gain=56.4699 0.000367184 0.000172704 8.17239e-06
threshold=0 1 2 3
decision_type=1 9 9 9
left_child=1 3 -3 -1
right_child=-2 2 -4 -5
leaf_value=-0.033554780371876737 0.025363030203295014 -0.03385132718566447 -0.033604396455357781 -0.033502742360555976
leaf_weight=33.101491407491267 89.05233795940876 20.875974920578301 10.715646601282062 9.7721691690385324
leaf_count=4339 306 1960 1460 1451
internal_value=0 -0.0336382 -0.0337676 -0.0335429
internal_weight=0 74.4653 31.5916 42.8737
internal_count=9516 9210 3420 5790
cat_boundaries=0 1 2 3 4
cat_threshold=1 8 8 8
is_linear=0
shrinkage=0.05


Tree=69
num_leaves=8
num_cat=7
split_feature=3 0 4 6 3 2 6
split_gain=45.9115 12.3105 6.40576 6.72873 5.70832 0.57431 0.0895113
threshold=0 1 2 3 4 5 6
decision_type=9 9 1 9 9 1 9
left_child=2 -2 3 -1 -3 6 -6
right_child=1 4 -4 -5 5 -7 -8
leaf_value=0.010176525074614827 -0.019023708031569705 -0.010707151906268534 -0.039883784918007169 -0.026705515963709483 0.026803377566187933 0.042002691232094699 0.029654949897481221
leaf_weight=18.184689084999263 14.520568853244184 10.619536978192626 46.801835119724274 38.650384465232491 53.655931903980672 8.1734177721664292 56.49759653955698
leaf_count=641 202 240 130 544 2793 229 4634
internal_value=0 0.0180472 -0.0238809 -0.0149049 0.0232904 0.0269382 0.0282659
internal_weight=0 143.467 103.637 56.8351 128.946 118.327 110.154
internal_count=9413 8098 1315 1185 7896 7656 7427
cat_boundaries=0 17 22 23 24 40 41 42
cat_threshold=0 33554432 79822850 33024 32896 33024 8650768 0 4228097 33554432 8192 8454400 1073741824 0 33555460 8390656 2 8389632 1025 2147483648 2583707648 3153926 1 8 0 2147483648 64 2048 0 0 0 4194304 0 0 0 536870912 0 0 0 1073745920 1 4
is_linear=0
shrinkage=0.05


Tree=70
num_leaves=4
num_cat=3
split_feature=3 8 4
split_gain=41.2686 11.7087 0.0606698
threshold=0 1 2
decision_type=9 9 1
left_child=-1 -2 -3
right_child=1 2 -4
leaf_value=0.043950916294416116 0.022922338604506157 -0.029760172392201981 -0.034622080001607013
leaf_weight=33.990501876920462 8.9847647720016521 49.72880491358228 7.3670885525643817
leaf_count=399 640 8106 268
internal_value=0 -0.0170848 -0.0258585
internal_weight=0 66.0807 57.0959
internal_count=9413 9014 8374
cat_boundaries=0 17 26 27
cat_threshold=0 2147483648 4194306 2048 32896 33024 8388608 0 4194305 33554432 0 545259520 1073741824 0 0 2048 16384 131392 557056 32768 20971560 0 0 67108864 0 4194320 1
is_linear=0
shrinkage=0.05


Tree=71
num_leaves=9
num_cat=8
split_feature=0 8 7 6 1 6 2 1
split_gain=32.7852 12.986 2.10235 0.414668 0.382301 0.137385 0.0459574 0.0147248
threshold=0 1 2 3 4 5 6 7
decision_type=9 9 9 9 9 9 1 9
left_child=5 2 -2 4 -3 -1 7 -5
right_child=1 3 -4 6 -6 -7 -8 -9
leaf_value=0.026858395582257662 0.023202529547506255 -0.03405174583671363 -0.0075444401965699751 -0.036483423750123409 -0.020628660945474511 0.022221436181682139 -0.042646207064581991 -0.038425907360367023
leaf_weight=35.931281952187419 11.720559775363652 20.496517752297223 7.1792217204347279 15.27776307053864 7.1565668624825802 28.759553845971823 5.3410062594339243 26.99374416610226
leaf_count=288 275 3180 669 1278 1139 802 58 1724
internal_value=0 -0.0220191 0.0129539 -0.0312904 -0.0305779 0.021477 -0.038276 -0.0377239
internal_weight=0 94.1654 18.8998 75.2656 27.6531 64.6908 47.6125 42.2715
internal_count=9413 8323 944 7379 4319 1090 3060 3002
cat_boundaries=0 5 15 21 22 23 24 25 26
cat_threshold=75580416 16794624 2155872256 2315405312 18358274 35389440 67239936 32768 0 0 0 2147483908 0 536871968 33554432 1024 0 2147550224 0 0 131584 8 8 4 1 4
is_linear=0
shrinkage=0.05


Tree=72
num_leaves=12
num_cat=11
split_feature=8 7 8 6 7 4 0 8 6 4 6
split_gain=39.5646 17.7549 14.5986 6.41418 5.06967 3.44691 1.59071 1.43971 1.20526 0.570284 0.485404
threshold=0 1 2 3 4 5 6 7 8 9 10
decision_type=9 9 9 9 9 1 9 9 9 1 9
left_child=1 5 3 -2 -4 10 -5 -6 -3 -9 -1
right_child=2 8 4 6 7 -7 -8 9 -10 -11 -12
leaf_value=0.014237847820210828 -0.033909469164390131 -0.049412935115836804 -0.013764944549157618 -0.0094252602052111029 -0.00013728276735171992 -0.02227909045604097 0.012512359104050961 0.030719361056146158 -0.035157648273436232 0.038859200454052098 0.029325097501615622
leaf_weight=10.094027419574559 19.22510432312265 41.507463502697647 6.5282385880127549 5.817638423293829 13.838624538388101 5.4673730283975628 12.74098214460537 62.98795331036672 23.068135706707835 32.683016762137413 11.29852118017152
leaf_count=717 355 285 154 88 581 18 1001 4542 634 138 948
internal_value=0 -0.0247328 0.0150026 -0.0108082 0.0235977 0.00958329 0.00729892 0.0267904 -0.0383775 0.0303299 0.0222062
internal_weight=0 91.4355 153.822 37.7837 116.038 26.8599 18.5586 109.51 64.5756 95.671 21.3925
internal_count=9461 2602 6859 1444 5415 1683 1089 5261 919 4680 1665
cat_boundaries=0 10 16 26 27 33 34 36 41 42 43 44
cat_threshold=2181169232 1704200 35840 16908352 77824 33554432 67109120 0 269491488 34734080 134217745 516 16 4 0 141066240 270592 604018177 1048841 4194322 268435457 67108872 2147483648 2147500032 541327425 4195329 4 1048640 512 16777216 524288 65536 34816 1 0 16384 1048576 0 268435456 1048584 1048576 4 1 4
is_linear=0
shrinkage=0.05


Tree=73
num_leaves=10
num_cat=9
split_feature=8 3 3 6 4 1 1 1 6
split_gain=42.2967 18.5922 3.68476 0.401754 0.482454 0.461221 0.00607294 4.43128e-05 2.4135e-06
threshold=0 1 2 3 4 5 6 7 8
decision_type=9 9 9 9 1 9 9 9 9
left_child=1 7 -2 4 -4 -6 -5 8 -1
right_child=2 -3 3 6 5 -7 -8 -9 -10
leaf_value=-0.033775902329480016 0.013226670488665505 0.060243857979928851 -0.035513329950675736 -0.031580514919149948 -0.033512648710765945 -0.0159215626873692 -0.033510009280111268 -0.033511690168515122 -0.033719819301004803
leaf_weight=4.639299081871286 5.1369578931480646 31.202227572677657 6.3271699883043766 21.722919039661065 4.7855098759755492 16.832913476740949 5.020557536045092 2.5128350644372386 3.2708033816888928
leaf_count=501 84 900 188 3368 1084 1352 1101 518 365
internal_value=0 0.041278 -0.0187198 -0.0233013 -0.0233697 -0.0198156 -0.0319427 -0.0171962 -0.0337527
internal_weight=0 41.6252 59.826 54.6891 27.9456 21.6184 26.7435 10.4229 7.9101
internal_count=9461 2284 7177 7093 2624 2436 4469 1384 866
cat_boundaries=0 10 26 36 37 38 39 40 41 42
cat_threshold=139600 1605888 1082369 21102656 65537 33554432 67108864 2147483648 5511456 34734080 134217728 32824 67239936 0 0 256 0 0 0 8388608 0 0 0 0 0 32768 0 0 0 0 128 256 0 16384 4194304 33554432 4 2 4 8 8 8
is_linear=0
shrinkage=0.05


Tree=74
num_leaves=3
num_cat=2
split_feature=4 1
split_gain=40.619 7.6919e-05
threshold=0 1
decision_type=1 9
left_child=1 -1
right_child=-2 -3
leaf_value=-0.033676644710530695 0.017700951706523384 -0.033557719418935643
leaf_weight=50.278806888964027 87.327925115823746 18.635996983852237
leaf_count=6262 305 2894
internal_value=0 -0.0336445
internal_weight=0 68.9148
internal_count=9461 9156
cat_boundaries=0 1 2
cat_threshold=1 8
is_linear=0
shrinkage=0.05


Tree=75
num_leaves=13
num_cat=12
split_feature=3 0 3 4 6 1 6 4 6 1 6 6
split_gain=40.0747 17.9398 7.84387 2.88547 7.74815 0.407066 0.414714 0.338641 0.00111104 2.34526e-05 6.14277e-06 4.65816e-07
threshold=0 1 2 3 4 5 6 7 8 9 10 11
decision_type=9 9 9 1 9 9 9 1 9 9 9 9
left_child=7 2 -2 4 -3 6 -4 9 -7 11 -11 -1
right_child=1 3 5 -5 -6 8 -8 -9 -10 10 -12 -13
leaf_value=0.033666260564699624 -0.022311886502593376 0.0026363518471258767 0.016084868710764155 -0.03404737545990804 -0.03379451659861122 0.035347419139083583 0.027728801887032396 0.025879222061493814 0.034165494339413544 0.033627290854602906 0.033566248211892871 0.033678861713150779
leaf_weight=21.62145776534453 6.6448126723989844 24.712560754269361 14.480768337845802 65.24314771592617 35.647825669962913 4.5936161302961409 16.203858497552574 19.633473172783852 3.5058187618851644 8.4199296995066106 8.0727154365740716 11.098419838584958
leaf_count=2068 138 904 654 195 423 395 1508 95 301 915 887 992
internal_value=0 -0.0152895 0.0106985 -0.0247848 -0.0188791 0.0197685 0.0222338 0.0274447 0.0348358 0.033646 0.0335974 0.0336705
internal_weight=0 171.032 45.4289 125.604 60.3604 38.7841 30.6846 68.846 8.09943 49.2125 16.4926 32.7199
internal_count=9475 4518 2996 1522 1327 2858 2162 4957 696 4862 1802 3060
cat_boundaries=0 16 21 34 35 36 37 38 39 40 41 42 43
cat_threshold=134258752 218155064 50331648 4194304 2048 17826816 0 16777216 2432 0 33554432 0 1 2147483648 536870912 32784 301989889 8421408 8224 1140859204 12591240 0 0 4194306 0 0 0 0 16384 32769 8388608 0 536870912 1073741824 1 8 8 4 1 4 8 4 8
is_linear=0
shrinkage=0.05


Tree=76
num_leaves=9
num_cat=8
split_feature=3 8 0 6 1 4 1 4
split_gain=33.6015 15.3242 3.86593 0.110671 0.164534 0.200908 0.00606548 0.000111224
threshold=0 1 2 3 4 5 6 7
decision_type=9 9 9 9 9 1 9 1
left_child=-1 2 -2 4 7 -6 -5 -3
right_child=1 3 -4 6 5 -7 -8 -9
leaf_value=0.043020079558526124 -0.010237072139509669 -0.033486926149820663 0.046328174307274372 -0.031740160670764808 -0.035023487486375057 -0.021395363171016649 -0.033563076061990077 -0.033941608402157625
leaf_weight=31.545974971726537 6.4368057807441783 5.5800827497150749 5.8357096528634429 23.80426299595274 3.5027903961017728 11.864273172337564 5.6454487801529494 1.7721479106694458
leaf_count=374 527 1332 280 3894 110 1587 1280 91
internal_value=0 -0.0134761 0.0253844 -0.0252306 -0.0274449 -0.0245018 -0.0320896 -0.0335965
internal_weight=0 64.4415 12.2725 52.169 22.7193 15.3671 29.4497 7.35223
internal_count=9475 9101 807 8294 3120 1697 5174 1423
cat_boundaries=0 17 26 31 32 33 34 35 36
cat_threshold=0 2147483648 4194306 0 32896 32768 0 16384 4194305 33554432 0 545259520 1073741824 0 0 2048 16384 256 558336 32768 20971560 268500992 0 67108864 0 5242896 4210689 1090535424 0 0 168 4 4 2 8 1
is_linear=0
shrinkage=0.05


Tree=77
num_leaves=3
num_cat=2
split_feature=4 6
split_gain=48.1878 0.000389049
threshold=0 1
decision_type=1 9
left_child=1 -1
right_child=-2 -3
leaf_value=-0.033774661135150832 0.022675461405534864 -0.03352917615090794
leaf_weight=28.283177259843796 89.766822040081024 37.590574235189706
leaf_count=3377 315 5783
internal_value=0 -0.0336346
internal_weight=0 65.8738
internal_count=9475 9160
cat_boundaries=0 1 2
cat_threshold=1 4
is_linear=0
shrinkage=0.05


Tree=78
num_leaves=14
num_cat=13
split_feature=3 7 3 4 7 7 1 6 4 6 6 1 1
split_gain=37.217 19.0751 4.9675 3.29693 23.2723 2.54947 0.623071 0.278401 0.103552 0.000831869 4.71752e-05 2.81484e-06 1.09354e-07
threshold=0 1 2 3 4 5 6 7 8 9 10 11 12
decision_type=9 9 9 1 9 9 9 9 1 9 9 9 9
left_child=5 2 -2 4 9 -1 7 -4 10 -3 11 -7 -12
right_child=1 3 6 -5 -6 8 -8 -9 -10 -11 12 -13 -14
leaf_value=-0.011570260799044746 -0.014143072985344974 0.026037660272200131 0.016876096084101021 -0.036205802136049368 -0.037674524508598393 0.033622820301154592 0.03703232355255516 0.026662009816081991 0.038113613871292924 0.02662979085309854 0.033707334512087343 0.033584577524118212 0.03370022169607486
leaf_weight=4.1117393239401281 8.8108502896502596 10.587031284347177 15.893101892434061 52.492088213562965 39.181168455630541 10.616168667562306 8.0830810149200243 13.391997362952679 17.82848784327507 13.488375334069133 22.714731966145337 8.800310174934566 7.090462829917672
leaf_count=89 163 185 589 154 595 1044 639 1365 92 588 2123 1034 810
internal_value=0 -0.0143082 0.0117226 -0.0247998 -0.0192553 0.0267778 0.0195196 0.0213512 0.0303258 0.0186309 0.0336661 0.0336055 0.0337056
internal_weight=0 161.928 46.179 115.749 63.2566 71.1619 37.3682 29.2851 67.0502 24.0754 49.2217 19.4165 29.8052
internal_count=9470 4278 2756 1522 1368 5192 2593 1954 5103 773 5011 2078 2933
cat_boundaries=0 17 24 41 42 48 55 56 57 58 59 60 61 62
cat_threshold=134258880 134252600 2202009600 2048 2048 17827072 0 16384 2432 0 33554432 0 1 2147483648 536870912 32768 33554432 436207625 2148532224 4194320 268435476 262272 543721216 40 0 0 0 0 0 0 0 0 32769 8388608 0 545259776 1073741824 0 0 8388608 2 1 64 134217728 66592 67108864 0 2048 0 4194304 268435456 67108864 0 608206848 4 8 4 1 4 4 8 8
is_linear=0
shrinkage=0.05


Tree=79
num_leaves=9
num_cat=8
split_feature=8 3 3 1 8 6 6 6
split_gain=35.0957 15.4447 4.34686 0.306172 1.13109 0.0527096 1.31876e-05 6.17758e-07
threshold=0 1 2 3 4 5 6 7
decision_type=9 9 9 9 9 9 9 9
left_child=1 6 -2 4 -4 -6 -1 -5
right_child=2 -3 3 7 5 -7 -8 -9
leaf_value=-0.033600583305211304 0.014482820287745463 0.05661249458762601 0.0089053816796324705 -0.033677018254184447 -0.027632255998372782 -0.031412032125206373 -0.033717533070328091 -0.03370043980848661
leaf_weight=4.7436640816740692 5.6190663343295455 29.469009141903371 3.2430186688434333 5.0476301307789981 16.786027950001881 20.472938839811832 4.9008780159056169 6.3658866144251061
leaf_count=718 105 788 201 1160 1286 3347 646 1219
internal_value=0 0.0388855 -0.0169885 -0.0221838 -0.0244185 -0.0234227 -0.0165255 -0.0336901
internal_weight=0 39.1136 57.5346 51.9155 40.502 37.259 9.64454 11.4135
internal_count=9470 2152 7318 7213 4834 4633 1364 2379
cat_boundaries=0 10 26 38 39 48 49 50 51
cat_threshold=139536 1605632 1082369 21102696 65537 301989888 67108864 2147483648 1313024 34734208 134217728 33587256 131072 0 65536 256 0 0 0 8388608 0 0 0 0 0 32768 0 0 8388608 0 128 0 0 0 4194304 33554432 0 8388608 8 0 256 256 0 268435456 0 0 0 4194320 4 4 8
is_linear=0
shrinkage=0.05


Tree=80
num_leaves=5
num_cat=4
split_feature=4 6 1 1
split_gain=40.5258 0.00040115 0.000150673 7.51677e-06
threshold=0 1 2 3
decision_type=1 9 9 9
left_child=1 3 -3 -1
right_child=-2 2 -4 -5
leaf_value=-0.033533287838411814 0.019238000510850589 -0.033857800517627296 -0.03360964241408098 -0.033477586986644617
leaf_weight=27.644989323802292 85.375081598758698 18.426242873072624 9.1561793100554514 7.7561959000304332
leaf_count=4319 300 1968 1474 1409
internal_value=0 -0.0336325 -0.0337754 -0.0335211
internal_weight=0 62.9836 27.5824 35.4012
internal_count=9470 9170 3442 5728
cat_boundaries=0 1 2 3 4
cat_threshold=1 8 8 8
is_linear=0
shrinkage=0.05


Tree=81
num_leaves=11
num_cat=10
split_feature=8 3 7 8 4 4 4 1 1 1
split_gain=33.3815 34.1923 12.7888 5.04197 2.2143 1.87484 0.291859 0.277292 0.0205552 3.63335e-05
threshold=0 1 2 3 4 5 6 7 8 9
decision_type=9 9 9 9 1 1 1 9 9 9
left_child=6 5 3 -3 -4 9 8 -5 -1 -2
right_child=1 2 4 7 -6 -7 -8 -9 -10 -11
leaf_value=0.029186619031438384 0.033683468857607035 -0.015128438160045599 -0.030823420353706985 0.029797594186266992 -0.046085302993889327 0.00086626023653493193 0.035356859817551677 0.015556429713141542 0.025949962941148166 0.033577017076088615
leaf_weight=25.121766738127917 23.597456962801516 11.159504588693379 51.328545428812504 14.929485839791596 44.259023979306221 4.968093365430831 31.866068080067635 4.4330704794265374 6.0955713358707753 12.139225705526767
leaf_count=1651 2375 388 1074 1104 127 18 137 447 652 1459
internal_value=0 -0.0125632 -0.0251863 0.00478049 -0.0343015 0.0237995 0.0276134 0.0174993 0.0285546 0.0336473
internal_weight=0 166.814 126.11 30.5221 95.5876 40.7048 63.0834 19.3626 31.2173 35.7367
internal_count=9432 6992 3140 1939 1201 3852 2440 1551 2303 3834
cat_boundaries=0 10 27 33 43 44 45 46 47 48 49
cat_threshold=8913180 1208033280 0 0 8388608 268697856 4194336 419430400 33579528 288848 201334784 33605688 16777216 0 68096 16778240 0 32768 128 128 256 8388608 1 2147483648 536870912 32768 16777216 33554433 2415919104 16777232 268435460 67372032 6865152 262144 32768 8 80 8192 0 256 0 268437552 1024 1 1 1 8 8 8
is_linear=0
shrinkage=0.05


Tree=82
num_leaves=9
num_cat=8
split_feature=8 3 3 6 8 6 4 1
split_gain=30.7246 12.0966 5.0843 0.716507 2.25043 0.376449 0.0155411 0.00670051
threshold=0 1 2 3 4 5 6 7
decision_type=9 9 9 9 9 9 1 9
left_child=1 5 -2 4 -4 -1 -6 -5
right_child=2 -3 3 7 6 -7 -8 -9
leaf_value=-0.014795281474105951 0.017095747368396381 0.053704762430534569 0.0090766520454050904 -0.031363248731621274 -0.035221016255937453 -0.033672428980714514 -0.031968803398874125 -0.03352109093025641
leaf_weight=5.2632195958867669 5.0357259344309568 28.226850049570203 5.9717503320425749 20.076465734280646 4.7917880062013865 5.3010300353635085 15.738180311629554 4.3829570126254138
leaf_count=755 118 652 286 3487 175 719 2134 1106
internal_value=0 0.0368222 -0.0158564 -0.0213828 -0.019883 -0.0124668 -0.022008 -0.0317499
internal_weight=0 38.7911 55.9969 50.9611 26.5017 10.5642 20.53 24.4594
internal_count=9432 2126 7306 7188 2595 1474 2309 4593
cat_boundaries=0 10 26 43 44 53 54 55 56
cat_threshold=1187904 558336 1086465 16908392 65537 33554432 67108864 2147483648 5509424 1048704 134217728 1050680 131072 2048 65536 0 2 0 0 0 16384 0 0 0 1 32768 0 0 4194304 0 128 0 0 4210688 4194304 0 0 0 0 0 0 2048 16384 4 0 1048576 256 1048592 269484032 0 0 0 2048 8 2 8
is_linear=0
shrinkage=0.05


Tree=83
num_leaves=5
num_cat=4
split_feature=4 6 1 1
split_gain=36.0422 0.000370609 0.000159362 6.29304e-06
threshold=0 1 2 3
decision_type=1 9 9 9
left_child=1 2 -1 -3
right_child=-2 3 -4 -5
leaf_value=-0.033849707166812855 0.016827334713750662 -0.033524528253456726 -0.03358523974619089 -0.033471916881939373
leaf_weight=17.646093071438372 86.882718309760094 26.450272810645401 8.4112615645863134 7.239511970896273
leaf_count=1933 305 4355 1447 1392
internal_value=0 -0.0336227 -0.0337643 -0.0335132
internal_weight=0 59.7471 26.0574 33.6898
internal_count=9432 9127 3380 5747
cat_boundaries=0 1 2 3 4
cat_threshold=1 4 8 8
is_linear=0
shrinkage=0.05


Tree=84
num_leaves=12
num_cat=11
split_feature=3 8 3 4 8 8 6 0 6 2 4
split_gain=29.202 25.3409 6.97993 3.95074 7.48081 2.72644 2.58965 1.86707 0.981746 0.476625 0.00689793
threshold=0 1 2 3 4 5 6 7 8 9 10
decision_type=9 9 9 1 9 9 9 9 9 1 1
left_child=3 2 8 4 -1 -6 -7 -3 -2 10 -9
right_child=1 7 -4 -5 5 6 -8 9 -10 -11 -12
leaf_value=-0.03485170028430825 0.0026187723885523337 -0.0077481530155295106 -0.034366763252964158 -0.034535563865876133 0.01317951997672933 0.0048563950471363299 -0.028140439291609878 0.031238958301735203 0.034065527559674583 0.044778542242507831 0.032239704440566411
leaf_weight=14.279919688589869 3.9912322745658457 5.9097236841917038 22.20154203241691 41.604341834783554 16.741259972564876 11.828933644574136 11.956357060931623 58.620259629096836 6.5631972388364357 7.3968520113266996 24.380705937743187
leaf_count=129 221 152 545 118 387 478 182 6433 587 169 115
internal_value=0 0.0140409 -0.0204096 -0.0207648 -0.0141 0.00145321 -0.00825836 0.0265758 0.0113859 0.029368 0.0315329
internal_weight=0 129.064 32.756 96.4108 54.8065 40.5266 23.7853 96.3075 10.5544 90.3978 83.001
internal_count=9516 8222 1353 1294 1176 1047 660 6869 808 6717 6548
cat_boundaries=0 16 26 42 43 53 63 64 69 70 71 72
cat_threshold=0 2164260864 4325376 33024 32896 33024 8650768 4210688 4228097 41943040 16384 545259776 1073741824 0 33555460 8394752 131408 1608712 34816 20971576 268509184 0 67109120 0 273678416 37748737 134225920 34832 0 536870912 65536 0 0 16777216 67108864 0 0 0 0 2147483648 0 32768 1 1048592 1048576 1024 131136 0 33554432 0 0 288 131072 4 1074298881 32768 32 0 0 256 134479872 1024 278528 8 1024 67108864 0 2315272192 1049602 4 1 1
is_linear=0
shrinkage=0.05


Tree=85
num_leaves=6
num_cat=5
split_feature=3 8 6 6 4
split_gain=26.548 6.80962 0.0895929 0.0272145 0.0149895
threshold=0 1 2 3 4
decision_type=9 9 9 9 1
left_child=-1 2 -2 4 -3
right_child=1 3 -4 -5 -6
leaf_value=0.030637668088822397 0.053930998994325123 -0.034243013703075427 0.041813894323700501 -0.033547979655724737 -0.030304087456893992
leaf_weight=45.640129148960114 2.854694033972919 2.8868941264227033 3.2763614158611745 23.359793585026637 14.785684765083717
leaf_count=597 391 105 311 5205 2907
internal_value=0 -0.0181872 0.0180369 -0.0260736 -0.0309475
internal_weight=0 47.1634 6.13106 41.0324 17.6726
internal_count=9516 8919 702 8217 3012
cat_boundaries=0 17 26 27 28 29
cat_threshold=0 2164260868 4194304 2048 32896 33024 8388608 4210689 4194561 33554432 0 578813952 1073741824 0 4 2048 16384 68 557056 0 20971528 0 0 67108864 0 16 8 4 2
is_linear=0
shrinkage=0.05


Tree=86
num_leaves=3
num_cat=2
split_feature=4 1
split_gain=35.5611 5.99406e-05
threshold=0 1
decision_type=1 9
left_child=1 -1
right_child=-2 -3
leaf_value=-0.033642398367923022 0.017091591031784478 -0.033526755541360427
leaf_weight=41.59637546306476 88.088428273797035 15.336727022659032
leaf_count=6274 308 2934
internal_value=0 -0.0336112
internal_weight=0 56.9331
internal_count=9516 9208
cat_boundaries=0 1 2
cat_threshold=1 8
is_linear=0
shrinkage=0.05


Tree=87
num_leaves=14
num_cat=13
split_feature=8 8 0 4 4 0 0 6 2 6 4 1 6
split_gain=29.9669 14.0432 9.62455 7.59632 5.04537 3.54838 3.1306 2.10062 0.880824 0.128304 0.124533 0.026864 0.123857
threshold=0 1 2 3 4 5 6 7 8 9 10 11 12
decision_type=9 9 9 1 1 9 9 9 1 9 1 9 9
left_child=2 3 7 6 11 -3 -2 -1 10 -8 -7 -4 -13
right_child=1 5 4 -5 -6 8 9 -9 -10 -11 -12 12 -14
leaf_value=-0.026551191730672316 -0.011781796492194 -0.011972560086132957 0.025961929199972051 -0.040231903261534925 -0.027966458309975951 0.029153664512991936 0.022654241673009761 -0.04583441345451298 0.045874214553993764 0.033693208666537952 0.025160549952992557 0.016507708247430156 0.026898588195790791
leaf_weight=22.605875662527978 10.043568810448052 5.5338312108069658 5.3269249582663178 15.927136272192 6.8197019249200848 54.352608701679856 4.003097795881331 37.636555048637092 7.2520990008488289 7.6864330410025996 30.472011119127274 5.7779053105041385 5.69409884279594
leaf_count=734 416 132 572 46 22 4886 271 523 156 795 132 477 225
internal_value=0 0.0135658 -0.022684 -0.0110629 0.0058336 0.0232131 0.0052233 -0.0331034 0.0262935 0.0161215 0.0277192 0.0230277 0.0216652
internal_weight=0 135.271 83.8611 37.6602 23.6186 97.6106 21.7331 60.2424 92.0767 11.6895 84.8246 16.7989 11.472
internal_count=9387 6834 2553 1528 1296 5306 1482 1257 5174 1066 5018 1274 702
cat_boundaries=0 10 20 25 26 27 32 37 38 39 40 41 42 43
cat_threshold=1056784 605716745 35840 88 73728 33554432 0 2147483648 269490432 34734210 2181320768 576 1052936 4325410 268435457 335544320 2147483908 16384 263265 4194305 8536577 1073758208 2147484162 306184192 2629636 1 1 1088 0 0 2147633152 2097152 513 0 8388608 0 3145728 8 1 4 1 4 8
is_linear=0
shrinkage=0.05


Tree=88
num_leaves=7
num_cat=6
split_feature=8 7 0 8 4 1
split_gain=27.3753 12.6277 2.51408 0.768362 0.0450135 0.0321081
threshold=0 1 2 3 4 5
decision_type=9 9 9 9 1 9
left_child=1 -1 -2 -4 5 -5
right_child=2 -3 3 4 -6 -7
leaf_value=0.049724705272700176 0.014194778449766155 -0.012040044015658394 0.0040235627680510885 -0.029678727193841098 -0.035121916422639364 -0.033494891061557557
leaf_weight=29.156384741421789 2.2001565315295011 12.113860586192457 7.1199168658349663 28.393691184232011 5.9483685791492453 6.8396141577977678
leaf_count=1026 255 1236 519 4194 226 1931
internal_value=0 0.0327829 -0.0171671 -0.0207853 -0.0250226 -0.0304195
internal_weight=0 41.2702 50.5017 48.3016 41.1817 35.2333
internal_count=9387 2262 7125 6870 6351 6125
cat_boundaries=0 10 17 22 27 28 29
cat_threshold=1056792 1606912 1055752 4325488 65537 301989888 0 2147483648 1317120 34603136 134218753 0 2147550208 589824 0 131072 272 256 0 32 4 15205376 0 0 33024 1048576 269484032 1 8
is_linear=0
shrinkage=0.05


Tree=89
num_leaves=5
num_cat=4
split_feature=4 6 1 1
split_gain=32.0854 0.000337173 0.000128643 5.69162e-06
threshold=0 1 2 3
decision_type=1 9 9 9
left_child=1 3 -3 -1
right_child=-2 2 -4 -5
leaf_value=-0.033513234844443698 0.015609957650226115 -0.033831905431205456 -0.033581239943088419 -0.033460612968704305
leaf_weight=23.707163359271362 85.41816246509552 16.338930369121954 7.4533105357550111 6.5606012074276832
leaf_count=4302 304 1952 1430 1399
internal_value=0 -0.0336125 -0.0337534 -0.0335018
internal_weight=0 54.06 23.7922 30.2678
internal_count=9387 9083 3382 5701
cat_boundaries=0 1 2 3 4
cat_threshold=1 8 8 8
is_linear=0
shrinkage=0.05


Tree=90
num_leaves=12
num_cat=11
split_feature=3 7 3 0 1 4 4 6 6 6 4
split_gain=32.5496 10.7762 7.6968 1.77949 1.32741 2.11132 0.660795 0.208669 0.170314 0.0546563 5.47549e-05
threshold=0 1 2 3 4 5 6 7 8 9 10
decision_type=9 9 9 9 9 1 1 9 9 9 1
left_child=3 4 8 -1 5 7 -4 -2 -3 -6 -11
right_child=1 2 6 -5 9 -7 -8 -9 -10 10 -12
leaf_value=-0.0073590243699332165 0.029326177535842737 0.023740999055773756 -0.018114141028549312 -0.034183322190036933 0.029109949789937913 0.0061029402434115169 -0.032329951356245633 0.021945618112336709 0.034611992131511414 0.03357771196921721 0.03373598102489421
leaf_weight=31.954188633710146 23.345442388672382 7.4427866265177727 17.792298600077629 50.405911914072931 9.2294580894522369 19.227678447961807 15.122459503356366 16.237909207586199 6.983460574410854 9.1380118308588862 13.594784036278725
leaf_count=569 3088 229 61 459 1200 71 611 1369 468 1228 68
internal_value=0 0.0121506 -0.00685007 -0.0256996 0.0217564 0.0196958 -0.0189026 0.0262985 0.0171296 0.0323549 0.0336724
internal_weight=0 138.114 47.341 82.3601 90.7733 58.811 32.9148 39.5834 14.4262 31.9623 22.7328
internal_count=9421 8393 1369 1028 7024 4528 672 4457 697 2496 1296
cat_boundaries=0 17 24 40 44 45 46 47 48 49 50 51
cat_threshold=0 2197815296 12713986 32768 32896 33024 262160 1 4228097 33554432 8192 545259776 1073741824 0 0 8390656 16386 184549393 134217732 21038128 65540 67436672 6966720 40 134217728 67125272 0 0 0 0 0 20972544 128 8388608 33554432 0 1 0 536870912 1073741840 0 8404992 8396802 2048 8 1 2 8 4 8 1
is_linear=0
shrinkage=0.05


Tree=91
num_leaves=10
num_cat=9
split_feature=8 7 8 6 6 1 6 6 1
split_gain=29.0416 11.3553 4.2319 3.51977 0.787345 0.555857 0.10009 0.000448016 0.000213198
threshold=0 1 2 3 4 5 6 7 8
decision_type=9 9 9 9 9 9 9 9 9
left_child=1 7 3 -2 5 -4 -3 -1 -6
right_child=2 6 4 -5 8 -7 -8 -9 -10
leaf_value=-0.034845863043104629 0.036953712023291119 0.065077166177816767 -0.034174148900554945 -0.020926851687998502 -0.033512399822304993 -0.015159681646387597 0.070799693598171773 -0.034106440059164099 -0.033966522917920121
leaf_weight=4.4927951127756387 7.9607595799025148 22.284098240779713 5.0633729230612516 3.9199025603011233 3.1071662176400423 15.954526682849975 11.6283235209994 3.7654750151559693 15.364190505584704
leaf_count=352 323 619 1088 662 958 1240 719 443 3017
internal_value=0 0.038115 -0.0135042 0.0096957 -0.0210328 -0.0197404 0.0517728 -0.0156084 -0.0338901
internal_weight=0 42.1707 51.3699 11.8807 39.4893 21.0179 33.9124 8.25827 18.4714
internal_count=9421 2133 7288 985 6303 2328 1338 795 3975
cat_boundaries=0 10 16 25 26 27 28 29 30 31
cat_threshold=1188176 558336 33792 21102696 65537 33554432 67108864 2147483648 5243184 34734080 16 134217732 32 67108868 327680 6815808 8 1048576 6408 1048592 269484032 268435456 0 0 262144 4 4 4 4 4 4
is_linear=0
shrinkage=0.05


Tree=92
num_leaves=5
num_cat=4
split_feature=4 6 1 1
split_gain=28.2751 0.000302938 0.000112151 4.61421e-06
threshold=0 1 2 3
decision_type=1 9 9 9
left_child=1 2 -1 -3
right_child=-2 3 -4 -5
leaf_value=-0.033576151527690994 0.013012466625522211 -0.033504874581648678 -0.033814184980194666 -0.03345670055859748
leaf_weight=7.2672922676429152 88.135686576366425 22.400219176430255 15.508431306341665 6.3881649153772768
leaf_count=1443 309 4295 1944 1430
internal_value=0 -0.033602 -0.0337382 -0.0334942
internal_weight=0 51.5641 22.7757 28.7884
internal_count=9421 9112 3387 5725
cat_boundaries=0 1 2 3 4
cat_threshold=1 4 4 8
is_linear=0
shrinkage=0.05


Tree=93
num_leaves=10
num_cat=9
split_feature=3 8 8 7 7 4 3 4 1
split_gain=30.2397 16.8755 7.99906 4.30235 1.30366 0.803621 0.100581 0.0825163 0.0142115
threshold=0 1 2 3 4 5 6 7 8
decision_type=9 9 9 9 9 1 9 1 9
left_child=2 3 -1 6 -3 -4 -2 8 -6
right_child=1 4 5 -5 7 -7 -8 -9 -10
leaf_value=0.0048202291590709418 0.012725482485666552 -0.0061091285313785021 -0.027748341883502076 -0.032658338671514277 0.029731795785641738 -0.038192091659085235 -0.0021500542511981744 0.0336020345136731 0.03141660799613076
leaf_weight=26.302168917842209 4.8724798243492842 6.279553129337728 42.498850589618087 13.173764817882331 37.822162647731602 32.509540468454361 5.906844260171054 28.16397950053215 18.706949867773801
leaf_count=249 317 125 892 432 4392 93 384 131 2463
internal_value=0 0.0156684 -0.0201768 -0.0177232 0.0253449 -0.0284781 0.00746217 0.0280759 0.0302893
internal_weight=0 114.926 101.311 23.9531 90.9726 75.0084 10.7793 84.6931 56.5291
internal_count=9478 8244 1234 1133 7111 985 701 6986 6855
cat_boundaries=0 17 27 35 41 48 49 65 66 67
cat_threshold=67108864 16777220 4333570 256 32896 32768 262160 4210689 4195329 0 8192 536936704 1073741824 0 33555460 8394752 16386 16 1608712 32896 20971528 8192 0 67109124 0 80 5242881 33554436 131073 268468232 16 0 0 0 134217728 1049 4 1040 0 262144 2621440 576 512 16384 268435456 0 536905728 2 1 0 16 0 0 0 256 2 0 0 0 0 0 0 0 0 1073774592 1 8
is_linear=0
shrinkage=0.05


Tree=94
num_leaves=7
num_cat=6
split_feature=8 7 8 0 4 1
split_gain=25.1274 11.2259 2.00146 1.6818 0.14759 0.0267849
threshold=0 1 2 3 4 5
decision_type=9 9 9 9 1 9
left_child=1 -1 3 -2 5 -4
right_child=2 -3 4 -5 -6 -7
leaf_value=0.050013799719702413 0.012828488926453961 -0.01130858636977846 -0.024662987375810214 -0.010114328536598122 -0.034542972678228243 -0.028002548035444542
leaf_weight=26.328818155336194 8.5430012524593604 11.471014786860904 26.90032250713557 5.6427278704941264 5.0693094870075575 7.7293156425002953
leaf_count=904 512 1281 4071 464 219 2027
internal_value=0 0.0329318 -0.015267 0.0032938 -0.0212277 -0.0254084
internal_weight=0 37.7998 53.8847 14.1857 39.6989 34.6296
internal_count=9478 2185 7293 976 6317 6098
cat_boundaries=0 10 17 26 31 32 33
cat_threshold=139536 525312 1048585 21102696 65537 301989888 67108864 2147483648 4462896 34734208 134218753 0 2147484672 589824 0 134348800 276 0 32768 35840 16 269484032 0 256 0 1048576 16897 8388608 2 0 2097152 1 8
is_linear=0
shrinkage=0.05


Tree=95
num_leaves=11
num_cat=10
split_feature=8 0 8 8 6 1 6 6 2 6
split_gain=23.2442 9.98696 2.80945 2.59639 1.61817 0.720232 0.250825 0.207307 0.0250508 0.0119642
threshold=0 1 2 3 4 5 6 7 8 9
decision_type=9 9 9 9 9 9 9 9 1 9
left_child=4 2 -2 -4 -1 6 -3 -5 9 -7
right_child=1 5 3 7 -6 8 -8 -9 -10 -11
leaf_value=0.018398861072639733 0.016875118472355878 -0.015448559449344288 0.011512010183155147 -0.025931963288175798 0.038099731805518178 -0.035002928354082703 -0.028123978395893701 -0.039864406421017878 -0.041200715106439585 -0.037070369666637126
leaf_weight=17.178249664139003 17.009921661810949 4.8812435809522867 5.6834484990686178 4.5974870522040874 26.505200423533097 10.420973360072821 19.472550142789263 6.3681658499408531 2.9600975585635743 21.302184510277584
leaf_count=1442 341 1065 154 95 491 2036 1326 748 105 1675
internal_value=0 -0.0159324 0.00602988 -0.0072249 0.0246985 -0.0275136 -0.0255834 -0.0177951 -0.0368017 -0.0363912
internal_weight=0 92.6961 33.659 16.6491 43.6835 59.037 24.3538 10.9657 34.6833 31.7232
internal_count=9478 7545 1338 997 1933 6207 2391 843 3816 3711
cat_boundaries=0 10 15 25 35 36 37 38 39 40 41
cat_threshold=2181316800 605689929 34816 0 12288 67108864 2147483908 16384 268440672 131074 1088 16793600 2147483650 2315257856 8194 22 256 268435720 1048592 0 33554432 0 16777216 67600 33554432 1572864 0 0 16777224 0 8 67108864 134217728 536871168 4194304 8 4 8 4 1 8
is_linear=0
shrinkage=0.05


Tree=96
num_leaves=9
num_cat=8
split_feature=3 8 3 0 4 2 4 4
split_gain=29.7547 22.3174 5.23663 2.12807 1.16697 0.304509 0.0400459 0.00573485
threshold=0 1 2 3 4 5 6 7
decision_type=9 9 9 9 1 1 1 1
left_child=4 2 -2 -3 -1 7 -4 -5
right_child=1 3 6 5 -6 -7 -8 -9
leaf_value=-0.019359665731177741 0.011719773050812775 -0.0084912723085191471 -0.035579120720168098 0.032994788711606902 -0.030881576970312203 0.043529285648945294 -0.039512388736286735 0.032055883602269332
leaf_weight=53.469336657784879 9.1260525276884419 5.740037193056196 11.66077488521114 53.204546571243554 37.311346679925919 7.1033760714344671 14.541034370660782 23.423926845192909
leaf_count=915 871 150 774 6308 107 190 43 109
internal_value=0 0.0142183 -0.0168832 0.0269614 -0.0217044 0.0300384 -0.027331 0.0327078
internal_weight=0 124.8 35.3279 89.4719 90.7807 83.7318 26.2018 76.6285
internal_count=9467 8445 1688 6757 1022 6607 817 6417
cat_boundaries=0 17 27 43 48 49 50 51 52
cat_threshold=67108864 2164260864 12713986 32768 32896 33024 262160 4210689 4228097 0 8192 536871168 1073741824 0 1028 8390656 16386 2147484114 1606664 34816 20971520 268509184 0 67109124 0 810550288 4194305 134225920 1050648 0 0 0 0 33554432 0 0 536871040 128 0 0 0 1 32768 64 4 2147483648 167772176 139267 1 1 1 1
is_linear=0
shrinkage=0.05


Tree=97
num_leaves=5
num_cat=4
split_feature=7 8 6 4
split_gain=23.3045 5.58594 0.150482 0.120826
threshold=0 1 2 3
decision_type=9 9 9 1
left_child=-1 -2 3 -3
right_child=1 2 -4 -5
leaf_value=0.029908747639924516 0.012448307940365423 -0.025576688716091974 -0.0335760795043685 -0.034899111241620158
leaf_weight=42.840985090238973 10.090809991699642 17.714793343911879 17.912252601818182 4.3240888952277627
leaf_count=829 628 3032 4806 172
internal_value=0 -0.0159109 -0.0241319 -0.0274058
internal_weight=0 50.0419 39.9511 22.0389
